nep4_zbl 1 Ne 
zbl 0.8 1.6
cutoff 6 6 39 39
n_max 6 6
basis_size 10 8
l_max 4 2 0
ANN 50 0
  3.6654046e-06
  2.4582764e-06
  3.3112617e-06
  2.1531690e-05
  4.9929167e-05
 -8.7046545e-05
 -5.5882415e-06
  3.0645304e-05
 -1.5516634e-05
 -1.9380122e-06
  4.5800800e-05
 -5.2786421e-05
  3.9219529e-05
 -3.5787405e-05
 -1.9589797e-05
 -1.7772201e-05
 -2.9311392e-05
  9.7070688e-06
  1.6873109e-05
 -2.9360719e-05
 -8.1946682e-06
  1.2786389e-05
 -3.1159798e-05
 -9.8267883e-06
 -3.7769871e-06
 -3.2227017e-05
  1.9434527e-05
  8.0553900e-06
 -2.2403046e-05
  2.3524847e-06
 -9.6371668e-06
  4.4490083e-05
  2.8446218e-06
  7.0479850e-06
 -1.7487153e-05
  3.5433823e-05
 -4.9516675e-05
  1.7064058e-05
 -4.8451748e-06
  8.6651153e-07
  1.1023079e-05
  2.2176023e-06
 -2.9957548e-01
  2.5878203e-01
 -3.5016432e-02
 -3.0855575e-01
 -5.7943976e-01
 -6.6730320e-02
  1.2552668e-01
  1.9844989e-01
  2.5227258e-02
 -5.9675341e-03
  5.0211739e-04
 -7.2222105e-03
 -2.7283153e-03
  1.7329002e-03
  2.4163796e-01
  3.2494180e-02
  1.3992416e-02
 -1.3929838e-04
 -1.7075630e-01
 -2.6210904e-02
  8.0082966e-03
  2.4116573e-01
  1.1668409e-03
  1.1415493e-02
 -1.1709405e-02
 -1.2632494e-01
 -6.2941904e-03
  5.3864447e-03
  2.4346478e-01
  2.6651291e-02
  1.6225895e-04
 -3.6817178e-04
 -5.6843802e-02
 -2.6950574e-02
 -4.9161073e-03
  2.8348782e-06
  3.5027586e-04
 -2.8703669e-05
  6.8320405e-05
 -2.5780639e-03
 -4.8944726e-06
  9.7511690e-03
 -1.4585002e-01
  7.6379694e-02
 -7.2251862e-01
  4.6874014e-01
 -4.4068301e-01
 -1.1094689e+00
 -2.6892209e-01
 -2.7189764e-05
 -6.8338800e-06
  7.7689956e-03
 -1.2340610e-03
 -3.2143167e-01
 -3.8125043e-05
  1.1474275e-02
 -1.2061923e-05
  4.4675468e-05
  9.3895269e-06
 -1.7895197e-02
 -8.5541195e-01
 -1.0521572e-04
 -1.7468571e-07
  1.9618129e-02
 -2.0460315e-05
  1.0880270e-03
  2.4693366e-04
 -1.0559235e+00
  2.6589321e-05
  2.5631633e-01
  1.8216380e-04
 -9.2113469e-06
 -1.5036897e-03
  7.0281967e-05
 -1.9651864e-01
 -7.2206683e-02
  2.8544607e-06
 -6.7071078e-06
 -6.7779016e-05
  5.6055866e-05
 -1.5863287e-05
 -2.7464574e-05
 -2.5812049e-05
  3.7501082e-05
  4.0010742e-05
  1.0905221e-04
 -2.2075132e-01
  1.7314247e-04
 -1.9951826e-02
 -2.4799898e-02
  9.1324616e-03
  4.1380743e-05
 -6.3131165e-06
  8.4374824e-06
 -7.1848001e-05
 -5.2367799e-05
  1.1270861e-04
 -1.8266830e-05
 -6.2330808e-05
  4.4341406e-05
  1.5660740e-05
 -1.0654596e-05
 -1.1707679e-04
 -2.3631999e-06
 -1.2303043e-05
  5.2600975e-05
 -1.2495028e-05
  3.8233815e-05
 -2.3076678e-05
 -9.7848783e-07
  1.3528960e-05
 -1.3702286e-06
  1.7926892e-05
  3.6478443e-05
  1.8205390e-04
  1.6215302e-04
 -3.8942697e-05
 -8.3655204e-06
 -8.9817649e-06
  4.1769559e-05
 -2.4689971e-06
 -2.0611891e-05
  6.0781117e-06
 -3.4019376e-05
 -1.1412606e-05
 -7.1849413e-06
  9.7877383e-01
  8.6565816e-01
  1.2794081e-03
  9.6531808e-01
 -3.4329649e-02
 -2.9287964e-01
  1.0838072e+00
 -9.9545841e-06
 -1.7376646e-05
 -5.8119265e-05
 -1.1119381e-04
 -2.1243790e-05
 -2.3927641e-05
  1.6706539e-04
 -1.1320302e-05
  5.4851422e-05
  3.7228491e-02
 -4.0213685e-04
 -9.5425872e-03
  1.0561284e-05
  8.2001305e-04
 -2.2861263e-05
 -3.1283482e-06
 -5.1861584e-06
 -4.8396230e-04
 -1.2960661e-02
  9.5809628e-06
 -1.2746219e-05
  1.1001805e-07
 -4.3797838e-05
 -5.3076718e-02
 -2.9110719e-04
 -5.0362313e-01
 -1.6077756e-05
 -4.7067815e-04
  8.7630394e-07
 -2.5960961e-05
 -2.5190455e-05
 -3.0913809e-06
 -5.8562469e-05
  2.7600023e-05
  7.0937749e-05
  1.2391564e-01
 -2.6437883e-06
  1.6001580e-02
  2.1777305e-01
  9.7545519e-02
  7.9526410e-02
 -3.4466720e-01
 -1.0018185e-05
  4.0280170e-06
  8.9469331e-06
  1.1276278e-05
 -4.8344536e-06
 -5.5047362e-06
 -6.2723630e-05
 -4.2404379e-05
 -4.1364859e-05
  4.3118062e-06
  6.1270497e-05
  6.3242146e-06
  1.0436304e-06
 -5.3498490e-05
  1.1198946e-05
 -1.1551493e-05
  4.7253936e-05
 -8.4791481e-07
 -5.3228923e-06
 -6.5933414e-06
  2.9081648e-05
  1.8167897e-06
  2.7880360e-06
 -1.7594948e-06
 -1.0516287e-05
 -5.5392757e-06
  1.0719324e-05
  1.9439607e-05
  9.5368459e-06
 -5.5838732e-06
  9.7626128e-07
  7.8313933e-06
  1.6206239e-05
 -2.2289478e-05
  5.6450212e-05
 -1.0957727e+00
 -1.2265711e+00
  7.8477931e-01
 -1.4774795e+00
 -1.2505269e-01
 -1.2559183e-01
  1.8913373e-01
 -7.9718257e-06
  5.1022740e-05
  6.5347209e-04
  3.2627807e-07
 -9.2898399e-06
 -5.8715966e-07
 -7.2073992e-05
 -1.0336575e-05
 -8.4281064e-06
  2.2952097e-06
 -5.0604398e-05
  1.3166960e-05
 -5.3144649e-06
 -6.9132636e-07
 -1.3712848e-06
  1.8580646e-05
 -1.0862214e-01
 -1.6879136e-06
  3.2184884e-02
 -1.5919941e-04
 -2.2529717e-05
  1.2194612e-05
 -1.8574265e-06
 -4.1145749e-02
 -6.7731671e-05
  3.9511690e-01
  6.8578747e-06
  1.9998679e-05
  1.0181592e-05
  1.8134710e-05
  6.8082559e-06
 -2.4384934e-05
 -9.5813657e-06
 -2.3378127e-05
 -4.9345954e-07
  8.9715433e-01
 -1.7735972e-01
  1.5874212e+00
  1.9370654e-01
  1.7509661e+00
  7.8327841e-01
  2.7895826e-01
  4.7379604e-06
  7.7364475e-06
 -2.6268524e-03
  1.1546364e-02
  6.9469833e-01
  6.2255334e-05
 -9.3494393e-03
 -9.8954930e-05
 -3.9828412e-02
 -8.4558334e-03
  3.2449011e-02
  1.2569846e+00
 -2.6039468e-05
 -8.7888446e-05
 -1.1872237e-01
  2.4634454e-01
  1.4912769e-04
  5.2460201e-02
  1.8130510e+00
  7.4086209e-05
 -2.6173145e-01
 -6.9504440e-02
  1.0930306e-05
  2.3985500e-02
  8.2056308e-03
  5.5079706e-02
  1.1041846e-02
  9.5128119e-03
 -3.3654418e-05
 -7.8984913e-06
  1.3871341e-05
 -4.5165066e-07
  3.2710421e-05
  2.0089159e-07
  4.1811632e-05
  1.8981840e-01
  5.2017766e-01
  4.5283802e-02
 -1.6237260e+00
 -8.5290469e-02
 -3.2296288e-01
  3.7120792e-01
  1.3191273e-05
 -3.6278225e-02
  9.8894394e-05
  3.3420110e-05
  5.3897534e-02
  1.5968809e-04
 -2.2574290e-05
 -5.1690444e-07
  3.4282063e-04
 -1.7387039e-05
  1.4934885e-04
 -1.5328109e-05
 -1.7049697e-05
 -3.0068526e-05
 -1.1526040e-05
  1.7084529e-05
 -1.0305147e-04
  1.6014877e-05
 -3.0259537e-06
  1.1438628e-06
  5.7984311e-05
  8.2212406e-05
  1.6539267e-04
 -1.0113597e-02
 -4.5772649e-05
  1.5368423e-05
 -1.6094347e-05
  9.8498727e-05
 -3.7175737e-06
 -5.8473961e-05
  9.2620330e-06
 -3.9723578e-05
  1.1058391e-05
  7.2628682e-06
 -1.5086770e-05
 -1.3139790e-01
  1.2225339e+00
  5.6751865e-05
  5.2937222e-01
  3.4648186e-01
  1.8545994e-01
 -6.1904579e-01
  3.1908894e-05
 -8.0082420e-05
  1.4290422e-03
 -1.0763724e-07
 -3.4891345e-05
  2.1493301e-05
  8.0986838e-06
  2.5702531e-05
  1.3666910e-06
  1.6891518e-04
 -1.0709287e-05
  5.4639263e-06
 -6.7008813e-07
 -1.5284182e-04
 -1.1996992e-04
  2.8380999e-05
  5.0923914e-02
  2.1445800e-05
  3.7388911e-04
  8.0866019e-05
 -2.7235951e-06
  5.7902802e-05
 -1.1521425e-05
  7.4659943e-06
 -4.6707049e-05
  1.6585156e-02
  3.1391475e-05
 -1.3557892e-06
 -7.4330537e-06
  7.8887002e-05
  3.9664214e-05
  7.2557391e-06
  8.4340791e-06
  4.1817716e-06
  1.3065844e-05
 -9.2886075e-05
  1.2255403e-03
 -1.3002597e-02
 -4.8951656e-02
 -1.5714671e-01
 -7.1474329e-02
  4.6585269e-02
 -6.8703016e-06
 -6.8052332e-06
  9.3233903e-05
  1.6185331e-05
  7.2181706e-06
  9.1802431e-06
 -1.2875790e-05
  2.1608610e-05
 -2.1819100e-05
 -2.5763189e-05
 -3.2435637e-05
  9.9853132e-06
  2.9666853e-05
 -2.7767315e-05
 -2.7252472e-05
 -3.1460052e-06
  1.5191088e-06
  2.7013350e-05
 -3.2467535e-04
  8.4223666e-06
  8.7516537e-06
  7.5958437e-06
  1.7471511e-05
 -3.0044359e-04
  1.3174900e-06
 -1.7279852e-05
  4.1460986e-05
 -1.4600679e-05
  9.8301498e-06
 -6.2385254e-05
  1.4999740e-05
 -2.9239998e-05
 -1.4689947e-05
  8.3259592e-06
 -2.3897306e-05
  1.1525210e+00
 -1.2403289e+00
 -5.3961897e-01
 -3.8489079e-01
 -1.8549649e-02
 -4.4822621e-01
  1.6374502e-01
 -9.6196136e-06
  1.0873054e-05
 -4.0179424e-02
  4.7247177e-06
  2.2433046e-06
  7.7425429e-06
 -3.7386126e-05
 -3.0062409e-05
 -2.2528799e-05
  3.1617858e-06
 -4.1347776e-05
 -8.8976431e-06
  1.5535330e-06
  2.6493784e-05
  6.2888605e-05
 -7.7747600e-04
 -4.3037441e-02
  1.9642770e-05
 -7.6211886e-03
 -4.0084364e-05
 -1.8266044e-05
  2.6558996e-06
 -3.7854763e-05
  2.9591694e-05
  8.8970111e-05
 -1.6636313e-01
  2.3388478e-05
 -1.7896265e-05
 -1.7073120e-04
  1.2619114e-05
 -3.2433978e-05
 -2.6353011e-05
  3.6085389e-06
 -9.5074312e-05
  1.5102052e-05
 -1.5135339e-01
 -6.3088623e-06
 -1.1630983e-04
 -3.0769810e-05
  6.6467444e-05
 -2.1401315e-04
  1.5504284e-05
  7.5852491e-05
  9.9927147e-06
  2.5650737e-05
  1.2163325e-04
 -2.5000736e-05
 -1.4134099e-05
  1.2620631e-05
 -2.8137326e-06
  2.2614520e-06
  1.9018386e-06
 -3.2294902e-05
  1.0643313e-05
  7.5819908e-06
  1.0261631e-05
 -1.2794210e-05
 -1.7555798e-06
  4.6885930e-06
  5.3024563e-05
  1.0321154e-05
 -3.6146321e-06
  8.7687822e-06
  2.5787804e-05
 -1.3987516e-05
 -5.6898989e-05
  4.3644963e-05
  3.4849363e-05
 -2.4737163e-05
 -9.1750708e-06
  7.5714979e-06
  1.2472116e-06
 -2.5701533e-07
  2.9825746e-05
  9.9019626e-06
 -2.6576945e-05
 -4.1044395e-06
  1.9999801e-01
  4.7791384e-02
 -1.2595280e-01
 -3.4523673e-05
 -1.6590945e-01
 -6.6223402e-05
  5.7757474e-02
 -8.0632481e-06
  2.5487252e-06
 -8.1687094e-06
 -2.1445373e-06
  1.2597966e-05
 -5.0994063e-06
 -8.4258099e-06
  8.7941989e-06
  8.4458197e-06
 -3.4123375e-05
 -2.7902436e-06
 -4.6255846e-05
  1.4047431e-04
  2.3279503e-05
 -6.0488333e-06
 -1.3958087e-05
  5.9695805e-05
 -1.4083387e-04
  3.7148541e-07
  4.0611708e-06
  1.9095276e-05
 -2.1669417e-05
  4.2059768e-05
 -1.8992689e-05
  4.4935318e-06
 -3.1427389e-05
 -2.2833619e-05
 -7.2863572e-06
  2.7459811e-05
 -5.3564418e-06
  5.8030801e-06
  1.3482116e-05
 -1.7689021e-05
  4.7703608e-05
 -3.3917745e-06
  4.1479848e-02
  2.0506734e-04
 -9.2968123e-04
 -1.2362337e-01
 -3.4878869e-02
 -1.2581907e-05
  9.6840829e-02
 -4.4925207e-05
  1.2648541e-05
 -4.6749548e-05
 -8.0527061e-06
 -2.0935785e-04
 -2.3863560e-05
  1.1851079e-05
  1.0435287e-05
 -3.9755519e-06
 -2.1487987e-05
  2.2401473e-05
  1.6647880e-05
  9.0803576e-07
  5.2963373e-06
  2.8673880e-06
  7.8039615e-05
  1.8888339e-05
  1.4665769e-05
 -8.7746403e-06
  1.2039478e-06
  5.8377318e-05
  2.4037347e-06
 -1.4064067e-05
 -2.4008717e-05
 -1.0257964e-04
  8.6516138e-06
 -1.2023002e-05
  9.8237957e-05
  2.4703437e-05
  6.3806710e-06
 -2.0354382e-05
  2.0350731e-06
  3.5613314e-06
 -1.5228670e-04
  4.9513034e-07
  3.6204059e-05
 -9.2852123e-02
  5.7557933e-02
  1.1862295e-01
  2.2146431e-01
  1.3050537e-01
 -8.4323816e-02
  5.4097727e-06
  1.1390625e-07
  5.8550708e-05
 -2.4851404e-05
 -1.2953054e-04
  4.3799491e-06
  9.1768646e-07
  1.7778309e-05
  3.8138645e-05
 -4.4819221e-06
  1.5555322e-06
  1.6039559e-04
  8.5321899e-06
  7.3637825e-06
 -1.9720363e-05
  8.8478773e-06
  6.6560160e-06
 -2.1190148e-05
  5.7558151e-05
  2.3877235e-05
 -7.0349563e-07
 -3.4661680e-05
  3.0177465e-05
  2.2657207e-05
 -6.8081995e-06
  2.6874459e-06
  6.5782547e-06
 -3.4557768e-05
  1.2853093e-05
 -5.6237318e-06
 -1.0697727e-05
 -3.9461767e-05
 -8.0944228e-06
 -2.4901228e-06
 -4.2104475e-06
  2.4827275e-01
 -1.3258489e+00
  2.5406988e-02
  3.0364034e-01
  8.5041612e-02
  1.1446584e-01
 -5.0097197e-01
 -8.0068749e-05
  3.4155295e-05
 -2.3345463e-05
 -2.1405851e-06
  4.5698807e-06
  1.1681345e-05
  3.8122689e-05
 -2.0800191e-05
 -9.8175506e-06
  3.9359140e-05
 -1.1579044e-05
  1.0905391e-05
 -1.4959179e-06
 -1.5572874e-05
 -8.2893166e-06
  7.5047428e-06
  3.9792500e-05
  4.9433115e-06
  3.1777176e-06
  1.7043900e-05
  1.9802646e-05
  2.5623303e-05
 -1.7547427e-05
  2.8372042e-05
 -1.7972201e-05
  1.5695177e-05
  4.7745492e-05
 -6.5884997e-05
  1.6424388e-05
  1.1953604e-05
  1.6267408e-06
  8.3645391e-06
 -3.1471518e-05
 -8.9649220e-06
 -1.1606553e-05
  6.7485325e-02
  1.4588670e-04
 -4.3617317e-01
 -7.1812812e-03
 -1.7698962e-02
 -7.6926248e-05
  3.4413661e-03
 -2.2562543e-05
  6.5431290e-05
  1.1899634e-05
 -4.8772079e-05
 -7.2238995e-06
 -4.4016357e-05
  2.3234393e-06
 -6.6588154e-06
 -1.7045568e-06
 -2.0244021e-05
 -1.6290634e-06
 -1.0391936e-05
 -1.0833984e-05
  2.5361456e-05
  1.4869816e-05
 -3.3012002e-05
 -1.2754993e-05
  2.4081741e-05
 -6.5454760e-06
  2.7428623e-05
  1.9577326e-05
 -4.3316568e-06
 -6.8945963e-05
 -2.6274234e-05
 -7.1966406e-07
  5.6124609e-06
  1.8428547e-05
 -3.4913528e-06
  8.7978242e-06
  8.4286366e-06
  5.9357451e-05
  4.4930830e-06
  5.1503783e-05
  4.9274720e-05
 -1.0095288e-05
  6.9661442e-06
  1.4251914e-05
  3.6366408e-05
 -1.9450312e-05
 -2.7605052e-05
  1.1753069e-05
 -2.4059424e-05
  6.1379092e-06
  4.9573947e-07
 -3.0158750e-05
 -2.7005930e-07
  1.1068794e-05
  1.8301673e-06
  6.2928975e-06
  4.9109858e-06
  7.5338203e-06
  2.0297548e-05
 -2.5338250e-06
 -9.2583116e-07
  2.1493217e-05
 -9.8187038e-06
  1.1732425e-05
 -3.4904715e-05
 -2.0691126e-05
  9.0548074e-06
  1.0379294e-05
  1.8068622e-05
  1.4711610e-07
 -2.3864173e-05
 -1.6071592e-05
  1.3545407e-06
  5.7126758e-06
  9.9716046e-05
 -1.2892766e-05
  1.5044084e-05
  2.0038478e-05
  1.8049193e-06
  4.5830120e-06
  3.4535326e-06
 -2.3019302e-06
 -9.6600361e-06
  3.4013926e-06
 -3.0839077e-01
  1.9119889e-04
 -1.3256597e-02
 -8.0796927e-02
 -1.2182782e-02
 -4.3648681e-05
  9.2895709e-02
 -3.5921636e-05
 -1.6914262e-06
  1.2046683e-04
 -4.6815012e-06
  1.2203403e-05
  5.7701168e-06
  4.3532393e-05
 -3.6947073e-05
 -9.7862694e-06
 -2.5752372e-06
 -1.2729812e-05
  4.0029513e-06
  5.1646479e-05
  1.2985748e-05
 -1.2967269e-05
  1.1101254e-05
  8.9752730e-06
 -2.8474653e-05
 -1.3183273e-05
  1.7390932e-05
  5.0666931e-05
 -4.0540483e-05
  1.3929678e-05
 -2.3815788e-05
 -2.7660984e-05
  3.6697472e-06
 -1.4910740e-06
 -5.6100555e-05
  7.2038449e-07
 -5.2492007e-05
 -1.7682140e-05
 -1.2088902e-05
  3.7274190e-06
 -8.0602052e-07
 -1.3686773e-05
 -9.2422670e-01
 -1.3624209e-01
 -3.1525305e-01
 -1.2173667e+00
  1.0767728e+00
  6.8864180e-03
 -5.6499100e-01
  1.0988300e-05
 -1.2305008e-04
 -1.5865518e-04
 -9.4729885e-06
  7.9846701e-05
 -3.4468147e-05
 -3.2612749e-03
 -1.1806699e-04
 -1.3185609e-05
  8.7916660e-06
  2.5988283e-04
  5.0819211e-04
 -9.2464273e-07
 -1.9246236e-04
 -2.6462772e-01
 -1.2053805e-03
  2.0793499e-03
  7.7885561e-06
 -4.0753184e-05
  1.0996958e-03
  8.5236163e-05
 -4.3502720e-03
 -1.0336111e-06
  5.2660503e-03
 -4.5272345e-06
 -5.7938164e-06
  1.1825748e-04
  7.1332615e-04
 -2.3706325e-05
 -8.2137321e-06
  1.9387739e-05
 -2.4990872e-05
 -8.1729056e-08
  1.0818497e-04
 -1.7347496e-05
  2.9148710e-01
 -3.2629289e-02
 -6.9139250e-02
 -2.5529362e-02
  4.1519091e-01
  1.4980389e-01
 -9.3906510e-01
 -1.4184015e-05
 -7.5363624e-07
  9.0243295e-05
 -3.4133500e-05
  4.5359924e-05
 -2.8780403e-06
  9.5173873e-06
 -1.1640231e-05
 -4.2076019e-05
  2.1081675e-04
 -9.4305378e-06
  7.7484165e-06
 -1.7840370e-06
 -2.1123045e-04
 -1.3921360e-05
 -1.9803127e-04
  5.6425463e-03
  1.1455281e-04
  6.3713328e-03
 -3.6568588e-06
 -3.0396426e-05
  5.3200238e-06
 -8.5888591e-05
  3.3241059e-03
  1.5948915e-05
  1.9175078e-01
 -1.9384664e-05
 -8.4791454e-06
 -3.9355778e-06
 -1.1399762e-04
 -5.0338741e-07
  1.3229977e-05
  3.9179295e-06
  7.5840321e-06
  2.2326469e-06
  1.6164474e-01
  3.2916859e-02
  2.8764641e-01
  9.0211117e-01
  1.0992692e+00
  4.9285996e-01
 -1.0982203e+00
  1.0495553e-06
 -2.0432630e-01
  2.8960544e-01
  8.8174973e-04
  2.7099556e-01
 -3.2758813e-05
 -1.2735714e-04
  1.5176749e-05
  2.4651018e-01
 -2.9360630e-02
  1.1612450e-02
  4.4165543e-01
  8.5999363e-06
 -2.4933863e-04
  1.7014330e-06
 -8.1409842e-02
 -2.6001018e-01
  5.9371721e-03
  3.0682113e-02
  1.4413548e-02
  2.7249588e-04
  1.3806724e-05
  3.1000200e-05
  1.0160983e-02
 -5.0938763e-02
  8.6649078e-01
  8.2688293e-06
 -4.5105753e-06
  1.6543076e-05
  3.2208420e-05
  5.3243853e-05
  5.1167979e-05
  4.4140970e-06
 -3.4702416e-06
 -3.2943560e-06
 -1.1797414e-04
 -5.5980978e-05
  2.8952045e-04
  4.5750644e-02
  9.9405900e-02
  4.7692382e-03
 -1.0067522e-01
 -2.9931914e-06
 -3.5603026e-07
  1.1277982e-04
  2.1921185e-06
 -3.2811062e-05
 -4.5607048e-06
 -1.2376296e-04
 -1.1203129e-04
 -4.2502183e-05
  2.3348510e-05
  1.6482345e-05
 -1.5686452e-05
  6.3710581e-07
  1.9083338e-05
 -1.4730077e-04
  1.6212907e-05
  4.6511150e-06
  1.2412580e-04
  4.6789646e-05
  2.0081321e-05
 -3.2079111e-05
 -4.8945156e-05
  1.5366701e-05
  1.6966378e-03
  1.8566885e-05
  8.9814275e-05
  1.2692233e-05
 -1.6794462e-07
 -1.6305163e-06
 -9.2479804e-06
 -1.6586797e-05
 -6.2590293e-06
 -1.5647344e-06
  1.5096521e-05
 -8.5739621e-06
  2.4117738e-01
 -9.6681142e-05
  1.4386262e-01
  3.7463790e-01
  9.2631453e-01
  1.2081199e-01
 -5.4049867e-01
 -4.2885251e-04
 -2.0401643e-04
  2.0385338e-02
  6.2745018e-04
  4.8129729e-04
  2.2755810e-05
 -9.1734505e-04
 -1.7391296e-01
 -9.3542587e-04
  1.1811113e-03
  1.1383670e-03
  1.1092755e-01
  5.7457888e-05
 -1.5082086e-02
 -1.8664364e-02
 -1.2285052e-05
 -4.8895716e-03
  6.0672807e-03
  1.4335351e-01
  9.5989046e-05
  2.5236289e-04
 -6.7286653e-04
 -3.3832956e-05
 -1.9720390e-03
  7.2482927e-03
  3.9317122e-01
 -6.9327220e-06
  1.0578066e-02
 -1.4293512e-05
  8.3905461e-06
 -4.1563479e-05
 -7.0261549e-06
  1.5597618e-05
  1.3270496e-05
  7.7534996e-06
 -3.9388298e-05
 -1.4879020e-05
 -1.1282335e-05
 -4.8718681e-05
  4.3595137e-05
  2.0842233e-06
  1.7189770e-05
  1.2956926e-04
  1.9388386e-05
 -4.5256827e-05
  5.1172092e-06
 -1.6673508e-05
 -3.3841643e-05
 -4.0603125e-05
  2.4188641e-05
  8.8305924e-06
 -1.4773401e-06
 -1.9959307e-05
  1.3033167e-04
  3.2567805e-05
 -8.4079356e-06
 -2.7923596e-05
  1.8570519e-05
  8.7743892e-06
  5.5755422e-06
  1.7815977e-06
 -4.9929972e-06
  1.4012056e-05
  1.6432863e-05
 -2.2199221e-05
 -5.2359442e-06
  5.4815191e-05
  6.3202178e-06
  4.2004736e-05
 -4.2511874e-06
 -6.0041883e-05
 -1.7923259e-05
 -1.0965538e-05
 -2.3352226e-05
  1.0026996e-05
 -6.8108984e-06
 -5.7023306e-05
  8.6295605e-01
  3.6143866e-01
 -1.1367024e-01
  1.2899461e+00
 -1.7382614e-01
 -3.3776060e-01
  4.0047166e-01
  6.7633860e-05
  2.0024636e-05
  1.7924392e-06
  4.1341050e-06
 -1.7911954e-05
 -1.4314462e-05
  5.8632366e-05
 -5.5040641e-06
 -7.2032907e-07
  5.2531473e-06
  5.0950002e-06
 -8.6570813e-05
 -4.8824728e-05
  2.3746481e-05
  4.3641296e-05
 -7.8188850e-07
 -9.8388045e-05
  3.7781188e-06
  7.7453815e-06
  1.8598737e-05
  9.4450515e-06
  5.4874090e-05
 -1.7339253e-05
 -1.6785598e-05
 -2.7618647e-04
 -1.6938885e-04
 -4.2190604e-05
 -1.2705194e-05
 -4.8312677e-06
 -7.2519839e-07
 -2.5377958e-05
  1.0910575e-06
 -1.7636701e-06
 -3.4006807e-05
 -7.6746528e-06
 -4.5251474e-02
 -7.0808543e-05
  2.1923996e-05
  8.4860712e-06
  1.1373536e-04
 -8.4478044e-05
 -8.0939142e-05
  4.9936507e-06
  4.0287198e-08
 -1.7467650e-05
  6.2035004e-05
 -1.1360131e-06
  2.6797366e-06
 -2.1541564e-06
 -1.4913996e-05
 -2.9288776e-05
 -6.5031973e-06
  2.7114145e-06
 -4.5789475e-06
 -3.1169595e-05
 -2.0952800e-06
  1.0494958e-06
 -1.1172331e-05
 -1.0102202e-05
 -3.8879814e-05
 -1.0372271e-05
 -1.0087137e-05
 -3.8412600e-06
  6.9360058e-06
 -4.7953171e-07
  3.9388287e-05
 -1.2548274e-05
 -7.4703471e-06
 -1.8385439e-05
  1.6750437e-05
  1.4450745e-05
 -2.1822258e-05
  6.8987997e-06
  1.6007934e-05
 -2.8881391e-06
 -5.4730353e-05
  2.5659971e-05
  3.6972359e-01
  7.7511162e-01
  8.4272010e-04
 -1.2714593e-01
  5.0062847e+00
  1.0718851e+00
 -1.6374623e+00
 -4.1392252e-01
  4.3640193e-01
  6.5077506e-02
 -3.9729066e-02
 -9.7806334e-01
 -4.6849874e-04
  5.1853817e-07
 -1.3923751e-04
 -3.9400728e-03
  3.7395173e-01
 -3.2509342e-01
 -2.0792978e-03
 -1.8251013e-06
  3.1007759e-03
  4.0600430e-06
  2.1223067e-01
  2.8320419e-02
  2.0661253e-02
  9.7629599e-02
 -1.4964223e-01
  7.3218262e-03
 -2.4667585e-03
 -1.4536627e-02
  9.4102710e-02
 -9.7333618e-02
  1.7554964e+00
 -1.0189231e-01
 -5.6270062e-04
  1.4699094e-06
  2.5936348e-05
  2.0820642e-05
  3.3414901e-05
  9.6909343e-06
  6.6541470e-05
  1.9105587e-06
  4.3522512e-05
  1.2990592e-05
  3.0829049e-06
 -4.6322684e-06
  1.3338929e-05
 -5.3825588e-06
  5.3657066e-05
  3.0702096e-05
  3.0417337e-05
 -8.0258342e-06
  9.0150816e-06
  7.8864805e-06
 -4.2819443e-06
  3.2980875e-05
 -2.8934135e-06
 -9.1668862e-06
  6.6489729e-06
  4.9070541e-06
  3.6851350e-06
  2.1375517e-05
  3.1894124e-05
 -1.1169202e-05
  2.0452388e-05
 -9.5243504e-06
  5.2455225e-06
  2.5986174e-06
 -7.0621086e-06
  8.6092507e-05
 -3.4840574e-05
  1.7480215e-05
 -3.3696098e-05
 -5.7679822e-06
  5.8673063e-06
 -5.8118590e-06
 -1.2825376e-05
  3.0832357e-06
 -2.5352823e-05
  2.9461455e-05
 -7.3892777e-05
  6.8555397e-05
  1.4774937e-05
  8.9801006e-06
  2.5395734e-06
  3.3035012e-06
  6.4648748e-07
 -2.6713178e-05
  1.1232196e-05
 -3.5633442e-05
 -3.2071635e-05
  5.0676663e-06
  1.0209309e-04
 -4.0090177e-05
 -1.0308167e-05
  1.3428483e-05
  9.2970913e-06
 -2.2501426e-06
  5.7852458e-06
  2.7267304e-05
  2.6061172e-05
 -1.3318746e-05
  8.7835797e-06
  5.7496798e-08
 -2.1903150e-05
  3.0953182e-05
 -2.2586539e-05
  7.7287605e-06
  3.4565208e-05
 -3.5348871e-06
  1.7674756e-05
 -3.8680491e-06
 -8.3205923e-05
 -3.3015549e-05
 -5.0906651e-06
 -9.9541658e-06
  3.3768972e-06
 -1.0886105e-05
 -2.1925421e-06
 -2.6779862e-05
 -1.0539035e-05
  9.6318645e-06
 -5.4985831e-06
 -3.3293745e-05
 -4.2348665e-06
 -2.0414386e-06
  2.2717781e-05
  3.5567562e-05
  9.4503566e-06
 -8.0545215e-06
  1.1762559e-06
  1.7700260e-05
 -1.3464977e-05
  6.3832226e-06
  2.4619061e-07
  2.3061286e-05
  6.1063256e-06
 -4.3385251e-05
 -1.1870895e-05
  2.3980134e-05
  6.7142714e-06
 -5.5022826e-07
  1.5532838e-04
  1.7232364e-06
  9.1792826e-06
 -1.9213171e-06
 -3.5987036e-05
  1.9225212e-07
  4.9074213e-05
 -1.8856623e-05
  5.3158951e-06
 -7.1275608e-05
  1.5709164e-05
 -2.0623394e-05
 -1.6379236e-06
  9.8342900e-07
  4.0842173e-05
 -1.9150216e-06
  1.0195498e-07
 -8.8147926e-06
  5.8656005e-06
 -1.2394323e-05
  6.8520694e-06
  2.1115462e-05
 -3.4362944e-05
 -7.6869892e-06
 -4.0168517e-05
  6.6924673e-05
 -7.2054386e-02
  1.9046751e-01
 -4.2361057e-01
 -2.4887159e-01
 -6.8864393e-01
 -1.3525526e-01
 -1.7037550e-01
  1.3953145e-05
  4.9604505e-06
 -6.3686124e-03
 -5.3911284e-04
 -1.8668002e-04
 -3.1654461e-04
  1.5733772e-04
  1.2610461e-02
  4.8701912e-03
 -3.0354408e-03
 -8.8243076e-04
 -9.6701555e-02
 -3.6455480e-05
  1.9381485e-05
  2.1994021e-03
  7.4418261e-07
  1.0604966e-03
 -1.9849818e-03
 -1.1588910e-01
  3.4293778e-05
  4.0813381e-04
  8.3312648e-04
  1.1560042e-05
  3.1652529e-02
  1.7661879e-04
 -3.4017241e-01
  7.8314013e-05
 -2.0857856e-03
  1.1976152e-05
  1.5697231e-05
 -8.0435180e-05
 -1.9093419e-05
  2.8931613e-06
 -1.8028719e-05
  9.3888366e-06
  1.6783199e-01
 -1.7165276e-01
 -4.6648455e-04
  1.5211514e-01
  3.0458370e-01
  1.9704266e-01
 -1.2381345e-01
 -1.0397703e-05
 -1.8351305e-06
  2.2017965e-05
  9.8464352e-06
  3.5976955e-05
  1.8863990e-05
 -1.9107982e-05
 -2.0951063e-06
  2.2330694e-05
  5.0219705e-06
 -4.2453765e-05
  1.2456410e-04
  1.9178069e-05
 -3.2046286e-05
 -6.4135040e-04
 -4.8248785e-05
  4.0101504e-04
  1.6813254e-05
  4.8537936e-02
  5.1660977e-06
  7.8905199e-05
  2.5711706e-05
  3.3745207e-05
  8.0614118e-04
 -5.6359455e-05
  4.2730995e-02
 -9.5737432e-06
 -8.6165885e-05
 -2.7583817e-05
 -2.7342490e-05
  9.0689709e-06
  7.6759516e-06
 -1.2075949e-05
 -8.6346212e-05
 -5.8594474e-06
 -9.8284721e-01
 -5.1892042e-01
 -2.0929577e+00
  1.1600596e-01
 -3.6335969e-01
  1.3270758e+00
  9.2237347e-01
 -4.4710749e-05
 -1.8565779e-05
  5.7719541e-01
 -2.6992368e-05
 -1.6208731e-05
 -1.0199266e-04
  2.8443104e-01
  3.4474397e-05
  1.4007860e-01
  5.1895026e-03
 -1.3199795e-02
 -3.4567736e-02
  9.7661905e-06
  5.0265287e-05
  6.2109756e-01
  6.9763146e-02
  1.5160835e-02
 -4.3973573e-02
  5.9013898e-03
  4.3803069e-05
  2.1126947e-01
  4.7286236e-01
  2.7036920e-04
 -2.5767390e-02
 -3.0749312e-01
  4.6072641e-01
 -4.0687564e-06
  2.1356056e-05
  1.5047811e-05
  5.0883762e-07
  2.7487979e-06
 -3.1083066e-05
  3.9306375e-05
 -3.8082177e-05
 -1.1224548e-05
 -3.1176154e-05
  1.4397774e-05
 -2.0843754e-05
 -1.3018795e-05
 -1.8908133e-05
 -3.8085773e-07
  7.9812999e-06
 -8.5882290e-05
 -3.2445085e-05
  8.9064233e-06
  1.6361430e-05
  3.5400542e-06
 -1.4976526e-05
 -8.1247046e-05
 -1.1045569e-05
  4.8312733e-05
 -1.0023798e-05
  1.0454512e-07
  3.9615879e-05
  9.7160109e-06
  1.0600895e-05
 -1.8127703e-06
  5.9594117e-06
  5.2320120e-06
 -7.9652291e-06
  9.5702444e-06
 -9.6356944e-06
 -1.1581615e-05
  2.5689562e-05
  2.6944481e-05
 -1.9829409e-05
  4.0344505e-05
 -4.8682337e-05
  3.0180705e-05
  3.5463429e-05
 -2.5465248e-05
  1.7222106e-04
  2.7066242e-06
 -6.0737148e-06
  8.6768225e-05
 -1.0120782e-05
 -2.7272772e-06
  2.2445465e-05
 -1.5694897e-05
 -2.8799112e-05
  5.6924991e-06
  2.4623336e-05
 -6.9646499e-06
 -1.0381470e-04
  3.1212228e-06
  5.0969088e-06
  2.5112113e-06
  1.6003472e-05
  1.0245029e-05
 -2.8271950e-06
  8.0297086e-06
 -5.7992929e-05
 -3.1534335e-05
 -5.3389493e-05
  2.9813460e-05
 -1.2165996e-05
  1.1778346e-05
 -6.4666907e-05
 -8.1437111e-06
  1.7395776e-05
 -8.4535786e-06
 -1.6187088e-05
  1.8130670e-05
 -1.8990024e-05
 -2.5664356e-05
 -1.0927604e-05
 -9.2467890e-06
  4.5873472e-05
  4.7693138e-06
  2.2015770e-07
 -4.5083075e-06
  6.9773291e-06
  6.2224557e-05
  1.2372716e-05
  1.1737422e-05
 -3.5270537e-06
 -1.3525298e-05
 -7.7783279e-06
  2.7789292e-05
  2.0755692e-01
 -1.0142560e-05
 -7.1129325e-05
 -5.5780935e-01
  8.8984916e-06
 -1.0692759e-05
 -2.1353528e-04
 -1.0952340e-05
  2.7061440e-05
 -8.9866560e-05
  1.5345679e-05
  1.5773325e-05
  1.3686173e-05
  2.9090575e-05
 -8.6779901e-06
  1.4352510e-06
 -4.1706573e-07
  2.6750751e-05
 -7.3576830e-06
  5.9892254e-06
 -7.2005578e-06
 -1.8619230e-05
 -2.4441764e-05
  7.5303997e-06
  5.7920979e-06
  2.4213286e-06
 -5.0216622e-06
  1.1469183e-06
 -1.3258334e-05
  3.2111107e-05
  8.8339992e-05
 -2.3553166e-05
  2.7805625e-05
  1.8753855e-05
 -1.3108846e-05
 -4.6645810e-06
 -5.0329606e-07
 -1.4324474e-06
  3.3051227e-05
 -6.0832608e-05
  7.4427599e-06
 -6.8388395e-06
 -1.5178279e+00
  2.5826532e-01
 -4.1681236e-01
  1.0806224e-01
 -1.7410038e-01
 -3.1113991e-01
 -2.5906271e-01
  7.3530259e-07
  8.4375206e-06
 -2.2153631e-02
 -1.6280441e-04
 -1.8759708e-01
  9.6319882e-06
  1.2875614e-05
  1.3510283e-05
 -6.7009302e-03
  4.1524519e-05
 -1.1510657e-04
 -1.5461425e-01
 -6.5882108e-05
  2.0043002e-05
 -7.9707652e-06
 -8.2064626e-06
  3.2843513e-04
 -3.6319561e-06
 -5.4929510e-02
 -9.2129194e-06
  2.2992119e-02
  6.6079658e-05
  5.8611231e-06
  2.4241956e-01
  1.6186185e-02
 -6.7092292e-04
 -1.0802117e-05
 -3.4502690e-07
  1.3399685e-05
  3.0888987e-05
 -2.0468755e-05
  1.1705716e-05
 -6.5207778e-06
 -7.6782024e-05
 -4.1604867e-06
  5.0536703e-02
 -2.4451030e-02
  5.1772124e-03
  8.3971463e-02
  3.6517823e-01
  2.2367205e-01
 -3.5342222e-01
 -4.3683296e-05
  1.7507364e-05
  1.4785066e-03
  2.0955558e-05
  4.8391527e-04
  4.1064341e-05
 -1.3975469e-04
 -6.3774924e-06
 -6.4442160e-05
 -7.1824575e-06
  6.0563809e-05
  6.1196394e-02
  3.0748448e-05
 -9.1062520e-06
 -2.4934348e-02
  6.9188434e-05
  1.5117057e-03
  2.5509454e-03
  3.0869395e-02
  2.0358896e-06
  3.2272081e-05
 -1.0368405e-03
 -6.7194967e-05
 -6.7766703e-04
  1.8921963e-05
  1.1426131e-01
  6.0106158e-05
  3.6996542e-07
  7.6581546e-06
  3.8973876e-06
 -2.3030045e-05
  1.6610482e-05
  1.4127182e-05
 -3.4201632e-05
 -9.0330577e-06
 -7.0464025e-06
 -1.7696253e-05
  5.9468939e-06
  2.2122729e-06
 -6.4870137e-06
  5.3405587e-05
  6.6298562e-06
 -3.2885289e-06
  1.0641716e-05
 -2.3686580e-05
 -1.2395814e-05
  6.9647526e-06
 -1.8950266e-05
 -2.4642463e-06
 -2.3348728e-06
 -5.5402696e-05
  1.1821489e-05
 -3.0465901e-05
  2.4363339e-06
 -8.3905230e-05
  9.9180534e-06
  1.2100443e-05
  2.2476346e-05
  5.1246348e-05
 -8.4417502e-07
 -1.0537959e-05
 -9.3632734e-06
  3.4244160e-05
  1.8845058e-05
  2.3200998e-07
  1.8342078e-05
  2.6913191e-05
 -1.5519483e-05
  3.1701980e-05
 -2.6079178e-05
 -2.1769233e-07
 -2.0934196e-05
 -7.1547188e-06
  7.9565342e-07
 -2.0719568e-05
 -1.0316015e-05
  3.7100279e-05
  9.7430367e-03
 -2.9401183e-01
 -1.3748493e-02
  6.4726695e-02
  4.6866250e-01
  2.3682132e-01
 -1.2612198e-01
 -1.1850672e-05
  2.6841576e-06
  5.5834596e-05
 -2.5708439e-06
  2.6540089e-05
 -8.6504870e-06
  2.1612341e-06
 -4.7594673e-05
 -3.5884064e-03
  3.1878626e-05
  8.6411877e-05
 -1.8444740e-05
 -6.4758919e-05
 -9.3075278e-07
 -2.3794159e-05
  1.2985985e-05
  1.5996919e-04
 -6.3094121e-06
  4.0582567e-02
  2.5710951e-06
  7.0717615e-05
 -3.9806338e-05
 -7.2178183e-05
  3.2831391e-03
  4.5728276e-04
  8.6394213e-02
 -5.0231779e-06
  6.2565510e-07
 -5.4119500e-06
  9.5827245e-06
  1.4635197e-07
 -2.1311118e-06
 -2.5771662e-06
  1.3903218e-04
  9.8571225e-05
  1.6051730e+00
 -3.1380761e-01
 -1.9771159e-01
  7.9283577e-01
  9.9050231e-02
  7.5774837e-01
 -1.2650259e+00
  8.5688498e-06
  4.6533428e-06
  1.2654063e-01
  1.6504364e-02
  4.7806470e-06
  6.1628884e-06
 -1.2303726e-05
 -5.9037506e-05
  5.7165039e-07
 -1.2275667e-05
  1.1645299e-05
  1.8889126e-03
  3.3953700e-05
 -1.0273095e-05
 -9.5678834e-06
  9.8343976e-03
 -8.2065694e-02
  1.7952803e-05
  2.2138772e-03
 -5.0373583e-06
 -6.3747715e-04
  1.6451113e-06
  3.6881225e-05
 -1.1467741e-01
 -6.7279182e-02
  8.7089528e-04
 -5.1509687e-07
  1.8563145e-05
  1.7472126e-05
  1.9419267e-05
 -1.3379477e-05
 -6.2181573e-07
 -2.3063694e-05
  1.9703693e-05
  1.7214630e-05
 -1.1712687e-01
  5.3238519e-03
  6.0390774e-04
 -2.6905820e-01
 -6.2424070e-01
 -5.7388384e-02
  2.9766483e-02
  1.1694734e-01
 -1.1204603e-01
 -5.1030233e-03
 -3.7847739e-02
 -2.3801267e-01
  1.8491106e-03
 -3.1977709e-02
  6.7280197e-01
 -2.2948363e-01
 -7.0239149e-02
 -4.3273065e-02
 -3.4482557e-01
 -3.9169610e-02
  3.6636010e-02
  4.2671600e-01
 -9.9006640e-03
 -1.7262584e-02
 -1.2033307e-02
 -2.5641279e-02
 -1.1614520e-02
  7.0603760e-03
  4.8379305e-01
 -6.0878005e-02
  4.3883342e-03
 -4.5772535e-03
 -6.2402185e-02
 -1.8710811e-02
  1.5573736e-02
  4.5983234e-06
 -1.1575258e-01
 -3.4546196e-03
 -2.7822817e-03
 -2.6993430e-01
  1.8800587e-03
  2.2791387e-01
  4.1502443e-01
  2.0870280e-01
 -8.7047940e-01
  7.1329349e-01
  2.4102943e-01
 -3.2005939e-01
  3.9586979e-01
 -4.1784903e-01
 -3.3903052e-04
 -9.5274160e-03
 -2.8618604e-01
 -2.3910134e+00
 -4.3918639e-01
  2.8967500e-01
 -6.5540498e-06
  1.1006764e-01
  3.6611762e-03
 -9.3444318e-02
 -3.0498159e+00
 -4.9927869e-01
  1.6621307e-01
  1.1055936e-01
  6.0136549e-02
 -3.9329164e-02
 -8.7893242e-03
 -1.0548724e+00
 -7.2809958e-01
  3.9342847e-01
  1.1412220e-01
  1.4354979e-01
 -7.8754738e-02
 -7.3361188e-02
 -1.8107408e+00
 -1.2537690e+00
  1.1588469e+00
  6.4415959e-05
 -2.2397518e-05
 -1.0431311e-05
 -1.0538365e-04
 -1.6188073e-03
 -2.5630192e-05
 -1.3656721e-05
  6.1973304e-01
 -3.5687870e-01
 -2.8741968e-01
 -2.1125814e-01
  6.0399204e-01
  3.5316694e-01
  8.9210141e-01
 -2.1728798e-07
 -6.0860050e-04
  4.2503495e-02
  3.8034708e-05
  3.4384958e-02
  3.9434626e-06
  2.1623477e-05
  2.3815658e-06
  1.1706661e-02
 -9.5020514e-06
  2.5448354e-03
  3.2734775e-04
 -3.4862409e-05
 -1.9046698e-05
 -6.4735000e-06
  8.1229655e-06
  5.0575938e-02
  1.5916702e-04
  2.7183784e-02
  5.2144620e-05
 -8.4066996e-06
  2.7069704e-05
  1.4434374e-05
  2.6140851e-03
 -2.4457429e-05
  4.8898077e-01
  1.0622433e-04
  1.9952339e-04
  8.4685944e-06
 -4.4183711e-05
  1.9132123e-05
  3.9184328e-05
 -6.8026384e-06
  5.1377228e-06
  1.7268432e-06
  7.5025330e-03
 -3.2829016e-02
 -4.2408234e-03
 -2.1563582e-03
  2.9867128e-01
  8.7648757e-02
 -9.0375148e-02
 -2.2347116e-01
  4.9794994e-02
  2.3643929e-03
  1.5613649e-02
  9.4685607e-02
 -1.0817046e-02
 -1.5892737e-02
 -5.0888491e-01
  5.1995344e-02
 -7.2134179e-03
  9.7153690e-03
  1.2237830e-01
  3.2141797e-02
 -4.9750131e-02
 -7.1322493e-02
  3.0590784e-02
  3.0030567e-02
  6.1528175e-03
  6.9908135e-02
  1.1407280e-02
  4.0165307e-03
 -2.5920671e-01
 -2.2261105e-02
  9.6141716e-04
  8.7263715e-03
  5.0712503e-02
  1.7793108e-02
 -8.7326597e-03
 -1.9637417e-05
 -5.8327983e-05
  9.2379756e-05
  6.7478068e-02
  4.5424330e-01
 -7.7310786e-02
 -2.6327724e-02
 -1.5213986e-05
  6.5113876e-05
 -1.2880539e-05
  8.7446151e-06
 -3.0128490e-06
 -3.9667670e-05
 -5.9941962e-05
 -1.8646036e-06
 -2.8130539e-06
 -5.1807906e-06
  4.6884707e-05
  7.1413046e-06
  7.4526673e-05
 -6.8697525e-05
 -6.4041564e-07
 -2.3957527e-06
  5.5489431e-06
 -1.5448184e-06
  3.1532414e-05
 -2.0747775e-05
 -2.0825433e-05
  8.0156087e-06
 -5.0409130e-06
 -2.4572906e-05
  5.6246652e-05
 -1.4473995e-05
  1.2844986e-05
 -2.7275723e-06
  2.6133382e-06
 -5.0871695e-06
 -2.2289896e-05
  7.5878534e-06
 -1.1484331e-05
  4.9154291e-06
  3.4556801e-06
 -2.2234253e-05
  3.7173235e-05
 -2.0729551e-05
 -2.7828788e-05
 -1.0606993e-05
  1.6130300e-05
  4.2111615e-06
 -2.5550854e-01
  8.6845866e-05
  6.7100477e-01
  3.2392573e-02
  3.5592797e-01
  3.5010442e-02
 -2.2188865e-01
  2.0013542e-05
 -3.2228206e-06
  2.1527139e-05
 -1.1681475e-06
 -5.0897347e-07
  4.5137103e-06
  1.2190724e-05
 -6.3600986e-05
 -1.2491896e-05
  5.4961106e-06
  3.6185138e-05
  1.3781532e-04
 -3.0290115e-05
  2.5282723e-05
 -3.7436344e-05
 -2.7124988e-06
  1.6851587e-07
 -2.6733258e-06
  1.5975583e-03
  2.5062865e-05
 -1.6842439e-05
 -7.7413933e-05
 -3.0723795e-06
  1.5748532e-04
 -3.8857852e-06
  2.2600801e-04
 -2.1264588e-05
 -4.1794651e-06
  1.4194689e-05
  1.1455454e-06
 -6.5453642e-06
 -2.1708458e-05
  5.8370765e-06
 -2.1383850e-05
 -1.4574735e-05
  3.7310322e-04
  1.1192962e-05
  1.8149260e-05
 -3.7386231e-04
 -4.1989915e-06
  4.9146915e-05
 -3.2369251e-05
  4.3870878e-06
 -7.3279075e-06
  1.2110083e-05
  5.5417968e-07
 -9.9524527e-07
 -7.0344504e-06
  3.9096529e-05
 -7.3409242e-06
  1.7448952e-05
 -5.0180341e-05
 -1.8572468e-06
  6.0841739e-05
 -4.2202093e-05
 -1.3396944e-06
 -4.0489276e-06
  5.4706979e-06
  1.3305998e-05
  1.0294132e-04
 -8.0043253e-07
 -4.4959128e-05
  1.7354643e-05
  1.6223394e-05
  6.7333752e-07
  4.8728431e-05
 -3.4137018e-05
  2.1311462e-06
 -7.9944641e-07
 -3.6448810e-06
 -1.8922580e-06
  1.4311242e-06
 -1.7461571e-05
 -4.4709584e-05
 -3.2928532e-05
  4.3959203e-06
 -2.0819867e-05
 -1.3734741e-06
  1.1674630e-02
 -8.7774140e-01
  1.8649138e-05
  4.0764531e-01
 -4.5231831e-05
  1.5854603e+00
 -1.1840867e-01
 -3.4718032e+00
 -1.6540111e+00
  7.0691754e-06
 -5.7135659e-01
 -5.3125650e-06
  5.2379501e-06
 -2.5130152e-05
 -2.8953571e-05
  6.1007929e-01
 -1.4362071e-04
  7.4279189e-05
 -2.2284819e-05
  4.9029979e-01
 -4.3182641e-02
  1.2351218e-02
  1.5699505e-05
  1.8757349e-02
  9.2714245e-06
  4.9713582e-02
 -3.6092536e-06
 -2.2285633e+00
  1.3506079e-05
  5.2781406e-06
 -8.5857628e-06
  4.7543022e-01
 -1.3281663e-05
 -5.8477861e-01
 -1.6457637e-06
 -2.3247196e-06
 -7.8889377e-02
 -1.7927270e-01
  5.5627705e-04
 -1.0552230e-06
 -3.3872202e-05
  8.8126576e-01
  3.9439984e-03
 -1.0434870e+00
  1.8177642e-01
 -5.5842283e-03
  8.9059931e-06
  1.6909388e-01
  1.4260819e-04
  4.4033068e-06
 -4.6258268e+00
 -6.4511609e-01
 -7.2828628e-02
 -3.2254475e-01
  6.9151461e-02
 -3.9078471e-01
  3.6518186e-01
 -1.2929089e+00
  1.0801969e+00
 -1.2267736e-01
 -8.1196032e-02
 -2.9066587e-02
 -6.7743793e-02
 -5.0605163e-02
  8.4914528e-02
  9.1375731e-02
 -4.6892215e-02
 -1.0742406e-04
 -5.1886931e-02
  3.4967238e-01
  1.6627766e-01
  5.0861597e-01
  1.0759056e-01
  8.1932527e-01
  4.9239461e-05
 -1.2258236e-01
  1.9045036e-02
  1.9065588e+00
 -1.0833647e-05
  6.6482746e-05
 -8.3434847e-05
 -7.6875061e-01
  1.7225049e-01
 -2.5425813e-01
  2.2509215e-05
 -2.6347823e-06
  3.2017551e-02
 -2.6357833e-01
  4.0359452e-01
  9.1127426e-05
  1.8976536e-01
  2.0068944e-01
 -4.5548191e+00
 -9.1884756e-01
  2.6221919e-01
  3.6634686e+00
  1.6146505e-05
  6.8568014e-02
  3.2039179e-04
  6.6635472e-01
  1.3878810e+00
 -2.5022006e+00
 -1.1300718e+00
 -5.5111521e-01
  1.2512448e-01
  1.2989661e+00
 -1.4748152e+00
 -4.7424039e-01
 -8.7028104e-01
 -3.4263217e-01
 -7.6617837e-01
  5.1269531e-01
  4.2221788e-01
 -2.3429911e-01
 -1.2336379e+00
  4.7494543e-01
 -5.3337628e-01
 -3.2879651e-02
  1.8163046e-01
  7.5198907e-01
  1.2022114e-02
 -2.6041752e-01
  5.7370567e-01
  3.5713980e-01
 -7.3687655e-01
  2.7790787e-02
  2.0224528e+00
 -1.8956535e-01
 -1.1222099e+00
 -1.3648477e+00
  4.5719114e-01
  7.0090693e-01
  5.2475142e-01
 -4.5569354e-01
  1.4701642e-02
  1.7453943e+00
  1.1711247e+00
  1.1071178e+00
 -5.7323939e-01
  3.0531888e+00
 -5.1962934e-02
 -6.7028821e-01
 -1.6875862e+00
 -4.8380515e-01
 -1.5005620e+00
 -5.3510345e-03
 -1.4294355e-01
 -7.2743189e-01
  1.2459115e+00
  1.3017573e+00
  3.6434504e-01
  4.4707799e-01
 -5.0047722e-02
  2.2174805e-01
  6.6154428e-02
 -4.1123199e-01
 -8.4811932e-01
  1.4569497e-01
 -5.1847285e-01
 -1.6504614e-01
  3.1830198e-01
  1.1270870e+00
  2.9515278e-01
  6.7418551e-01
 -5.0870939e-03
  1.5865080e-01
 -3.9368972e-01
 -5.2443614e+00
  2.2647994e+00
 -7.2729248e-01
  2.0544677e+00
 -4.8947993e-01
 -1.7662038e-01
  3.1353140e-01
 -2.4725749e-01
 -2.0048833e-01
 -1.7999704e-01
 -1.3013587e+00
 -5.1110840e-01
  4.5138025e-01
 -3.3974376e-01
 -1.3809787e+00
 -8.0777359e-01
  1.3678464e+00
  1.9241599e+00
  1.0641379e+00
 -1.0854739e+00
 -1.9492422e+00
  3.9460716e+00
  1.6119641e-01
  1.7454507e+00
 -8.0287695e-01
  3.6870980e-01
 -1.4110239e-01
  5.2644277e-01
  2.3673256e-01
 -1.0888132e-01
  1.1721718e-01
 -8.9917147e-01
 -1.1644437e+00
  4.3571407e-01
  4.6262378e-01
 -4.2427278e-01
  1.3312912e-01
  3.4549373e-01
 -1.7463464e-01
  9.4921374e-01
 -6.7142594e-01
 -1.9880959e-01
  1.1183012e-02
 -6.9710898e-01
 -2.3658752e-01
  1.7551761e-02
  1.3297724e+00
 -2.5532193e+00
  1.2126293e+00
  3.4039745e-01
 -2.6102121e+00
 -3.4056828e+00
 -4.1177863e-01
  1.1676303e+00
  9.8054963e-01
 -2.5880885e+00
 -8.9463174e-01
  7.2795284e-01
  2.1209786e+00
 -6.1088465e-03
 -2.7712220e-01
 -1.9004418e-01
  1.3164662e+00
  8.6167789e-01
  1.3206050e-01
  2.0620987e-01
  8.9353848e-01
 -1.3633847e+00
 -4.4283757e-01
 -6.5851718e-01
  1.3294771e+00
  6.6685632e-02
  1.5091148e-01
  4.7267493e-02
  4.7267493e-02
  4.7267493e-02
  4.7267493e-02
  4.7267493e-02
  4.7267493e-02
  4.7267493e-02
  1.4792606e-02
  1.4792606e-02
  1.4792606e-02
  1.4792606e-02
  1.4792606e-02
  1.4792606e-02
  1.4792606e-02
  1.1118730e-02
  1.1118730e-02
  1.1118730e-02
  1.1118730e-02
  1.1118730e-02
  1.1118730e-02
  1.1118730e-02
  2.1140218e-02
  2.1140218e-02
  2.1140218e-02
  2.1140218e-02
  2.1140218e-02
  2.1140218e-02
  2.1140218e-02
  1.2880678e-02
  1.2880678e-02
  1.2880678e-02
  1.2880678e-02
  1.2880678e-02
  1.2880678e-02
  1.2880678e-02
  4.7531389e-03
  4.7531389e-03
  4.7531389e-03
  4.7531389e-03
  4.7531389e-03
  4.7531389e-03
  4.7531389e-03
