nep4_zbl 1 Ne 
zbl 0.8 1.6
cutoff 6 6 25 25
n_max 6 6
basis_size 10 8
l_max 4 2 0
ANN 50 0
  2.1084586e-06
 -1.3452180e-05
  5.8204085e-05
 -5.4720199e-06
 -1.0068958e-05
  6.8402146e-06
 -4.1009494e-06
 -1.4233633e-05
  2.3796207e-05
  9.8984929e-06
 -2.1577522e-05
 -1.9691664e-05
  8.5961583e-06
  7.1834029e-06
  8.3187388e-06
 -1.6876571e-05
  1.4680695e-05
  4.4346645e-05
  1.2693740e-05
  5.8792671e-06
  1.6306774e-05
 -1.8890825e-05
 -1.0348078e-06
  6.7654623e-06
 -8.2103861e-06
 -1.7656255e-05
  2.4243627e-05
  1.2551347e-05
  1.8918898e-05
 -1.7352253e-05
 -5.0166072e-06
  1.3739437e-06
  3.2873686e-07
 -2.1143027e-05
 -6.3015618e-06
 -3.0836193e-06
 -2.0535776e-04
  8.3036766e-06
 -1.1201964e-05
 -1.8366227e-05
 -1.8426597e-05
 -1.8285846e-05
  1.3695037e-01
  3.9663076e-01
  4.8891958e-02
  5.2261478e-01
 -7.8945324e-02
  1.4252891e-01
  1.4398187e-01
 -2.8441782e-06
 -3.0873921e-02
  7.2154345e-04
  2.7521813e-02
  1.9598454e-05
 -2.1150941e-04
  4.4252500e-02
 -7.5947619e-06
  8.8197339e-07
  1.4424432e-05
 -4.6372473e-01
 -2.5061945e-05
 -4.9750018e-03
  3.6828787e-05
 -1.2424898e-05
  1.6667921e-02
  2.4859171e-06
 -5.6095628e-06
 -2.3445846e-05
  4.5393580e-03
  1.3622303e-04
 -6.0011153e-06
 -7.4122704e-06
 -9.1356821e-03
 -7.2501687e-05
 -2.6727348e-06
 -3.5787350e-05
  1.7732615e-05
  6.4490023e-06
  1.4379191e-05
 -8.2199294e-06
  1.0529992e-05
 -1.7266349e-05
 -3.9540564e-06
 -5.6521426e-06
 -3.6620684e-02
  4.4963342e-01
  6.4666820e-01
  2.0027559e-01
 -4.1369502e-02
 -4.5126323e-02
  2.8594148e-01
 -1.9205288e-06
  8.7443806e-02
  7.9963423e-02
  1.1733778e-01
  1.0932275e-05
  1.0567134e-01
  5.5230752e-02
 -2.2195987e-05
 -1.1442100e-04
  1.3040972e-05
 -2.6261342e-01
 -6.4242904e-06
 -6.6592507e-03
 -5.3513190e-04
  2.5042636e-05
  5.9243757e-01
  7.1116042e-01
  2.2828077e-01
  3.9709203e-06
  4.4220525e-01
  1.1829758e-02
 -1.7360522e-05
  6.6095024e-02
 -2.3700872e-04
 -3.5091077e-06
  1.1570773e-04
 -2.8038098e-06
 -2.4382838e-05
  4.4005068e-05
  5.2609444e-06
  1.5990050e-05
  5.1140800e-05
 -9.9275767e-06
  5.8970295e-06
 -1.1116854e-05
 -2.0418752e-02
 -8.0142013e-04
 -1.5524526e-01
 -3.9898834e-01
  7.7659830e-02
  2.0024268e-01
 -2.9417291e-01
 -1.3973451e-05
  2.2285436e-01
  3.7373930e-02
  3.0699584e-01
  1.6136422e-05
  1.6391714e+00
 -4.2379912e-02
 -2.4566501e-05
 -3.2195948e-02
 -4.4841516e-05
  8.0470971e-05
  8.6619866e-06
  2.4536497e-05
 -1.9641638e-01
  3.0103887e-05
  1.2073696e-01
  1.4915720e-02
  2.6522297e-01
 -3.7557429e-06
  3.2589409e-01
 -2.7746688e-05
  9.1111615e-06
 -6.0072738e-01
 -3.2559630e-01
 -2.9274976e-01
  1.2611662e-05
 -7.1428442e-01
 -3.7528314e-02
  5.7478977e-05
  7.4249385e-08
  4.1641618e-04
 -1.2219244e-05
 -2.1659160e-05
 -3.2493041e-05
 -1.8854485e-05
 -8.3698827e-01
  1.0832320e-05
 -2.3321889e-01
 -3.5009626e-01
  5.3125195e-02
  1.8361628e-02
 -1.8128385e-01
 -1.0448645e-05
  2.1700370e-01
 -1.4542627e-05
  4.9394430e-03
  7.4266413e-06
 -9.5606134e-05
 -1.3931192e-02
  2.2171564e-05
 -2.2915853e-02
  1.9682570e-06
  1.1039670e-01
  6.3543033e-05
  8.5253829e-05
 -3.8178387e-05
 -3.9154806e-05
 -2.6651820e-02
  1.3638244e-05
  4.9482736e-05
 -2.1967906e-05
 -2.3960322e-03
 -1.4601229e-05
  2.8705161e-05
 -2.4860766e-02
  5.2483847e-06
 -8.9566800e-04
 -6.8895702e-06
  4.0622840e-06
 -5.1090032e-05
 -3.9532483e-06
 -7.0053115e-06
 -4.4020117e-06
  1.5163288e-05
  3.4555771e-05
  4.7479411e-05
  1.3471883e-05
 -8.1721777e-01
  5.1910647e-05
 -2.2849862e-01
 -8.3011810e-06
  1.2640953e+00
 -1.3450410e+00
  6.1145029e-06
  3.8010403e-05
  8.5268423e-02
 -3.6492856e-06
  5.4214950e-05
 -3.2141244e-05
  8.3789280e-05
 -2.0365913e-05
 -2.0033333e-06
 -3.7092541e-05
 -4.0688851e-06
  2.4919609e-06
  2.4199027e-05
  5.7273202e-05
 -2.9009438e-05
 -4.5062336e-07
 -2.3213224e-05
  4.0749596e-06
 -2.4513356e-06
 -5.9129461e-06
  6.3454358e-06
 -5.1015752e-05
  1.0784834e-05
 -7.7807908e-07
  3.0372648e-05
 -3.1620134e-06
  1.2529001e-05
 -1.0231670e-05
  3.3546562e-06
 -8.5182883e-06
  8.1593244e-06
 -5.8426023e-05
  2.0716046e-05
 -1.0811639e-05
  4.6023761e-06
 -2.1196720e-06
  4.9988455e-05
 -1.4363884e-04
  8.4172832e-05
  5.0094088e-05
  7.5492288e-05
  9.5533171e-05
 -1.9460707e-05
 -6.3035445e-06
  1.0552301e-05
 -2.7430035e-05
 -3.2361273e-05
 -9.6231406e-06
  8.0499294e-06
 -7.2101466e-06
  6.0818425e-06
 -8.1327707e-06
 -6.9172297e-06
  4.7180489e-05
  1.1047866e-05
  1.8201770e-05
 -7.3701699e-06
  2.4525611e-06
 -1.6050293e-05
  4.5912639e-05
 -4.3731775e-06
  1.9164043e-05
  3.7901526e-05
  1.5926777e-05
  6.1520499e-05
  3.3250974e-05
 -1.8293789e-05
  4.3223194e-05
 -1.4669503e-05
 -1.6279791e-05
  1.7505738e-05
 -1.5805358e-06
 -3.1318282e-06
 -1.5943751e-05
 -7.0927206e-07
 -1.0109299e-05
  9.8074097e-06
  2.6841260e-06
 -1.3441439e-05
  2.5497600e-05
 -8.2032684e-06
  1.3305979e-05
 -8.9295645e-06
  9.7951543e-06
 -1.6063301e-05
 -9.4940742e-06
  9.3298113e-06
 -1.2225573e-05
 -6.6149849e-05
  2.1867836e-05
  1.9153938e-05
  4.3845148e-06
  6.0024790e-06
 -1.5104813e-05
 -5.6296290e-06
 -5.2211963e-06
 -1.2994354e-06
 -2.8046528e-05
 -1.0703488e-06
 -8.5313906e-07
 -4.3966465e-06
 -1.4442840e-05
  5.2701625e-07
 -1.9280085e-05
 -4.1748708e-06
  1.0887578e-05
  9.9168128e-06
 -1.0338321e-05
 -3.1667314e-05
  3.9018569e-06
  1.6493959e-04
 -2.8146538e-05
  2.4258619e-05
 -9.2809678e-06
  8.1992912e-06
 -3.3896526e-05
  2.5409752e-06
  2.3678456e-05
 -3.4053330e-06
  1.1561191e-05
  3.2219753e-02
  9.1483518e-03
 -1.8577206e+00
  4.0148079e-05
 -1.8797612e-01
  1.0834256e-03
  1.1447025e-04
 -4.6850218e-06
  6.2390417e-03
  1.7888843e-06
 -2.1484610e-01
  3.1412271e-06
  2.4230068e-03
  3.6719169e-02
 -1.8695125e-06
  4.9056187e-03
 -1.2637981e-05
 -3.9734286e-06
 -7.9647625e-06
  1.3578605e-04
  1.8060922e-07
  8.2038659e-06
 -1.2733489e-05
  1.0409638e-06
 -6.5271553e-05
 -8.3330160e-06
  2.7213376e-03
 -2.7460199e-05
 -9.7102054e-07
 -1.9725881e-05
 -2.0711379e-05
 -7.3437800e-06
  2.3305223e-05
 -4.9370501e-06
 -6.3088728e-06
  1.2369332e-05
 -1.8759059e-05
  2.6865364e-06
  1.6931102e-05
  2.0444036e-06
 -1.0417797e-05
 -3.0832007e-07
 -2.9672220e+00
 -2.0378211e+00
  1.9538246e-01
  1.1597826e+00
 -7.4061871e-02
 -1.6863702e-01
 -2.2766871e+00
  5.0040853e-04
  1.6930249e-01
  2.6657976e-02
  4.3409124e-02
 -1.1323471e-05
  9.0547793e-02
 -1.4123853e-01
  7.8030638e-07
  3.0422261e-05
 -4.1897491e-02
  3.4227821e-01
 -5.3156822e-05
  7.7070008e-06
  1.1920686e-05
  1.8643980e-06
 -7.7406861e-02
 -7.0737898e-02
  2.1427646e-03
  9.1438151e-06
 -5.8352228e-02
 -6.4824972e-06
 -2.7239441e-06
  1.3993027e-05
  1.1122889e-03
  2.8564144e-04
  3.9587323e-07
  3.1854230e-05
  2.5976101e-06
  2.7178410e-06
  6.0062084e-06
 -1.1417478e-05
  5.0230374e-06
 -3.6916415e-05
 -3.9621238e-05
  4.5404163e-06
  6.3082802e-01
 -1.6771367e-01
 -6.3118942e-02
 -1.4015402e+00
 -6.7027062e-01
  1.1459882e-02
 -7.3233682e-01
  3.7600982e-01
  7.3282772e-01
 -7.9954380e-01
 -9.0942937e-01
  8.4737360e-02
 -6.6325551e-01
  1.4117204e+00
  2.5667920e-05
 -1.6215641e-02
  5.9793773e-04
 -2.1084764e+00
 -5.0276749e-02
 -1.3282174e+00
  1.3104236e+00
  1.8869774e-01
 -6.4025104e-01
 -1.4012818e+00
 -1.2141795e+00
  1.8788647e-05
 -1.2529131e+00
 -9.2599249e-01
 -5.7266956e-05
 -8.4875864e-01
 -1.4301494e+00
 -8.5361910e-01
 -5.4954480e-06
 -9.0748537e-01
  2.4051401e-01
 -3.0384757e-05
  7.0180104e-05
 -2.1576296e-05
 -1.3240131e-05
 -2.7885702e-05
  4.6486457e-06
 -1.7625176e-05
 -1.0275731e-05
  6.8118256e-06
 -4.9961340e-02
  1.4009071e-05
  8.5680577e-04
  1.1556286e-04
 -3.9199028e-02
  2.3434150e-05
 -1.4040551e-05
  1.0811194e-05
 -1.4559424e-05
 -5.1831048e-06
  1.0496197e-05
 -1.1936827e-06
 -1.1742766e-06
 -1.7877791e-06
 -3.1531745e-05
  1.0578010e-05
  1.4133161e-05
  4.5133274e-05
 -1.0183108e-05
 -8.5799556e-06
 -2.7594004e-05
 -3.2323646e-06
 -2.1412468e-05
 -3.6168276e-05
 -3.1314130e-06
  2.6475189e-05
  1.7970224e-05
  1.8067341e-05
 -8.9407376e-06
 -2.0133055e-05
  4.1979256e-05
 -4.5469579e-07
 -5.6652989e-06
 -3.5572516e-06
 -1.0928394e-05
 -5.1093844e-05
 -4.4899029e-05
  2.3998735e-05
 -3.7112100e-06
  1.3771937e-04
 -9.6974641e-02
 -1.7543837e-01
 -2.6688224e-01
 -6.5063334e-01
 -1.0157727e-02
 -1.0724987e+00
  6.1979306e-01
  5.5902245e-05
 -2.3678897e-01
  2.3705768e-05
 -9.8621222e-06
 -3.3529006e-06
 -2.8640285e-01
  5.3391550e-03
 -1.1727136e-05
 -5.6446497e-06
 -5.5269342e-05
 -1.0250089e-01
  1.5085793e-05
 -7.2938070e-02
  3.1800282e-05
  6.9153953e-06
 -2.3418530e-03
 -1.9624541e-02
  1.6969731e-06
  2.6938676e-05
 -1.4486028e-01
  7.4716262e-04
  1.9194478e-05
  4.0540681e-04
  1.6673251e-06
 -2.7071740e-06
 -9.1718830e-05
  4.8898150e-05
 -1.1237985e-06
  1.7793522e-05
  1.6559597e-05
  4.0631385e-06
  3.4210475e-06
 -6.1644250e-06
 -2.8388363e-06
 -9.4482475e-06
  1.5014015e+00
 -9.5855117e-01
  3.5791209e-01
  5.5106688e-01
 -1.2174237e+00
 -6.5077347e-01
 -6.2739933e-01
 -4.0330478e-06
  4.4456300e-01
  3.7374571e-01
 -8.8849872e-01
  2.5477343e-06
  9.4804072e-01
 -2.0196281e-02
  8.6789667e-05
  6.9884595e-06
 -7.6253850e-06
  5.8385575e-01
  3.1780884e-05
  1.0986905e-04
 -8.3703075e-05
 -8.6402033e-06
 -3.1188240e-02
  9.6793920e-05
  1.8168101e-05
  5.4782977e-06
 -2.1578751e-05
 -3.7607726e-02
  8.4638359e-06
 -2.8378530e-05
  2.1074671e-05
 -5.2272994e-06
  6.3206708e-06
 -2.0717836e-05
 -2.1351039e-05
  2.7771043e-06
 -1.1269052e-05
  5.9329641e-06
 -6.5802829e-05
 -1.2991569e-05
 -4.1519425e-07
  4.0430627e-05
 -1.6633978e-05
 -9.5148778e-07
  3.3748795e-05
 -6.4954816e-06
  4.5082845e-05
  1.0407301e-05
  5.6690092e-06
 -4.7599374e-06
 -5.6353147e-06
 -2.5135462e-06
  5.9371041e-06
  9.1239951e-07
  5.2371110e-05
 -2.1328603e-06
  8.3164914e-06
  5.9977549e-07
  4.9852461e-05
  3.6689394e-06
 -1.8353065e-05
 -1.5449188e-05
 -4.5278804e-05
  1.5393207e-06
  2.6910513e-06
 -3.4108245e-05
 -2.6695176e-07
 -2.0260672e-05
  8.9333807e-06
  5.0368290e-06
  5.6377517e-05
 -3.2869320e-05
  1.0544524e-06
 -2.2478509e-06
  1.0664895e-05
  2.3173610e-05
 -4.6018013e-06
 -9.6629847e-06
  1.4879080e-05
  2.4786617e-05
  3.6404781e-05
  1.9239003e-05
 -4.4315384e-05
  1.3557240e-05
 -1.2838171e-01
 -1.6023992e-02
  4.1654122e-01
 -1.8465984e-01
  2.1779097e-03
 -2.4566032e-05
 -2.4611084e-02
 -3.1633946e-05
 -2.3567937e-03
 -4.7925176e-04
 -2.5516913e-05
  3.6016479e-06
 -1.0896035e-05
 -6.9680102e-03
 -2.5842814e-06
 -4.0636592e-06
 -4.3496183e-07
  7.5888764e-03
 -4.1057656e-06
  2.2600841e-05
 -4.1286847e-05
 -2.9863068e-06
 -1.2471268e-03
  9.2838081e-06
  2.6816593e-05
 -7.1753593e-06
  7.3461083e-06
  8.3228626e-04
  2.4727999e-05
  3.9248661e-07
  4.9806556e-05
 -6.0015950e-06
 -1.3610615e-06
 -6.9978778e-06
  1.5832413e-05
  1.1770552e-05
 -3.8213957e-06
  1.6775397e-05
 -2.4315711e-06
 -1.0758959e-05
  1.4269486e-04
  3.0874576e-06
 -1.8710321e-02
 -5.8335029e-02
  9.0579625e-04
  1.0103657e-02
  5.1799033e-02
 -7.0556682e-03
 -9.3488246e-02
  1.1545336e-01
  1.0599609e-02
 -2.1025704e-02
 -3.4424216e-02
  2.2986142e-01
  3.0021332e-03
  3.0297779e-02
  8.8524133e-01
 -4.0932205e-02
 -9.0487838e-02
  3.2888401e-01
  1.4711255e+00
  6.9134742e-01
 -2.7969408e-01
  6.2563461e-01
 -4.5604415e-02
 -1.1133237e-02
  1.8576795e-02
  7.4374491e-01
 -4.0133543e-02
 -4.6227336e-02
  1.4645976e+00
 -5.0567880e-02
  1.4530776e-01
  1.4879498e-02
  1.3042783e+00
  1.0536321e-01
  6.0145962e-01
 -2.4917085e-02
 -5.1032931e-01
  1.6934858e-06
  6.9699809e-03
 -7.4486932e-05
  5.6804973e-01
  7.8371650e-01
  1.0913756e-05
 -5.1926163e-06
 -8.1278500e-05
  1.6183239e-07
 -1.1368365e-05
 -8.8964180e-07
  8.3915447e-06
 -5.0676328e-05
  7.4741019e-06
  4.5278989e-06
 -2.9953019e-06
  1.5264917e-05
  3.4571156e-05
  4.5443099e-05
 -1.1913276e-05
  1.8967382e-06
 -7.1510535e-06
 -1.0531381e-05
  7.3504134e-06
  2.5431050e-06
  2.4945417e-05
 -2.1986358e-05
 -1.1771871e-05
 -2.4213534e-05
  1.8772206e-06
 -5.4201042e-05
  2.2154645e-05
 -3.3700273e-06
  3.1463132e-05
 -4.1486037e-06
  3.5263415e-06
  3.0350877e-05
  2.2507650e-06
  5.0394206e-05
  5.6243189e-06
  4.3076216e-05
  1.0130750e-06
  4.0763261e-05
  2.1870370e-05
  7.4803038e-06
  2.5966083e-05
 -1.5509930e-05
 -8.8431452e-06
  2.6249183e-05
  4.0148087e-05
 -4.2915231e-05
  2.6387403e-07
  2.5754521e-06
  1.4762669e-06
 -4.6958034e-05
  2.0270236e-05
 -5.8174446e-06
  1.0050184e-05
 -3.9345950e-06
 -1.5823747e-05
 -1.2086761e-05
  1.6174065e-06
 -3.5954445e-06
 -1.4021962e-05
 -1.8520359e-07
 -9.9233284e-06
 -1.6454572e-06
 -5.4463669e-08
  7.2338153e-06
 -1.3649982e-05
 -2.5334426e-05
 -2.4103738e-06
 -1.2721324e-04
 -4.2192933e-06
 -5.5300879e-06
  1.0257228e-05
 -2.7019376e-05
 -7.0698688e-06
 -1.8758181e-05
 -2.8877364e-05
 -1.2354038e-06
 -3.9846296e-07
  1.6405158e-05
  9.2166983e-06
  2.2983611e-05
  1.3339836e-06
  2.2551385e-06
  1.3282599e-05
 -1.7285383e-06
  2.8331772e-06
  1.7445413e-05
 -2.1467885e-01
 -3.7760343e-05
  1.7446380e-02
  1.6012427e-05
  1.6750566e-05
 -1.8340928e-05
  8.0036507e-06
  2.1196633e-05
  7.9460724e-06
 -9.8410173e-06
 -1.5023001e-05
 -1.0537961e-05
 -2.3768180e-05
 -7.8116273e-06
  2.1738806e-05
  3.1226136e-05
  3.1911968e-05
  2.3684994e-05
 -3.4864483e-05
  1.6111790e-07
  6.4714031e-06
 -5.8045925e-06
  1.0632759e-05
  3.0683509e-07
 -9.9274541e-07
 -1.1179851e-06
 -8.3565210e-06
 -9.0004996e-06
 -8.1030630e-06
 -1.1832629e-05
 -1.1100445e-05
 -3.8524104e-06
 -1.5319756e-07
 -2.8470116e-05
  1.0548110e-05
 -2.7178668e-05
 -6.0079046e-06
  5.7775105e-07
 -1.4052415e-05
 -3.3626006e-06
  7.0152601e-06
 -1.8933204e-05
 -2.7612498e-06
  2.2122472e-06
  5.1435218e-06
 -3.5225999e-05
  3.0140493e-06
  1.0327241e-05
  4.4293743e-06
 -7.1743120e-06
 -4.9457616e-05
  1.0972756e-05
 -3.9912634e-06
  1.6311607e-06
  6.4923908e-05
  2.5737105e-05
 -1.6988226e-06
 -1.6855716e-05
 -3.6911704e-05
 -3.0484091e-05
  1.0622424e-05
  1.8149787e-05
 -8.5050387e-06
 -4.4176445e-06
  2.6054313e-06
 -1.4976960e-05
 -5.2353057e-06
  7.5481148e-05
  2.3185353e-06
  8.5230995e-06
 -4.4180483e-06
  8.0119889e-06
 -1.2862527e-05
  2.1056735e-07
  2.0660157e-06
  7.3276201e-06
  8.1997150e-06
 -6.3532375e-06
  1.3860970e-06
 -4.9109249e-06
  6.4802484e-06
  4.2161957e-07
  7.5513412e-08
 -9.3670469e-06
  6.3223946e-05
 -6.3690959e-07
  7.4973605e-06
  6.2684753e-06
 -3.5427878e-05
 -3.6388614e-05
 -1.5847309e-06
 -5.1239622e-05
  3.7032543e-05
 -5.5273345e-06
  2.6882716e-07
 -1.3693452e-05
 -9.5094119e-06
 -1.5460906e-05
  1.5955849e-05
 -5.7375355e-06
  1.6429047e-05
 -6.1433980e-06
 -3.2479358e-05
  5.6142426e-07
  1.0322826e-05
  1.5720852e-06
  7.1780596e-06
 -1.0135624e-06
  3.4820205e-05
  3.0916126e-06
 -2.7641668e-06
 -9.9636127e-06
  2.6776479e-05
  1.3225448e-05
  7.0608721e-06
 -6.2482036e-06
 -2.6532121e-05
  7.3486522e-06
 -4.8136662e-05
 -1.7552316e-06
  1.6195223e-05
 -7.0827249e-05
  2.2869202e-05
 -1.1973584e-05
  2.4283991e-06
 -5.9702488e-06
  2.3942735e-06
 -5.2976062e-05
  3.0357628e-06
  4.6450700e-06
 -1.0800573e-05
  1.6514883e-05
 -1.3894830e-05
  6.5138488e-06
 -4.4005323e-05
 -8.8347060e-06
  9.9172894e-06
  3.9333406e-07
  6.9350385e-06
  3.4812754e-06
 -3.3875685e-06
 -8.5481622e-07
  8.2013867e-06
  7.6264570e-07
  4.7425368e-07
 -2.1532778e-06
  1.1395189e-05
  6.9969683e-05
  2.9740411e-06
  1.7136415e-05
 -1.1440748e-05
 -1.2348971e-06
 -7.8431067e-06
  3.0815303e-05
  1.0894527e-05
  2.3801433e-06
 -9.1819902e-07
  3.2081291e-05
  1.4164567e-05
  4.8601476e-05
  9.8898045e-06
 -3.6833344e-06
  1.7071792e-05
 -5.4378911e-06
 -2.3900424e-05
  2.4618723e-05
 -5.4733658e-01
 -1.3718913e-01
  2.8572699e-01
 -2.2858858e-02
 -4.1424884e-03
 -1.5676934e-02
 -5.2682694e-02
  1.2230711e-05
 -1.0392327e-02
 -2.1625772e-02
 -1.4902601e-01
 -5.5094756e-06
 -6.0072714e-05
 -1.0043607e-02
  1.3134183e-05
 -9.0530875e-06
  4.4432709e-06
  3.5543889e-01
 -6.6128737e-06
 -1.2997493e-05
 -1.0036473e-05
  2.0907273e-05
 -3.9980859e-03
  8.6422238e-05
  4.2736868e-04
  1.2667550e-05
 -3.2656117e-05
  3.1015204e-06
 -5.3817312e-05
 -5.3208696e-05
 -3.1399672e-05
 -1.7213250e-05
  2.3108156e-04
 -3.9158102e-05
 -2.7825585e-05
 -1.1408963e-05
 -2.8953957e-05
 -4.1777639e-09
 -4.9425357e-06
 -1.5241556e-05
  1.8764180e-05
  5.8843623e-05
  2.1074053e-04
 -6.0871571e-06
 -1.2994893e-01
  7.2314965e-06
 -2.5622312e-06
 -6.0487901e-06
 -1.8947581e-05
  1.6258302e-05
  3.2181972e-05
 -2.5559398e-06
 -2.2769170e-06
  1.4362422e-05
 -2.0959296e-06
 -3.4873744e-06
 -3.2906803e-06
 -7.3207207e-06
 -7.5235621e-06
 -1.0416135e-05
 -4.2357606e-06
  3.4982364e-07
  3.2130283e-05
 -9.9982899e-05
  5.1990714e-06
  2.9494438e-05
  2.2987924e-04
 -4.2409652e-06
  6.6542903e-05
  1.2148153e-05
  2.6744008e-05
  6.1714195e-06
 -3.5278885e-05
  1.0790028e-05
  1.3786694e-05
 -6.1170504e-05
  2.2895601e-05
  9.9345911e-05
 -4.6581441e-05
  1.4100963e-05
  2.0182100e-05
 -3.2153508e-08
 -5.4321895e-06
 -3.5331659e-06
  1.8021385e-05
  2.5391379e-05
  4.7459103e-05
 -3.0149668e-06
  3.5654968e-05
  8.1476105e-07
 -2.7564540e-06
  2.6282990e-07
 -1.4865059e-05
  5.2059651e-05
  1.3543926e-04
 -7.9274770e-07
 -2.5494974e-05
 -3.6285292e-06
  1.0663512e-06
  4.9669015e-05
 -5.1471693e-06
  3.0653911e-05
  6.6831919e-05
  2.6990388e-06
  1.9746285e-06
 -1.8993122e-04
  2.2852687e-06
 -6.3744034e-07
  3.7749112e-05
  1.4077805e-05
 -2.4226849e-06
  8.4927242e-06
  4.0756022e-06
 -3.4573804e-06
  7.8892490e-06
 -1.6444792e-06
 -7.9485135e-06
  9.3619519e-06
  4.2784930e-05
 -2.9424507e-06
  1.4323626e-05
  1.8912113e-05
 -7.7190577e-07
  2.2354609e-06
  2.0089436e-05
  6.7222759e-06
 -3.9454210e-01
  1.8780746e-01
 -7.9657221e-01
 -1.1023427e+00
  8.1993878e-02
 -4.0726732e-02
  9.1126615e-01
  3.0571959e-05
 -2.4027426e-02
 -1.2288664e-05
 -1.2204219e-01
  8.8332499e-06
  1.4853975e-01
  5.6737626e-01
 -4.9473952e-06
  2.2066271e-02
  4.5827996e-02
 -3.1565994e-01
 -1.0243833e-04
  1.0717547e-01
 -1.8603749e-05
 -1.2751247e-05
 -7.5690530e-04
 -2.5411921e-06
 -3.2020086e-01
 -1.0823037e-06
  2.4046253e-03
 -8.7669365e-02
 -3.6218462e-05
 -1.9208992e-05
 -1.3312001e-05
  9.6313270e-06
  2.3658218e-05
 -8.5232814e-06
 -4.6559282e-05
 -9.0031326e-06
  7.0149658e-06
  1.0616642e-05
 -1.9559053e-04
  2.1763884e-05
 -8.2695631e-05
  1.3240807e-06
  7.8943056e-01
  2.0716339e-02
 -2.0085911e-01
 -2.6288095e-01
 -1.0540857e-01
  9.4694114e-01
 -5.6782305e-01
 -2.1404710e-05
 -1.6418793e-03
  4.7848967e-05
 -1.4119191e-04
  1.3299952e-05
 -3.2679563e-05
  2.0745158e-02
  3.8016706e-06
 -4.9125777e-07
  1.1415340e-05
 -2.1062228e-01
 -1.8515637e-07
  9.5597193e-07
  2.1955744e-05
 -4.0934242e-06
  7.7765896e-03
 -6.1803435e-06
 -3.0185140e-04
 -6.1293300e-05
 -8.7837525e-02
  1.6408165e-05
 -2.4439791e-05
 -2.7872753e-04
 -1.9244353e-04
  3.7061727e-06
 -9.8486662e-06
 -1.0873186e-04
  2.2508708e-05
 -5.1536554e-06
  2.3511200e-06
 -4.9864630e-06
  8.2126506e-05
  1.2267128e-05
  3.4156386e-05
 -1.8331893e-05
 -1.3813080e+00
 -4.6814159e-01
  9.9870670e-01
 -4.8462954e-01
 -3.5775024e-01
  2.4296132e-01
  2.1565888e+00
  3.3611018e-06
 -6.3463438e-01
  9.1504849e-02
 -1.3548143e+00
  1.1778688e-05
  2.2019739e+00
 -7.0146447e-01
  6.2310237e-06
  5.7609710e-03
 -3.2112598e-06
 -2.2764156e+00
 -1.6928232e-05
 -5.7266515e-01
  5.7855833e-02
 -3.7633989e-04
 -5.5660069e-02
  8.7154340e-03
 -1.0456755e-01
 -2.6481070e-05
  7.6746815e-01
  1.2277050e+00
  2.6778091e-05
  2.8154381e-07
 -5.1138992e-03
 -6.3951164e-01
 -3.7011629e-05
  1.2720971e+00
  2.8506998e-05
  1.6221296e-05
  2.8263190e-05
  1.6879929e-05
 -1.8763836e-05
 -4.3979103e-06
 -5.2873520e-06
 -6.6700113e-07
  1.1019271e-05
  2.1116672e-05
  6.0355414e-06
 -1.2839405e-06
  1.6705592e-06
 -1.9246379e-05
 -3.0899366e-05
  4.1841711e-05
  2.6112350e-06
  2.8527760e-05
  1.7561630e-05
 -4.1166193e-05
 -2.1235051e-05
 -3.8184455e-05
 -3.4186378e-06
 -3.5111607e-05
  1.3155040e-05
 -1.0259816e-06
 -4.1120202e-05
  8.5883221e-06
  2.8869314e-05
 -1.7685973e-06
 -2.5613910e-05
 -9.8769874e-07
  1.6028323e-06
 -8.1719782e-06
 -1.0869982e-05
 -6.4090600e-06
 -4.8775842e-06
  1.3663574e-05
  2.2387667e-07
  2.4820909e-05
 -1.6537231e-05
 -2.2848075e-05
  2.9652024e-06
 -2.5900275e-05
  2.1417160e-05
  9.8397823e-06
 -1.2124110e-07
  3.7286868e-06
 -9.9433910e-06
  4.9949522e-05
 -1.6761050e-01
 -2.1763071e-05
 -1.1925921e-01
 -4.3630883e-02
  5.1157242e-01
  5.0151738e-04
 -5.7687733e-02
 -9.3000072e-06
 -3.0571460e-03
 -3.3736578e-04
  2.0280477e-02
 -1.8224617e-05
  3.5859772e-03
 -2.0153202e-02
  9.0789754e-06
 -3.4932895e-05
 -3.2690263e-05
  2.0650734e-01
 -1.2685051e-05
  5.5085398e-05
 -4.6216219e-06
 -2.0117020e-06
 -2.7566254e-03
  2.2358770e-05
  8.5301144e-05
 -4.1821741e-06
 -1.7318513e-05
 -2.9450016e-08
  2.7441959e-06
 -1.7317197e-05
 -1.3347732e-05
  2.4827001e-05
 -7.7044751e-06
 -1.7385784e-05
  1.0913232e-05
  8.1840108e-06
  4.8985617e-05
 -2.1533965e-06
 -1.1198588e-05
  9.1709062e-06
  4.4014769e-06
 -2.4913081e-05
  2.6632556e-06
  8.8633878e-06
 -1.6981025e-05
  3.4465018e-05
 -6.8797599e-06
 -4.4904568e-06
  8.3725463e-06
  1.4461666e-05
 -2.0714568e-05
  7.5752578e-06
  8.7121413e-07
  6.0969951e-06
 -3.3356609e-06
  1.3232351e-06
  6.7059096e-05
  3.0726899e-06
 -7.0643528e-06
  3.7774228e-06
  3.4947107e-06
  1.8319981e-05
  1.1475553e-05
 -1.0609327e-06
 -1.3062102e-05
 -1.6120919e-05
 -3.0895822e-05
  2.5256184e-06
  1.2202166e-05
  9.8232331e-06
  2.5103020e-05
  1.3654420e-05
  1.5965978e-05
  1.3033080e-05
  2.9731889e-05
  1.5376652e-05
 -1.0667741e-05
 -2.5140544e-06
 -5.1188206e-05
 -1.8827207e-06
 -6.7954611e-06
 -4.8535048e-06
  3.4978766e-06
 -7.4254590e-06
  2.1301081e-02
  5.2652947e-05
  1.4775594e+00
  9.6069844e-03
 -8.4044377e-04
  2.0527062e-03
  8.6955923e-05
  2.5452521e-06
  2.2752257e-02
 -2.8363806e-05
 -1.6074708e-02
 -1.3141613e-05
  5.3996948e-05
  1.9441552e-05
  5.1694104e-07
  2.4484703e-05
 -9.6205385e-06
  3.6184189e-05
  2.5095367e-05
 -2.9037278e-06
  6.3475832e-06
  3.6647456e-05
 -3.4904422e-06
  6.3426351e-06
 -7.5987909e-06
 -1.2570558e-06
  5.0277631e-06
 -2.5862878e-06
  3.0286858e-06
  4.5403385e-06
  2.4296371e-06
 -6.8892332e-06
  2.6450462e-06
 -7.8569674e-06
 -2.2164459e-05
 -3.1541504e-08
  1.2656908e-05
  2.2375620e-05
 -1.7074992e-05
 -5.4473717e-06
  1.3683168e-05
 -8.6851323e-06
  3.6168072e-02
  8.3181769e-02
  1.7089827e-01
  7.5946592e-02
 -4.5188027e-03
 -1.1582399e-03
  1.3175257e-01
  2.5441832e-05
  1.6884882e-02
  9.6105266e-04
 -1.7692040e-05
  1.5661613e-05
 -5.6618533e-06
  3.1873405e-02
  7.1851055e-06
  4.9230007e-06
  7.5996995e-06
 -1.0479330e-01
  8.3201412e-06
 -1.0891296e-05
  1.6414213e-05
 -3.2961241e-05
  3.1964917e-02
  5.8265232e-07
 -1.2507742e-08
  3.9797516e-05
 -1.3308057e-05
 -2.4565426e-05
 -4.4124346e-05
 -1.2578574e-06
 -1.3740352e-04
 -3.4593279e-06
 -1.8002336e-05
 -4.6640846e-05
  3.9895473e-05
  7.4140607e-06
  4.0063755e-06
  2.5888341e-06
 -1.0231858e-05
  3.0037932e-05
  7.0513136e-07
  1.2822959e-05
 -5.3422406e-02
 -6.7140055e-03
  2.8826168e-01
 -1.5086663e-01
  2.4941292e-02
 -1.2568849e-01
 -6.7998260e-02
  1.4920321e-06
 -3.2516762e-03
 -1.1896127e-04
 -2.5632904e-05
  1.4788292e-05
  1.6715469e-05
 -4.5811683e-03
  8.3650821e-06
 -4.1068433e-05
 -1.9242321e-05
  7.4763127e-02
  8.2727911e-06
  2.9739311e-05
 -1.5081721e-05
 -2.9561295e-06
 -2.1595493e-05
  1.0954433e-05
 -1.9866746e-05
  1.2831117e-05
 -1.2154669e-05
 -1.6119759e-05
  5.6784193e-06
  4.2456137e-05
 -3.4589521e-06
  1.3262834e-06
 -1.0594974e-05
 -2.1372940e-05
 -2.7068556e-06
  4.3141015e-05
 -2.5105359e-05
  4.3235577e-06
  2.3933242e-06
 -1.6201025e-06
 -9.3282051e-06
  1.4101483e-05
  8.1748039e-02
  4.2404598e-01
  1.3159794e+00
  1.1107103e-01
 -1.9266549e-02
 -4.7764874e-01
 -1.1773164e-02
 -3.6200270e-04
 -8.8986424e-05
 -3.8836130e-03
 -5.5882204e-01
 -6.4206477e-05
 -1.9673955e-02
  4.5779247e-02
 -2.4239707e-06
  7.4859565e-01
  1.8244861e-01
  8.1284425e-06
  1.9677054e-05
  3.8445276e-01
  2.5279980e-05
 -5.2306696e-05
 -6.2434716e-05
 -9.9817626e-06
 -1.2338148e-02
  1.2923919e-05
  8.5948966e-02
 -2.2433063e-02
 -1.9477920e-05
  6.7133105e-01
  2.2807080e-01
  2.6940804e-02
 -1.7973052e-05
  6.7347443e-01
  1.6213218e-05
  5.8215956e-06
 -8.5274150e-06
 -1.4147782e-04
 -6.8944928e-07
  1.0571039e-06
 -3.9408853e-05
  1.3271253e-05
  1.8130209e-05
  1.3377789e-06
  1.8851335e-06
  1.9020050e-05
  1.1040499e-05
 -1.5523218e-06
  1.3596009e-05
 -1.4118898e-05
 -2.7447730e-05
 -2.0574244e-06
 -4.5094730e-05
  1.0355951e-05
  2.8691811e-05
 -1.6729999e-05
  1.8780034e-06
 -2.8786924e-05
  1.7778206e-05
  2.2127547e-06
 -1.1623350e-05
 -2.4729943e-05
  1.9172871e-06
  2.4467059e-05
  8.5866236e-07
 -5.0713959e-07
  2.6421310e-05
 -3.0159166e-05
 -2.3976067e-06
  9.3049894e-05
  3.9606536e-07
  5.9434815e-06
 -1.1800391e-05
  6.0910966e-06
  3.5187079e-06
  1.4085268e-05
  1.6230131e-06
  3.7191683e-05
 -2.8937899e-05
 -3.0574451e-05
  1.3076149e-06
  2.4814963e-05
  1.1713487e-06
 -1.8290370e-05
 -2.6452705e-02
 -6.1778467e-02
 -2.9275570e-02
 -6.2549047e-02
  5.6424428e-02
  2.3641774e-02
 -1.6242816e-01
 -7.2543989e-03
 -8.0641666e-03
 -1.7635366e-02
 -2.1031385e-02
 -4.6743821e-02
  3.2624998e-03
 -3.8683899e-02
  1.8410084e-01
 -1.3784042e-02
  1.1984169e-04
  2.9609162e-01
  2.0290762e-01
  3.9302185e-02
 -7.8142562e-04
  3.6750647e-04
 -6.7468174e-03
  6.3343067e-04
 -3.3597745e-02
  2.0315534e-02
  5.8612325e-03
 -2.1618785e-02
  1.8759841e-01
  2.3622892e-03
  1.4231517e-02
 -5.5568083e-04
  2.5801945e-02
  1.6950424e-04
 -1.5302661e-02
 -7.9159603e-05
 -2.2055639e-05
 -6.3005832e-06
  4.5121760e-06
 -2.2765249e-05
  1.4462336e-05
  5.1490575e-01
  3.0370202e-06
  1.0116360e-05
  6.5726374e-07
  6.1928895e-06
 -2.1939430e-05
  1.4635884e-06
  4.0650590e-05
 -6.2932868e-06
  3.7159825e-06
  2.3175846e-05
  4.5574357e-06
  8.3259056e-06
  3.1692416e-05
  1.6001992e-05
 -1.8255656e-05
 -1.6212194e-08
  2.1435178e-05
  7.9219672e-06
  4.1564577e-05
  9.3331555e-06
 -1.5655014e-05
 -6.7050059e-05
  2.4359601e-05
  3.0408852e-05
 -2.2660915e-05
 -4.4113572e-06
 -1.5428104e-06
  1.8857425e-05
  4.6264100e-05
  1.1713802e-05
 -1.2364270e-05
  8.3207287e-06
 -5.3953622e-06
  1.5599260e-05
 -1.1838460e-05
  6.0550105e-06
 -2.3681272e-05
  5.9440801e-05
  1.8381330e-05
 -1.9716879e-05
  2.4197105e-05
  8.7269800e-06
 -3.2178781e-03
 -2.7501050e-01
 -2.3413843e-01
 -3.1613359e-01
  2.4394963e-02
 -2.2230523e-04
 -7.4691273e-02
 -7.2365549e-07
 -1.0510006e-02
 -4.3400367e-05
  2.2689642e-03
  2.5613792e-05
 -1.7700918e-03
 -3.1944022e-03
 -1.3327242e-05
 -1.9686246e-02
 -1.2229898e-04
  5.6244899e-04
 -2.3391091e-05
  2.6000993e-05
 -4.0899540e-06
 -1.0122089e-05
  1.1983623e-01
  3.5092935e-06
  1.0196420e-04
  2.1094434e-06
 -4.8502912e-05
  5.4303790e-05
 -4.2771439e-06
  8.6666432e-06
  3.3662186e-04
  2.6647464e-05
 -1.1419888e-05
  1.1615655e-04
 -2.1317312e-06
  1.3277010e-05
 -4.8074935e-06
  8.0867685e-06
 -2.0647331e-05
  2.1003900e-05
 -1.7256698e-05
 -1.3796464e-05
 -9.8617382e-02
 -2.8328862e+00
  3.1239754e-01
  2.5713044e-01
 -3.1462288e-01
 -5.1639211e-01
  6.5396476e-01
  1.1267128e+00
 -4.3219632e-01
 -1.5856704e+00
  1.3468989e+00
 -6.1359674e-06
  1.8609140e+00
 -6.4889979e-01
  4.6700329e-01
 -1.2830313e-01
 -1.8135474e-05
  3.1850023e+00
  7.9213860e-06
  1.9576406e+00
  5.8457571e-01
  8.7120932e-01
  3.0630219e-01
 -1.3993679e-01
  1.3618983e+00
 -1.7347381e-06
  1.1244204e+00
  9.2687219e-01
  3.0864254e-01
 -1.0802726e+00
  8.3463807e-03
  1.5382466e+00
 -3.8494098e-05
  4.3057175e-03
  1.9987468e-01
 -1.2546297e-05
 -2.6935470e-06
 -5.3908429e-06
 -6.0171669e-04
  3.2345415e-06
 -1.6739397e-05
  4.8117512e-05
  3.3104842e+00
 -7.3783404e-01
 -2.5032288e-01
 -2.9346998e+00
 -1.3253987e-02
 -2.6525015e-01
  7.0309734e-01
  2.0508323e-05
  4.5814902e-02
  2.2634797e-01
  3.0896541e-01
 -8.1978555e-07
 -8.0823338e-01
  8.0192022e-02
  6.4962496e-06
 -4.6838450e-01
 -5.8096486e-01
 -3.3969459e-01
 -4.0603336e-05
 -6.6651779e-01
  1.8080493e-05
  9.3059600e-05
  1.1869055e+00
  4.3778101e-01
  1.2402363e+00
  1.1895842e-05
  1.0652244e+00
  5.9986955e-01
  4.1687681e-06
  2.2529776e-01
  2.9755401e-04
  3.1694648e-01
  2.7573383e-06
  9.9659568e-01
  1.4108767e-04
  5.3967851e-06
 -1.2652659e-05
  5.9690537e-06
 -1.0706603e-06
  3.3287473e-05
  1.7221064e-05
  5.4181733e-06
  7.9756096e-02
 -1.5120267e-05
 -2.8669419e-02
  2.9174855e-02
 -6.0250284e-04
 -6.5125489e-05
  1.4496422e-01
 -1.7667175e-05
  1.1709958e-02
  5.1038362e-05
  9.4286804e-07
  5.8739088e-06
 -2.4771472e-04
  1.4824566e-03
  1.1420412e-05
 -2.3368080e-05
 -7.4112409e-06
 -6.6814639e-02
 -3.7043719e-05
 -1.2104925e-04
 -7.9081847e-06
  1.0453478e-07
  4.4542649e-03
  2.7927583e-05
  1.5112427e-06
  5.1317977e-07
  1.2987161e-05
  3.5967464e-06
  1.5040888e-07
 -3.9095498e-06
 -1.3976601e-04
  6.3382518e-06
  4.3257078e-06
 -4.6425944e-06
  2.0224465e-05
  1.5734488e-05
 -4.3091717e-07
 -3.4268167e-05
  2.0152265e-05
  2.9783248e-05
 -1.3882177e-05
  4.1960498e-06
  1.4485999e+00
 -6.2157592e-04
  9.0638489e-01
 -1.5305367e+00
  3.4174111e-01
 -5.5272859e-01
  9.0900445e-03
  2.2483659e-05
 -7.3466963e-06
 -1.3755154e-05
 -1.7612001e-04
  2.1872827e-05
 -7.0942461e-04
  3.8631988e-06
  5.7805960e-06
 -1.3329435e-05
 -7.9491301e-06
 -1.7090937e-05
 -6.8527435e-05
  1.7596722e-05
  3.7265729e-06
  2.2681725e-05
  3.4350389e-05
 -2.2258231e-05
 -5.9755610e-05
  1.9865502e-05
 -2.2086318e-05
 -2.5583551e-05
 -3.7255017e-05
  9.0104528e-05
 -8.6751044e-07
 -7.2908874e-06
  2.1971384e-05
 -4.2577094e-06
  7.4845761e-06
 -2.0039475e-05
  1.9220612e-05
  1.9538275e-06
 -3.1070690e-06
 -2.1976337e-08
  3.2499654e-05
  3.9944330e-06
 -4.7033880e-02
 -2.6782753e-03
  7.4032540e-03
 -7.3230773e-02
  1.9317017e-01
  2.3966432e-03
 -7.2700322e-02
 -6.1092519e-06
 -8.6136616e-04
 -8.9174334e-04
 -1.8007224e-02
 -2.7177907e-06
  2.5307425e-05
 -1.6010160e-02
 -4.3627142e-06
 -3.2924090e-06
  2.9648118e-06
  2.0040847e-01
 -4.9497226e-06
  3.5574201e-02
 -1.0463170e-04
  5.0703220e-05
 -1.8633366e-02
  5.7403489e-05
  5.8036018e-04
  5.1295096e-06
 -3.6780132e-04
 -2.2215874e-05
  5.0987060e-06
 -3.7697528e-06
  6.1831907e-03
  2.2585453e-05
  1.2968299e-05
 -1.6426068e-06
  2.0000311e-05
  1.8223391e-05
  1.6540504e-05
  2.9578436e-05
  1.4881860e-05
  2.9421778e-06
  4.1571284e-06
  3.4286552e-06
  4.1676730e-01
 -9.2795468e-04
 -1.8190476e-01
  1.2401369e+00
 -1.8847850e-01
 -5.0177288e-01
  4.2621352e-02
 -9.2029957e-05
 -7.0401984e-03
 -2.5936866e-02
  1.3328604e-01
  2.7340806e-05
 -7.5457692e-02
 -1.8466809e-01
 -1.0874045e-04
 -9.5843709e-05
 -8.3374187e-05
 -1.0144390e+00
 -3.5819005e-05
 -6.3884276e-01
  1.4663688e-02
 -2.7162798e-03
  1.3403869e-01
 -4.0407421e-04
  3.5964780e-02
 -1.6755610e-05
  2.0450933e-02
 -2.8709916e-03
 -7.3273711e-02
  5.8260681e-03
 -1.2701735e-02
  2.5530125e-03
  5.6680160e-06
  1.2137020e-01
  2.6246859e-02
  1.1267201e-05
 -2.3532205e-06
 -1.9706035e-06
 -4.3279683e-06
  1.8400782e-05
 -7.7444865e-06
 -4.5492898e-06
  4.7792070e-02
  1.7718291e-01
 -5.9301592e-02
  1.2367559e-01
 -1.5797630e-02
  1.4487740e-01
 -5.4084484e-02
  1.4110307e-05
  1.0222085e-02
  6.5419354e-02
  2.9854482e-01
  2.1107589e-05
 -2.8116130e-03
  8.0360197e-02
 -8.7904380e-05
 -1.0059543e-05
  2.4380424e-06
 -6.1226326e-01
 -2.7789889e-05
 -3.2385436e-01
  2.1583507e-02
  8.5054598e-06
  1.2672795e-01
 -1.7896555e-05
  2.1954656e-02
 -1.0546294e-05
  2.8747891e-04
  3.0019872e-02
  6.8001632e-06
 -4.3449996e-04
 -2.0652760e-03
 -3.6719128e-05
 -6.7652276e-05
 -1.2655649e-05
  1.8833101e-05
  1.9224155e-05
  4.9313498e-05
 -6.5678014e-06
  4.8780212e-06
  8.0397549e-06
 -1.8122422e-05
 -6.7498712e-07
  5.2628773e-05
  1.9777460e-06
  3.5766607e-05
 -5.2445877e-05
  7.5176809e-05
  4.8678427e-05
 -1.6933285e-05
  5.0339950e-06
 -1.7767358e-06
 -1.6599435e-05
  2.4297979e-05
 -1.0475455e-05
 -8.3996973e-05
  1.7815798e-06
  4.2830816e-06
 -2.0905662e-05
  5.8096350e-07
 -9.8092924e-06
  7.4047762e-06
  2.0537830e-06
 -7.1876457e-06
 -7.1498630e-06
  1.1164297e-05
 -8.6504742e-06
 -3.2913482e-05
 -6.9020789e-06
 -1.8906337e-07
 -1.6685655e-05
  1.6711807e-06
 -2.0675812e-05
 -1.8309809e-05
  4.1987769e-06
  1.6391943e-05
 -1.6249844e-05
 -2.2902701e-05
  2.3186601e-06
 -9.7841148e-06
  1.1400035e-05
  1.5111164e-05
  2.2366896e-05
  4.5528323e-06
  2.7099830e-05
  1.5417795e+00
  2.1819961e-01
 -2.0931213e+00
  9.9926144e-02
  3.1467357e-01
  1.2631385e+00
  7.2354391e-02
 -5.5506177e-02
 -1.1733259e-01
  9.7509427e-04
 -6.4185113e-02
 -3.8310122e-06
  4.8511847e-05
  1.3293860e-02
 -1.0891368e-05
  2.0821601e-01
  2.5970196e-02
 -1.3188830e-01
 -6.7468100e-06
 -1.5861973e-05
 -4.1028462e-02
 -7.1941083e-04
 -6.0165417e-04
  1.1513833e-01
 -6.0994107e-02
  1.6323867e-07
  9.4579784e-03
 -1.3793746e-01
 -3.7917132e-05
  4.0270704e-01
 -6.7791046e-04
  5.0516910e-06
 -3.3938624e-05
 -1.3985601e-03
 -1.9570394e-05
 -5.8175747e-06
  4.6135756e-06
  8.3519399e-07
  1.7353801e-05
 -4.3954715e-06
 -4.0525229e-05
  1.5791733e-05
  5.2128899e-01
 -2.6756018e-01
 -1.4561969e-01
  4.0693107e-01
  6.1016780e-01
 -1.7859763e-02
  1.0828875e+00
 -8.7166333e-01
  2.2531343e-01
  3.5289609e-01
 -3.0861387e-01
 -8.7200362e-07
 -6.0081160e-01
 -5.3836602e-01
 -1.3844130e-04
  3.1055115e-05
  5.0084764e-06
 -1.1551373e+00
  1.1569549e-05
 -2.8352642e-02
 -3.2996714e-02
 -4.9308741e-01
  8.4683701e-02
  4.8951307e-01
 -9.5984352e-01
  9.6433223e-06
  5.7405841e-01
 -5.4085279e-01
 -3.0965029e-04
  6.5384584e-06
 -5.3700176e-04
 -2.6723427e-01
 -1.0826233e-05
 -1.8086578e-04
 -7.5801850e-05
 -1.1351323e-05
 -6.4695873e-06
 -1.3463889e-05
 -1.4348464e-06
  6.4412716e-06
 -1.7861092e-06
 -4.5038279e-05
  1.3264214e-05
  9.3678959e-02
  3.2973310e-01
 -5.1822180e-01
 -1.2744398e-01
  9.0908355e-01
  6.5228037e-06
 -8.0220789e-06
 -1.3431890e-01
  8.9961535e-01
  5.5975902e-01
 -4.8324688e-05
  2.2115452e+00
 -2.5708398e-01
 -1.7324669e-07
  5.0209057e-01
  6.7571461e-02
 -8.2687991e-05
  3.8331440e-05
 -1.1082576e-05
  2.4782597e-05
  8.7528451e-06
 -6.7898959e-06
  4.2147756e-01
  9.1454203e-05
  6.0077596e-06
 -1.6360758e-01
 -1.5230376e+00
 -5.0428319e-01
 -1.9124097e-06
 -1.7090353e-04
 -3.0650721e-05
  2.6824701e-01
  2.4379669e-01
  8.6398650e-06
  9.0336245e-01
  6.0918377e-05
 -4.1889315e-04
 -3.8658754e-06
 -1.2775254e+00
  6.2575698e-01
  3.4784186e-01
  2.1364758e-05
 -9.2972368e-01
 -4.3649398e-04
 -3.4092137e-01
  1.2303901e-02
  2.2284528e-04
 -2.7003169e-01
 -1.5786107e+00
 -3.4590403e-06
 -1.4756006e-01
 -2.7999169e-01
  1.7607555e-01
  2.2230479e-01
  6.7273147e-02
  1.5468940e-03
 -4.5555371e-06
 -3.1304991e-01
  1.1766801e-01
 -3.5223562e-01
  3.0826882e-02
 -3.0930194e-01
  1.2664758e-01
 -2.5066893e-06
  1.6903381e-01
  1.8201592e+00
 -2.3516224e-04
  5.8501053e-05
  2.3037523e-02
  3.6288980e-05
  9.9529541e-05
 -4.1596169e-05
  1.9469340e-01
 -2.8298993e-02
 -1.1827727e-04
 -2.9079315e-01
 -3.0568102e-01
 -2.8406781e-01
 -1.2954887e-05
  1.1051578e-01
  2.2918282e-05
 -1.9507068e-01
 -1.1636247e-01
  7.0042439e-02
 -1.0335957e+00
 -1.9471503e-05
  1.4870719e+00
  4.8523645e-05
  6.3762105e-01
  3.8224593e-01
 -1.3247055e-01
 -8.4871344e-02
 -4.6595998e-02
  1.9657780e-01
 -3.9596605e-01
 -2.5395131e-01
  9.2194663e-05
 -2.7205783e-01
 -2.4443579e-01
  4.6721837e-01
 -2.6070401e-01
 -1.3240971e-01
  7.2711301e-01
 -1.0801812e+00
 -9.6500999e-01
 -3.5961458e-01
  3.6089428e-02
  2.3527019e-01
  4.7669145e-01
  4.9556613e-02
  4.8965013e-01
  1.1847572e+00
  7.9091960e-01
  1.8191915e+00
 -4.6350160e-01
 -6.9520766e-01
 -1.3327621e+00
 -3.2474896e-01
 -1.2962118e-01
  1.1038984e-01
 -1.3097362e-01
 -2.8358957e-01
 -1.3288553e-01
 -7.9762918e-01
 -2.0263987e+00
 -2.8530459e+00
  4.2142063e-01
  2.1666942e+00
  2.7864879e-01
 -4.6256613e-02
  2.7997202e-01
 -2.2538723e-01
  1.6219477e-01
  1.2044489e+00
 -3.8906951e-02
 -1.9085134e+00
 -1.7551646e+00
 -3.3714604e-01
 -3.4384316e-01
 -6.4396411e-01
  2.3655546e-01
  9.4027275e-01
  5.1060063e-01
  3.5302591e-01
 -5.1091534e-01
 -3.6235940e-01
 -1.2674254e+00
 -1.0596454e+00
  1.5062575e-01
  5.6658208e-01
  1.8598595e-01
  2.3499720e-01
 -9.8345600e-02
 -2.8210586e-01
  1.9069239e-01
 -1.0526403e+00
  1.6043033e-01
 -1.1062586e+00
  7.4516010e-01
  3.8196555e-01
  9.5551407e-01
  1.2807126e-01
 -5.7342563e-02
 -2.6096788e-01
 -8.7154353e-01
 -3.4644917e-01
  5.5999950e-02
 -3.6075618e-02
 -7.2015011e-01
  6.0663354e-01
 -8.2220584e-01
 -7.3466152e-01
 -2.0156780e-02
  7.6129836e-01
 -1.2791140e-01
 -1.1613107e-01
 -2.1617116e-01
  1.4378099e+00
  4.1904731e+00
 -1.6141374e+00
 -1.9297769e+00
 -8.6963171e-01
  9.9025798e-01
  5.9153095e-02
 -4.3406335e-01
 -8.7947369e-01
  8.4976214e-01
 -1.2863168e+00
  2.5710750e-01
 -4.9188560e-01
 -9.0455407e-01
 -6.6326708e-01
  9.4290358e-01
 -1.0684589e-01
 -1.8963408e-01
  3.2554317e-01
  8.9087331e-01
  2.1271466e-01
  4.8219237e-01
  1.4627792e+00
  1.0843982e-01
 -1.0508877e+00
 -1.1351378e+00
 -1.5369751e-01
  6.0205609e-01
  1.5515188e+00
 -1.2299343e+00
 -8.7380487e-01
  1.1616007e+00
  1.9120607e+00
  2.8209451e-01
 -7.7007765e-01
 -4.6497118e-01
  3.3212516e-01
 -4.5512342e-01
 -2.2413759e+00
  1.0309899e+00
 -8.8780212e-01
  2.5859785e-01
 -5.7074714e-01
  6.4270400e-02
 -1.5448931e-01
  6.8548512e-01
  2.4878230e+00
 -2.1637969e+00
 -4.9157277e-01
  8.5384381e-01
  1.5675551e+00
 -1.3675305e-01
 -6.2808961e-01
 -7.4876076e-01
 -1.2576329e+00
 -2.1519170e+00
  4.8005423e-01
 -1.7301848e-02
 -8.4564090e-01
 -9.5490777e-01
  1.4887621e+00
  1.8740261e+00
  1.1172026e+00
  8.0117516e-02
  8.0117516e-02
  8.0117516e-02
  8.0117516e-02
  8.0117516e-02
  8.0117516e-02
  8.0117516e-02
  1.6477184e-01
  1.6477184e-01
  1.6477184e-01
  1.6477184e-01
  1.6477184e-01
  1.6477184e-01
  1.6477184e-01
  1.6514264e-02
  1.6514264e-02
  1.6514264e-02
  1.6514264e-02
  1.6514264e-02
  1.6514264e-02
  1.6514264e-02
  3.8184006e-02
  3.8184006e-02
  3.8184006e-02
  3.8184006e-02
  3.8184006e-02
  3.8184006e-02
  3.8184006e-02
  1.0574344e-02
  1.0574344e-02
  1.0574344e-02
  1.0574344e-02
  1.0574344e-02
  1.0574344e-02
  1.0574344e-02
  5.2837264e-03
  5.2837264e-03
  5.2837264e-03
  5.2837264e-03
  5.2837264e-03
  5.2837264e-03
  5.2837264e-03
