nep4_zbl 1 Ne 
zbl 0.8 1.6
cutoff 6 6 79 79
n_max 6 6
basis_size 10 8
l_max 4 2 0
ANN 50 0
 -2.8990734e-02
  1.3517490e-01
  6.1255034e-02
  3.3378802e-02
 -4.2568088e-02
  3.0760449e-01
  2.9261529e-01
  2.0498031e-01
  8.9088100e-01
 -7.2444759e-02
 -9.9422812e-02
 -8.5043788e-02
 -2.0445657e-01
  1.3223143e+00
  3.0257329e-02
  2.3296161e-01
 -9.1929115e-02
 -5.6063842e-02
 -1.2756222e-01
 -4.0796477e-02
  1.0640118e+00
 -9.9197160e-03
  2.1794204e-01
  8.2954943e-02
  1.8689729e-03
 -1.7532384e-03
 -2.7084678e-02
  6.5544528e-01
  2.4291998e-02
  2.0735990e-01
 -2.3262369e-02
 -2.0880530e-02
 -3.3151180e-02
 -9.7677365e-02
  1.0271386e+00
 -6.2468663e-02
 -7.8574932e-01
 -1.9691631e-02
 -4.6302989e-02
  4.1249551e-02
 -8.9493737e-02
  5.1147854e-05
 -3.7464422e-01
  8.2358438e-01
  1.3267449e-01
  8.6700015e-02
 -1.3666895e-02
  3.9194569e-01
  1.9413359e-01
  7.2202500e-04
  1.8725958e-01
 -7.3603176e-02
 -2.7553242e-04
 -1.4325213e-01
 -7.2787203e-02
  1.1280170e-01
  8.5271342e-04
  2.9763693e-05
  1.8398380e-02
 -3.0730911e-02
 -8.9698665e-02
 -9.3549989e-02
  2.8700387e-01
  4.1147252e-04
  2.5579870e-01
  2.1764978e-03
 -3.4776502e-03
 -4.4866409e-02
 -1.7323005e-01
  3.9359361e-02
  2.0948462e-05
  3.4386382e-02
  3.7777984e-06
  8.1604468e-03
 -1.0487997e-02
 -3.8883436e-02
  6.4075360e-04
  9.5637788e-06
 -3.9392672e-04
 -5.4681746e-05
 -9.2556529e-06
 -3.9179216e-05
 -1.1010160e-01
  1.2511086e-04
 -2.3727045e+00
 -7.3410511e-02
  1.1454387e+00
  7.0473671e-01
 -3.1183279e-01
 -1.2747734e+00
 -1.3459386e+00
  6.8862559e-05
  9.7362150e-05
 -1.2615183e-04
  3.0413173e-06
  5.0035432e-02
  1.4012268e-01
  3.8018883e-05
  7.7418568e-05
  4.0020499e-05
 -5.4216146e-04
 -5.1158644e-02
  1.3534655e-04
  6.2216747e-01
  5.7791003e-06
 -3.3254801e-05
  4.3565848e-05
 -1.1654465e-06
  1.1568789e-05
  2.4857610e-02
  3.9794457e-01
  7.4541196e-04
  2.5982849e-04
  7.6598633e-05
 -7.1613591e-05
  7.2777249e-05
  2.0038092e-01
  8.2923156e-01
  1.3590577e-05
 -2.7482842e-05
 -1.7995040e-06
  2.4866426e-05
 -1.7342032e-06
  6.2752057e-05
  1.6814123e-04
  1.0669317e-05
 -3.6656465e-02
  6.5066284e-01
  7.0928383e-01
 -1.6230021e+00
  2.0184861e-01
 -1.2834121e+00
  7.3264971e-02
  1.6929954e-01
  3.3822969e-01
 -2.6034489e-02
  7.2344360e-03
 -2.2783110e-01
 -3.2749328e-01
  5.7720360e-03
  1.8628842e-01
  8.4692591e-01
  1.7116190e-01
 -9.3082860e-02
 -1.4030211e-01
  1.0905482e+00
  6.1015421e-01
  4.8765373e-01
  4.4718596e-01
  3.2090268e-01
  1.7336454e+00
 -4.8368549e-01
 -1.1107447e+00
  5.6924641e-01
  4.9763533e-01
  7.3796773e-01
 -3.5651218e-02
  8.8592613e-01
 -1.8841828e-03
 -1.1303893e-01
  3.4117657e-01
 -5.5111283e-05
 -7.4384661e-05
 -1.1364890e-06
 -1.9840640e-05
  4.3739477e-01
 -1.4233790e-01
  3.5775884e-05
 -2.9688794e-02
  3.2066387e-01
  1.6084939e-01
  1.1554971e-01
  9.8579489e-02
  2.5677612e-01
  1.2181901e-01
  2.0363021e-03
  1.5124978e-02
 -3.3901863e-02
 -6.5791912e-02
 -5.0052002e-02
 -9.5303230e-02
  3.7086377e-01
  5.8710473e-03
  4.9640769e-03
  1.7512394e-02
 -6.7577381e-03
 -2.4317279e-02
  7.1667016e-02
  3.9347282e-01
  1.3294287e-02
  5.6232769e-02
  1.0131633e-02
 -2.0802077e-02
 -2.1589588e-02
 -8.8021740e-02
  1.4076710e-01
  7.5680562e-03
  6.6563144e-02
 -1.4814558e-02
  5.7414928e-03
 -1.4816875e-02
 -1.3126801e-02
  3.8617849e-02
 -5.6148529e-02
 -2.6411280e-02
 -1.0639085e-03
 -1.5103194e-03
  2.0667866e-02
 -5.7964817e-02
  2.8801197e-04
  4.2665464e-01
  3.1193233e-01
  3.2829180e-01
  6.1099142e-02
 -7.2641182e-01
 -4.7423076e-02
 -3.1638905e-05
  3.8570779e-05
  6.6621440e-05
 -7.4914300e-05
  6.1955790e-05
 -2.1952254e-04
 -1.0210236e-04
  1.5137028e-05
  1.3283721e-05
  1.7247585e-05
 -1.0973776e-04
  1.6774092e-06
  9.5121817e-05
  4.5690882e-05
 -8.1327707e-05
 -6.8997993e-05
  1.3858613e-05
 -2.5117610e-05
 -7.3128809e-05
  7.9023208e-05
 -4.2617421e-06
  4.6056452e-06
  2.3208624e-05
  1.5030550e-06
  5.5388646e-05
  3.9974898e-06
  5.2313473e-05
  3.8188573e-05
 -4.3054941e-05
  7.6786309e-06
 -1.5039487e-05
  4.6998135e-05
 -1.4279049e-04
 -1.5192070e-04
 -1.0598535e-04
  1.4402313e-05
 -4.0271199e-01
 -1.1987940e+00
 -2.0022147e+00
  7.0518130e-01
 -3.0715292e+00
  9.7862566e-01
 -1.5279539e+00
 -6.7518500e-05
 -3.2790747e-05
  8.3154780e-05
  2.1075924e-05
  2.7892092e-01
  2.0007853e-04
 -4.0275350e-04
 -6.8390524e-05
 -1.1021107e-03
  1.6366937e-05
  1.0509395e-01
  9.8535061e-01
  3.1934381e+00
 -8.4381019e-05
 -7.6567849e-05
 -9.3811706e-02
 -1.6585791e-01
 -5.1391435e-01
 -7.6819426e-01
  2.7817422e-01
  3.5237848e-05
 -2.5946119e-05
 -2.7680379e-01
 -3.8354513e-01
  4.4198284e-01
  2.1417080e-01
 -1.0330248e+00
 -2.2362279e-04
  2.5301812e-05
  6.7070374e-05
  3.4802248e-05
  1.6779159e-05
 -3.5512712e-05
  7.4386197e-05
 -2.3071934e-05
 -2.6391094e+00
 -5.0150955e-01
 -1.1795714e+00
 -1.1138567e-04
  4.9291492e-01
 -2.7723613e+00
 -1.2584718e+00
 -3.1999502e-07
 -1.1653670e-04
 -1.9106668e-05
  5.0083436e-05
 -1.3638832e-05
  8.7086592e-05
  2.5022619e-05
 -5.9512851e-05
 -4.5873338e-05
 -1.8881400e-04
 -3.6919850e-05
  4.0256238e-04
  1.4912855e-03
 -4.1513784e-05
  1.0585973e-04
  1.8343212e-04
 -4.3271717e-02
 -2.9758741e-05
  2.6561383e-05
 -4.6993537e-05
 -3.5328878e-05
  1.1422643e-05
 -8.4561252e-05
 -1.3819702e-04
  1.0118100e-03
  3.6970040e-04
  4.1087865e-04
 -1.3653887e-04
  1.2932769e-05
 -7.3187572e-01
  7.6753211e-05
  1.0500107e-04
  5.9192989e-05
  1.5088887e-04
  3.2881944e-05
  1.9384777e-02
 -1.8357992e-01
 -1.0628475e+00
 -6.8295747e-01
 -9.1753393e-02
 -1.0400110e-01
 -6.2099552e-01
  3.3003918e-05
 -4.3116637e-05
  1.2667361e-04
 -6.8483168e-05
  2.8140151e-03
  3.6679226e-01
 -7.3576739e-06
 -2.0453772e-06
 -1.6680940e-05
 -2.0185688e-04
 -2.8843864e-05
  2.6109512e-03
  6.0149789e-02
  2.8090091e-07
 -6.8165427e-05
  2.4994542e-06
  9.0456422e-04
  2.4863165e-03
  1.9781600e-01
 -8.8750476e-01
  2.4515979e-05
  1.7253142e-04
 -1.1615052e-04
 -4.4051209e-05
 -2.1273041e-05
  1.2511939e-02
  2.8602907e-01
 -1.9673463e-04
 -1.1844840e-05
  6.3300184e-05
  5.1218198e-05
  4.3060527e-06
 -1.1258558e-04
  5.2022131e-04
  2.1377699e-04
 -1.4705993e+00
  2.2438121e+00
  2.8989131e-03
  1.3465752e-01
  2.0361528e-01
 -8.9844584e-01
  1.6296908e-01
  1.1452070e-05
  2.4331202e-04
 -1.7765093e-04
  2.4568057e-05
 -2.3916988e-01
 -2.6265758e-01
 -4.0653038e-05
 -2.6574551e-05
  1.2539877e-01
  2.5411637e-04
 -1.3618924e-01
 -1.1720861e-01
 -2.9118347e+00
  6.8073876e-02
 -2.7281852e-05
  6.8418878e-01
  1.7248143e+00
 -1.6686181e+00
  9.0053624e-01
 -1.5174341e+00
  2.4311532e-01
  3.9409929e-07
  4.0979695e-01
 -1.6827583e-04
  1.1039779e-01
 -8.6429864e-01
 -2.5120834e-01
  8.7105227e-04
 -1.6117830e-05
  6.7100527e-06
 -1.6750133e-04
 -1.9824760e-05
  1.1533550e-04
 -1.7693755e-04
  5.1913867e-06
  1.9805579e-01
  1.8813673e+00
  1.7869856e+00
  9.2562085e-01
 -2.5736308e+00
 -2.4064176e+00
  2.2158017e+00
 -2.2281541e-02
  3.0994759e-04
  1.5179457e-01
  8.3436910e-04
 -1.6928295e+00
 -6.9801658e-01
  1.4152890e-05
  3.3665463e-05
 -3.4474982e-05
  7.1965301e-01
  4.2690965e-05
 -7.6234513e-03
 -8.1158108e-01
  4.0337445e-06
 -5.9036590e-02
  5.1337904e-01
  1.7026509e-01
  2.3182711e-06
 -2.8291580e-01
 -5.1636707e-02
  3.1045051e-06
 -3.3562374e-01
  7.4524246e-04
 -2.0027641e-02
 -2.6240927e-04
 -3.4314412e-01
 -3.2781520e-01
 -9.8531882e-06
  1.8248615e-05
 -9.2618895e-05
 -1.2067697e-05
 -2.3894390e-06
  2.1813905e-05
  6.1920975e-05
 -4.1082658e-05
 -2.5503045e-01
  5.8611524e-01
  8.9563839e-02
  5.9208071e-01
  3.1895044e-03
  1.0385656e-03
  1.6749068e-03
  1.0040327e-04
 -1.9198218e-04
 -1.8774086e-03
  4.4308719e-05
 -2.8596784e-05
  7.9186975e-05
  4.4067616e-05
  6.3869949e-05
  6.1268845e-05
 -3.0041106e-06
  1.0594675e-05
 -6.9471585e-05
 -1.6398428e-02
  4.0993858e-05
  8.0979247e-05
 -3.0130220e-06
  9.0912699e-06
 -2.0459891e-05
 -3.7195182e-03
 -4.4708604e-01
  2.0648598e-05
  3.9914394e-05
 -3.5005258e-05
  1.7475379e-05
  1.3425008e-06
 -3.8216702e-05
 -1.3781905e-04
  1.5747338e-04
  3.7759401e-05
  9.7383581e-06
  4.1651067e-05
  3.4996599e-05
  1.2492739e-05
 -4.3464785e-05
 -5.0153027e-05
 -1.9443947e+00
  3.6898043e+00
 -1.1803502e+00
  1.4566582e+00
  1.1749870e-01
 -1.7860088e+00
  8.6049484e-05
  1.7139138e-05
 -2.5242156e-05
  5.8147245e-05
  6.7292451e-05
 -2.0157377e-04
 -9.8356664e-05
  6.5384032e-05
 -6.4559077e-05
  8.5100992e-06
  6.7596574e-04
 -2.5270076e-05
 -4.0674764e-05
 -2.4204648e-03
  2.6809631e-04
  4.8255300e-05
  4.6658100e-05
  3.6458689e-05
 -9.4468094e-05
 -5.3311614e-06
  1.3909407e-03
  3.7986592e-05
  3.0750511e-05
 -5.3874970e-05
 -6.8510904e-05
 -2.8726132e-05
 -2.3440635e-04
 -5.6208566e-02
  1.8919065e-05
  6.7027118e-05
  1.1386112e-05
  3.1879899e-06
  5.7155339e-05
 -7.7077304e-05
 -4.5904151e-05
  4.8093058e-05
  1.0165996e-01
 -4.2610338e-01
 -3.7332062e-02
 -4.4268399e-02
 -1.7500040e-04
 -8.9289218e-02
 -6.9461857e-05
  1.6693826e-05
 -1.0131037e-05
  3.7006050e-04
  8.4167496e-06
  1.0832401e-04
 -2.7803328e-05
 -6.9540227e-05
  5.8882160e-06
  8.5230386e-05
 -6.2635827e-06
 -9.0616042e-05
  1.7595723e-05
 -3.0866820e-05
 -6.0816921e-05
  1.1234186e-05
  2.9263436e-05
 -1.1150321e-03
  2.1647596e-05
  4.4550879e-06
 -3.7205427e-05
  1.8387057e-06
  1.1049492e-05
 -1.6748914e-04
 -2.2073509e-06
 -6.4224965e-05
 -1.4549432e-05
  3.8833794e-05
  2.6713826e-05
 -9.7971482e-05
  6.3895393e-05
 -5.1100375e-05
  7.2150578e-05
 -2.0238722e-04
  1.2010077e-04
  2.8717539e-05
 -3.1930897e-03
 -2.7422464e-01
 -6.5227881e-02
 -1.7453825e-01
 -2.2076159e-03
 -3.8938832e-01
 -1.6305034e-01
 -6.5631983e-05
 -6.0047799e-01
  5.7228383e-02
  1.3624091e-01
  1.4147352e-01
  1.4317320e-01
 -2.3166174e-01
 -7.6472370e-06
 -4.8282087e-01
  7.1730785e-02
  2.0315351e-02
  9.2045821e-02
  3.9899744e-02
 -6.5009266e-01
 -3.3244152e-05
 -2.3334390e-01
 -1.2846845e-01
  1.7755759e-03
  9.9871472e-02
  3.2866720e-02
 -9.9150348e-01
 -3.6636211e-05
 -2.2891812e-01
  1.3565104e-02
  5.4587677e-02
  3.3093374e-02
  3.7531748e-02
 -7.3282683e-01
 -1.8724717e-05
 -1.3549537e-05
  1.5849860e-04
 -2.5454568e-05
  4.6391724e-05
  9.6764870e-02
  8.8743152e-05
  4.1925567e-01
 -2.2391312e-02
  2.6444545e+00
  8.9442861e-01
 -4.5392138e-01
  4.5340478e-01
  7.3676165e-05
  4.4163222e-05
  9.6059674e-05
 -3.7440190e-05
 -3.3302862e-05
  3.7285648e-05
 -2.2105273e-06
  5.8903452e-06
  4.9569913e-05
  2.1509171e-04
 -1.1674732e-04
 -2.9591476e-05
 -8.8098328e-05
  3.2350352e-05
  6.8580310e-05
 -7.5011408e-06
  5.8532678e-05
  1.8993219e-06
 -8.5802258e-06
  6.0518854e-04
  8.6312190e-02
  7.0878359e-06
  1.4963780e-04
 -7.3479778e-06
 -1.8981074e-05
  4.0400068e-06
  4.7294780e-06
  2.7831793e-01
 -7.3123697e-06
  2.2305263e-05
 -2.0905520e-04
 -1.7905955e-05
  2.0608750e-04
 -8.7260560e-05
  1.2485412e-04
  1.6492058e-05
  2.1959187e-02
 -5.7185858e-01
 -1.7189221e-01
 -5.9196967e-01
  1.4766621e-02
 -2.8731593e-01
 -4.5906359e-01
 -2.7694985e-05
  7.2842573e-05
  2.0776344e-03
  3.6576621e-05
  4.1069490e-01
  1.0909168e-01
 -3.1848802e-05
  2.5482221e-05
 -3.2081711e-04
 -5.0524264e-03
  2.6110122e-03
  1.1943797e-01
  4.6700876e-02
 -3.2333632e-03
 -1.7014756e-04
  4.0979288e-05
 -1.6362812e-02
  2.2684887e-02
  5.6145541e-02
  1.2219055e-01
 -2.8271148e-02
 -4.3263753e-05
 -2.4775116e-02
  1.0353261e-04
 -2.8556947e-06
  8.5235154e-03
  6.8437010e-02
 -1.2866093e-02
  5.7551195e-05
  4.5296524e-06
 -3.3125641e-06
  2.2370992e-05
 -1.4550495e-04
  2.8389171e-03
  1.1638173e-05
 -8.6294771e-05
  6.8368085e-05
  2.7225778e-06
 -6.4743042e-05
  8.8333545e-05
 -3.9833901e-04
 -4.2548829e-05
 -5.1574880e-05
 -1.5710531e-05
  1.3503764e-05
  4.4179542e-05
 -6.4541513e-05
  7.3365169e-05
 -7.3749256e-06
 -2.5253752e-07
 -3.1947278e-05
 -2.3741450e-08
 -1.5050314e-05
  3.5497447e-05
 -1.1159633e-04
 -1.3735365e-05
 -4.2883792e-05
 -2.1681184e-05
  3.4725977e-05
 -3.9177754e-05
  5.2746876e-05
  6.1984106e-06
  1.8342813e-05
  1.0735203e-04
  9.2363698e-05
 -1.8604260e-05
  1.6247477e-04
 -2.6559714e-05
  1.6866183e-05
  2.9515573e-05
  8.2928309e-05
 -5.7300764e-05
  1.5774887e-04
 -1.3415917e-05
 -1.0889876e-04
 -5.6354307e-05
  2.4345540e-05
  5.3296360e-05
 -6.6680295e-05
 -4.5974183e-04
  3.8729686e-05
 -2.2838039e-04
  6.1550521e-04
 -1.5847661e-05
  2.1290910e-04
  8.2393444e-06
  5.3416712e-05
  5.0381477e-05
 -5.7873174e-05
  1.6685095e-05
  1.1641611e-04
  2.0274823e-05
  3.7735419e-05
  1.8833393e-06
 -1.7773526e-05
 -7.1528149e-05
 -6.6523330e-06
  1.3172362e-04
 -1.0909737e-04
  2.0237657e-04
  7.4236843e-05
 -8.5172915e-06
  1.9949250e-05
  3.3129234e-06
  2.1085939e-06
  1.1379463e-03
 -1.6294121e-05
 -1.5410651e-05
 -1.9210082e-04
 -5.4975186e-05
  2.1556647e-05
 -2.5147037e-04
 -1.9222247e-05
 -3.7901311e-05
  2.7230617e-05
 -3.9283350e-06
 -1.0723294e-05
 -3.6647718e-05
 -3.6868965e-05
 -1.9201070e-01
  2.5101893e+00
  1.9076535e+00
  1.1656915e-01
 -1.1383641e-01
  3.5712743e-01
  9.9885738e-01
 -1.5522543e-05
  4.1076670e-05
 -2.4584177e-05
 -1.2524173e-04
 -3.8928734e-03
 -1.6617523e-04
 -3.8936138e-05
  1.5010151e-05
 -1.3239875e-04
 -7.1302522e-05
 -9.4171819e-06
 -6.7170425e-03
 -2.1346343e-01
  2.0298356e-05
  1.1409581e-06
  6.8856072e-01
 -1.9171555e-03
 -1.1637924e-03
 -1.0143469e-01
  7.1625012e-01
  1.9640400e-05
  1.0009224e-05
  3.3542642e-07
 -2.0459176e-04
  6.4017360e-05
  6.1514438e-06
  4.7580142e-02
  8.4897056e-07
 -1.2037183e-04
 -2.8628772e-04
  5.1915064e-05
  7.7984732e-05
 -4.6029483e-05
 -2.1936854e-05
  1.1708032e-04
  4.0021297e-01
  1.4240756e+00
  7.8819746e-01
 -2.0932585e-02
 -9.8147899e-02
 -1.3342547e+00
 -4.7761521e-01
  1.1956137e-04
 -3.1352910e-04
 -8.4763014e-06
 -5.5142414e-06
  4.7605637e-01
 -1.8996459e-04
 -1.0771300e-04
 -8.0852924e-06
  2.6441176e-05
 -2.7490400e-02
  1.3554845e-05
  1.6401380e+00
 -1.2964101e+00
 -3.4474022e-05
 -7.6882316e-05
 -2.6354623e-01
 -9.9679792e-01
  4.5176255e-04
  3.5650671e-01
  1.3503058e-02
  4.3220214e-05
  1.3203509e-04
 -4.6534592e-04
 -2.3712178e-01
 -2.8895420e-06
  1.2870338e-02
  3.1508163e-02
 -1.3337436e-04
  1.0657002e-05
  7.5326570e-05
  1.8017249e-04
 -1.1454845e-05
  2.3011991e-05
  3.2451487e-04
 -5.7948735e-05
 -4.9192464e-04
  1.5856177e-04
 -1.6783449e-04
 -1.4179957e-04
 -1.5996839e-06
  4.2673496e-06
  1.7029595e-05
 -1.1953202e-05
 -1.4677335e-04
  2.9272982e-05
 -3.2144580e-05
  3.6314785e-05
 -1.5609483e-05
  7.3475196e-05
 -1.4981833e-05
  2.1602277e-04
  1.5865717e-05
 -5.9261938e-06
 -4.8967636e-06
  5.3940871e-06
  3.5617035e-05
  3.7539121e-05
  2.1856022e-04
  2.9721772e-04
 -6.1987623e-05
 -6.7798419e-06
  2.6088472e-05
 -1.0104120e-04
 -2.3837900e-05
  8.1308448e-05
  6.7825196e-05
  1.0337754e-05
 -4.2626682e-05
  1.0207525e-04
 -7.8151043e-06
  1.3201903e-04
 -2.3695982e-05
  1.2886961e-05
 -9.7304564e-06
 -1.9268131e-05
  1.0054050e-05
  4.5675047e-06
  1.0349414e-02
 -5.6073648e-01
 -6.4661479e-01
 -3.3344242e-01
 -1.5205866e-01
 -1.1239058e+00
 -3.5765707e-02
 -8.5993779e-05
 -2.5876274e-05
  4.6138728e-05
 -2.4606564e-04
  2.2853041e-02
  7.1332121e-05
 -1.4048595e-05
  8.1924511e-05
 -2.7203869e-05
 -5.7019184e-05
  9.9145756e-05
  2.0771089e-04
  4.0524621e-02
 -3.2803295e-03
 -1.2649158e-05
  5.4246237e-05
 -9.4738403e-05
 -1.9119787e-05
 -8.9571886e-06
  8.6457744e-02
 -1.4286581e-03
  1.2606816e-04
 -3.2146370e-05
 -6.1242434e-05
 -1.0978552e-05
  3.1511983e-05
  5.9690246e-05
  8.2416656e-05
  8.2231469e-05
 -1.5131094e-05
  4.1089703e-07
  5.2417174e-05
 -3.7154769e-06
  1.0310031e-06
  1.0342433e-04
  7.2191137e-01
 -1.1373453e+00
 -2.5900260e-01
  2.7467971e+00
 -3.1565276e-01
 -1.8148217e-01
 -2.3105502e+00
 -7.6201875e-05
 -2.6514444e-05
  9.0439928e-05
 -4.8262511e-05
 -1.8556571e-03
 -5.0781880e-05
 -8.2771090e-05
  2.0311480e-04
 -3.0988813e-06
  3.7570838e-02
  4.0220166e-05
  7.1138296e-05
 -6.5530941e-05
 -2.6713056e-05
  6.1149607e-05
 -1.1279350e-01
  6.3772066e-05
 -9.7253378e-03
 -1.4174730e-03
 -2.9486322e-01
 -3.4752124e-05
  1.9210214e-05
  2.1132477e-05
  2.3434745e-01
  1.4963577e-04
 -2.9781793e-04
 -3.6625606e-03
  7.0868169e-05
 -3.2769127e-05
 -1.1101222e-04
 -8.1373335e-05
  5.2592986e-05
  1.1315155e-05
 -1.7623590e-05
 -7.6998303e-06
 -1.0857536e-01
 -7.3999859e-02
  8.4463471e-01
  1.1408376e+00
  3.9132434e-01
  8.4761310e-01
 -1.9070198e-05
  1.1420112e-04
  1.1831295e-04
 -3.5189805e-05
  2.9828228e-05
  2.3629487e-05
 -4.7196223e-05
  1.3069887e-04
 -7.4809788e-05
 -2.9008655e-05
 -1.0419798e-04
 -6.8810237e-05
  1.7182998e-04
 -1.3655384e-05
  1.7308770e-05
  4.9826391e-05
  1.2014057e-04
  1.4686346e-03
  1.4226134e-04
  1.0334234e-04
  2.9577650e-04
 -2.5218840e-05
  9.7866132e-07
  6.8350637e-05
 -1.3158874e-06
 -2.4402294e-05
 -9.6136435e-05
  2.0956888e-04
  7.7401033e-05
 -3.7094764e-05
 -3.7953196e-05
 -7.1431896e-05
 -3.8056765e-05
  2.9252466e-05
  4.8533988e-05
 -8.2169645e-05
 -4.3483574e-02
  5.0250394e-05
  3.2635209e-05
  3.0674349e-04
  9.8655117e-04
 -5.2486495e-05
  7.7892240e-05
 -2.1325599e-04
 -3.3947923e-05
 -1.7371192e-05
 -2.3307142e-05
  3.6788492e-07
  2.8177692e-05
  2.5021047e-05
  1.1957725e-05
 -2.3651977e-05
  9.1383088e-05
  1.2035343e-04
  1.0854496e-04
 -3.6720140e-04
 -7.5659050e-06
 -4.1181658e-05
  7.9781494e-06
  1.1204089e-04
  1.1958456e-04
  2.5697582e-05
 -1.2549314e-04
 -1.7737819e-05
 -8.2822626e-05
 -2.8898852e-05
  2.5254229e-05
 -1.2096332e-04
 -1.2886847e-05
  7.1843984e-05
 -8.5577813e-06
  1.8822299e-06
  4.4761840e-05
 -6.6728266e-05
 -5.1876814e-06
  5.4671986e-05
 -1.0657133e-05
  1.6050986e-05
 -1.0385600e+00
  1.1538981e-01
 -2.1080787e+00
 -1.6604389e+00
 -3.0432923e+00
 -2.2406592e+00
 -1.6038957e+00
 -1.4828435e-01
 -9.9982433e-05
  4.7073245e-01
 -3.9261929e-05
  5.2355722e-02
  2.3579919e-01
 -6.6574605e-05
 -7.2998367e-03
 -3.4731460e-01
  3.1695552e-02
 -2.6195875e-01
  7.9257958e-02
  1.4707015e+00
 -4.6020185e-04
 -7.9675287e-01
 -7.2472548e-01
  1.1576070e+00
  4.4638062e-01
  6.6673529e-01
 -7.4305087e-02
 -1.2556885e-01
 -3.7644109e-01
  6.7452478e-05
  3.1093681e-01
  1.0796653e-01
  1.5004748e-01
  4.9032983e-01
 -8.4130668e-05
 -4.9188926e-05
 -3.1251449e-05
 -6.7536392e-05
 -3.0086967e-05
 -2.6103377e-01
 -8.0787817e-05
  6.5562053e-05
 -1.4493029e-01
 -1.2911781e+00
 -4.2516381e-01
 -2.6430279e-01
 -1.0385859e+00
 -5.1033592e-01
 -2.6339167e-01
 -7.7841006e-02
 -1.3207228e+00
 -3.8069183e-01
  9.2996962e-02
  1.2729554e-01
  1.9084980e-01
 -1.2360733e+00
 -2.5494820e-01
 -7.3739213e-01
 -1.5435385e-03
 -2.9938402e-02
  6.6853479e-02
  3.1533104e-01
 -1.4954933e+00
 -8.2200896e-03
 -2.5180033e-01
 -7.5309977e-02
 -3.2733232e-02
  1.0750511e-02
 -2.0263208e-01
 -7.4231672e-01
 -1.2279774e-01
 -2.4695018e-01
 -6.2390203e-03
  1.6527680e-03
  1.8017961e-02
  6.9714688e-02
 -9.3316370e-01
  3.7060666e-01
  2.5701836e-01
  1.3605581e-02
 -5.5670835e-06
 -3.1267855e-02
  1.0955834e-02
 -1.4671253e-02
  1.2351127e+00
  2.9573224e+00
 -9.1640311e-01
  8.4530431e-01
 -1.2497324e+00
  5.3876072e-01
 -6.2154448e-01
 -1.7313905e-05
  1.7599498e-04
 -7.6576095e-04
 -4.4988683e-05
 -2.3515133e-02
  2.7400065e-05
  2.2339373e-05
 -7.8526449e-05
 -1.0169680e-04
  2.3980471e-04
 -8.3754450e-05
 -3.7062824e-02
 -1.0289426e-01
  1.3527967e-05
 -2.6591238e-07
 -3.6272208e-06
  1.3639125e-02
 -1.0383393e-01
 -4.3635938e-01
  8.9041489e-01
 -4.9055339e-05
  1.4145735e-07
  4.4829078e-05
 -2.1267220e-01
 -8.5955509e-04
 -4.0300265e-02
  3.1650263e-05
 -1.7119382e-06
  4.0818733e-05
 -4.9436865e-05
  5.4635802e-05
  1.9616669e-05
  3.9647581e-05
 -6.2388084e-05
  1.9449513e-05
  6.9184053e-01
 -3.5727856e+00
  6.7841381e-01
  4.7327939e-01
 -2.3524205e-01
 -2.4085541e-01
 -1.5871530e-05
  8.8936904e-05
  4.9631817e-05
  1.5751011e-04
 -1.5009970e-04
 -5.2065297e-05
  1.3454698e-05
 -1.1013738e-04
  1.2099056e-04
  2.9050672e-05
 -7.7601922e-05
 -1.8421667e-04
 -5.1636227e-05
 -3.8298147e-04
  4.4656426e-05
  1.4695220e-04
  3.6451954e-06
  4.8377642e-05
  1.1551310e-06
  1.7629667e-05
 -2.3157845e-01
  1.7318682e-05
  5.9574013e-05
 -1.4762616e-05
  1.4924775e-04
 -4.9153990e-05
  2.1248310e-05
  1.8907223e-05
  2.2055319e-05
  3.0961372e-05
 -1.7802876e-04
 -8.1537750e-05
  1.4916232e-06
  3.2635307e-05
  5.3791129e-05
 -3.2812932e-06
  1.8936670e-01
  2.6089220e+00
  3.3213339e+00
 -2.6917744e-01
  2.1431594e+00
  1.0880080e+00
  2.0197320e+00
 -5.9872338e-05
  8.4376293e-01
 -1.5706424e-01
 -1.1965636e-02
 -5.6672889e-01
 -2.4548335e+00
  1.1742663e-04
  8.7673813e-02
  7.1636808e-01
  5.8729231e-01
  5.5087906e-01
  7.7841139e-01
  1.9282215e+00
  1.5730178e-01
 -6.2115891e-05
 -9.9462159e-05
 -1.5493518e-01
 -1.3190687e-02
 -1.2446704e-01
 -1.3278584e+00
  3.8013184e-01
 -1.1351428e-04
  1.1904662e+00
  8.5890579e-01
  9.5643878e-01
  1.5383488e-02
  1.4571359e+00
  2.5168281e-02
 -3.3297209e-05
 -7.2400690e-05
 -2.0356676e-05
 -1.7617060e-06
 -1.9799707e-05
  1.1307110e-04
  3.1349089e-05
  1.0214813e-02
 -7.3934579e-01
 -7.0893005e-02
 -2.1998757e-03
  1.7443573e-02
 -8.6736076e-02
 -7.8979218e-05
 -6.5551809e-05
  2.5859285e-05
  2.9115890e-05
  5.0570497e-06
  1.5889139e-04
 -2.4265470e-05
  1.5493946e-05
  6.5209693e-05
 -4.5224664e-05
 -2.2652224e-05
  1.2321868e-07
 -1.0906037e-05
  2.1036870e-04
 -7.5135751e-05
 -5.3322809e-05
 -5.9590911e-06
 -1.8075261e-05
 -5.4327127e-05
  1.0687801e-04
  1.1544637e-01
 -1.4915603e-04
 -1.4248100e-05
  3.7032377e-04
 -2.4589448e-05
 -1.1114263e-05
  6.7404362e-05
  1.2279213e-04
  1.2104671e-05
  1.9829724e-05
 -7.7459226e-05
  7.4219347e-06
  1.9311587e-06
 -2.1469732e-05
 -7.0586451e-05
 -1.3758640e-06
 -2.3092782e-02
  8.9903671e-01
  1.5822236e-01
  9.8500365e-01
 -5.6797463e-02
  2.9097542e-01
  8.1869954e-01
 -7.7688870e-05
  7.4474563e-05
 -1.2249056e-04
  7.6082448e-05
 -1.1161520e-01
 -1.2782246e-01
  5.4818127e-05
 -1.0100043e-04
 -6.6853076e-04
  5.4932774e-05
 -6.4485193e-06
 -1.7415712e-02
 -6.7514665e-02
 -9.9518271e-05
  9.2405753e-06
 -6.4648702e-05
 -2.8215060e-05
 -4.1262906e-02
 -3.6365908e-02
 -1.1124842e-02
  1.2733816e-04
 -3.9109425e-05
  7.4583048e-05
 -1.2677189e-04
  2.1032298e-05
 -4.1796127e-03
 -1.1293970e-01
  3.1167944e-04
  3.8633410e-05
  8.1240622e-05
 -1.7435549e-04
 -9.5602073e-04
  1.1517072e-05
 -6.3767628e-05
  8.5397376e-05
 -5.9214562e-01
 -9.8971057e-01
 -7.7415854e-02
 -1.2443831e+00
  2.6905786e-02
 -6.8298936e-01
  4.4731656e-05
  2.2165053e-05
  1.9231624e-05
  5.9216396e-05
 -7.5313928e-06
  1.4567486e-05
 -1.1013093e-05
 -3.7410435e-05
 -5.3735308e-05
 -1.2150039e-04
 -2.6045871e-05
  2.6194917e-04
  6.0097653e-05
 -3.6814256e-06
  1.6521358e-04
  1.4812845e-05
 -1.6951094e-06
 -1.5749993e-05
  9.8601740e-05
  2.7703398e-04
  2.0739943e-02
  1.9726633e-06
  7.0503389e-05
  6.1826913e-06
  2.7977070e-04
  1.8296221e-05
  4.7678759e-04
  9.8004202e-06
 -1.3737635e-04
 -1.1716256e-06
  8.8585752e-05
 -6.8915862e-05
  7.8425146e-06
  6.4119347e-05
 -1.7571122e-06
 -2.4271038e-05
 -2.8141949e-03
  1.3335548e-04
  6.3684274e-05
 -9.7843271e-04
  4.0963689e-05
 -3.9080612e-04
  9.4064730e-05
 -2.4190728e-04
 -4.4688662e-05
 -2.3875241e-06
  6.6877699e-05
  1.8308247e-05
  2.4673087e-05
 -1.0236790e-05
 -8.7251217e-05
 -5.9119855e-05
  2.4604457e-04
  2.8281432e-04
 -1.0618921e-04
 -1.3233614e-04
 -6.8869385e-06
  6.3666033e-05
 -1.0148618e-05
 -1.2544964e-03
  2.6478909e-05
  1.2944148e-04
  3.9146958e-05
  8.1198377e-05
 -5.4600361e-05
 -1.4030135e-05
 -1.6809045e-05
 -1.2475274e-05
 -2.9954712e-05
  3.2255492e-05
 -1.9813194e-07
  1.4040542e-05
 -1.2092921e-05
 -4.6989235e-06
  2.6991202e-06
  6.8128749e-05
  8.2358256e-06
 -1.5394461e-04
  3.9802089e-01
 -3.0111787e-01
 -2.7321586e-01
 -1.3690093e-01
 -1.3867052e-03
 -1.5786482e-01
 -1.6252101e-04
 -6.6720582e-05
 -1.3234146e-04
 -6.1582083e-05
  3.0196050e-05
  2.6213122e-05
 -4.7793626e-05
 -2.0909641e-04
 -3.7226400e-05
 -7.4526499e-05
  6.9135051e-05
 -9.1054089e-06
  1.6394275e-05
  5.3985696e-05
  4.4342364e-06
 -3.8076909e-05
  5.8403632e-05
 -3.0094583e-04
  5.8755664e-05
  3.3985591e-04
  7.5356416e-02
  1.2767474e-04
  4.0609342e-05
 -2.0304306e-05
 -3.3487551e-05
  1.0687247e-05
  3.3623201e-06
 -4.2590051e-05
 -3.5489760e-05
  5.1707543e-06
  3.6836111e-05
  2.3975059e-04
 -4.1095762e-05
 -3.0599324e-05
  4.6912995e-05
 -5.2881827e-05
 -3.4921878e-04
  3.4594882e-04
 -4.3729684e-05
  6.1574106e-06
 -1.8726671e-05
  7.5704105e-05
  2.0801184e-04
  2.7687868e-04
  6.8497728e-05
  6.2167004e-05
 -8.6614000e-06
  2.9243831e-05
  4.5337012e-05
  7.6912540e-05
 -4.9927261e-05
 -2.7423743e-05
  1.0034526e-04
 -3.1257983e-05
  4.5298024e-05
 -7.7454039e-05
  1.5776478e-04
  4.6870555e-05
  4.1959262e-05
 -1.3040402e-04
 -2.8057016e-06
 -9.5989322e-05
  2.7867336e-05
 -1.4031440e-04
  4.5767301e-05
  1.3582639e-05
  2.9895633e-05
 -1.5213501e-05
 -5.5097175e-06
 -8.5173485e-07
  4.0128065e-04
  7.1203220e-05
  9.2027840e-06
  2.3113520e-05
  7.7851073e-05
 -2.8578872e-06
 -9.1049289e-05
 -2.0967840e-05
  8.3621860e-02
  4.0446350e-01
  1.0720505e-02
  1.6739703e-04
 -7.5853299e-05
  7.4515687e-05
  3.3750683e-05
  1.1455621e-04
 -5.9945523e-06
  3.5893718e-05
  3.0555821e-05
 -4.9736704e-05
  8.1969738e-06
 -2.0233847e-05
  1.5172867e-04
  4.0768842e-05
  5.3376283e-05
 -1.1652416e-04
 -1.7479400e-04
 -1.6484359e-05
 -1.0121969e-04
 -1.2225589e-05
  2.4769525e-04
 -7.3597352e-05
 -2.2412547e-04
 -1.0073727e-06
 -7.4582344e-06
  5.1148533e-04
 -5.2599196e-04
 -3.4556928e-05
  2.2387301e-05
 -8.9542023e-05
 -5.9099566e-05
  1.2321273e-05
 -3.3630669e-05
 -3.9108768e-06
 -1.6492508e-05
  4.6070229e-05
  3.3952649e-05
 -3.2601471e-05
  6.5576983e-06
 -9.6384800e-05
 -1.6570752e+00
 -5.1586962e-01
 -1.3389832e+00
  2.6858773e-02
  1.0609841e+00
  5.2178377e-01
 -2.1128304e-01
  2.2889213e-05
  6.4123466e-05
  9.3785195e-05
  8.8078692e-04
  7.1421280e-05
 -9.6882159e-06
  1.8074434e-06
  1.2539036e-06
 -2.0868218e-05
  1.1669063e-05
  1.4040986e-05
  4.2118183e-05
  3.2903321e-05
 -4.7434023e-05
  8.2041026e-07
 -9.9377346e-04
 -1.2597868e-05
  2.9792925e-05
 -3.8805012e-02
  1.0947337e-02
 -1.4819023e-05
 -2.1235910e-05
 -7.3858166e-05
 -1.7542846e-04
 -1.8283349e-04
  7.7496261e-06
  3.1368840e-05
 -3.0356445e-04
 -5.4122088e-04
 -4.6290270e-06
  6.9674483e-05
 -6.3948472e-05
 -6.3719439e-05
 -1.7983499e-05
  3.7979236e-05
 -1.2672499e+00
  5.4599180e+00
 -4.7260571e-01
 -6.5162426e-01
  2.1581907e+00
 -1.8952887e-01
 -1.4391488e-01
 -6.1156548e-05
  3.9621848e-01
 -4.9444284e-02
  8.4355757e-05
 -8.1394559e-01
  1.7579610e-02
  1.0808748e-03
 -2.5123698e-05
  1.1091930e+00
  9.9121504e-02
  1.2131724e+00
 -3.5247308e-01
  1.6534299e+00
  1.8976775e-01
  6.2258292e-02
  1.5566906e-01
  2.6732102e-01
 -4.3331879e-01
 -1.2215991e+00
 -3.9108541e+00
  9.4412458e-01
 -4.6397717e-04
  5.9141421e-01
 -3.7446171e-01
  8.6531177e-04
 -5.2008294e-03
 -1.9006879e+00
  7.4771186e-03
 -8.9728390e-05
 -5.3597309e-05
  2.6581962e-05
  5.2767107e-05
 -5.0151866e-05
  1.4353187e+00
  2.4849141e-04
 -2.2105587e+00
  1.0526469e+00
  1.8717779e-01
  4.2590269e-01
 -5.5462647e-02
  1.4692725e+00
  1.5619329e+00
  8.6958298e-06
  1.6284057e-04
  2.1260747e-05
 -1.7162793e-05
 -3.8374489e-04
 -2.6112355e-05
 -1.0659744e-05
  8.4517624e-06
  2.2496578e-04
 -1.5322259e-01
 -1.3606105e-04
 -2.1759395e-01
 -8.0673367e-01
  1.1997025e-05
 -1.4909391e-05
 -1.6310369e-04
  3.6749803e-02
  1.4458310e-02
 -1.8607089e-02
 -3.3112362e-01
 -1.5638500e-06
  1.9733529e-04
  6.6893867e-06
  1.3141769e-04
 -1.3388076e-01
 -2.4451794e-01
 -8.6624008e-01
 -3.3740085e-05
  3.8503738e-05
  3.1621901e-05
 -3.4368913e-05
  1.4936662e-06
  1.0668319e-04
 -4.3738855e-05
 -1.1440803e-05
 -7.8149371e-02
 -1.8418615e-01
 -2.2999835e-01
 -3.5646269e-01
 -2.1288666e-01
 -3.5156587e-01
 -1.3477339e-02
 -3.9704002e-05
  4.4256798e-05
  2.8351635e-05
  4.1286610e-05
 -6.9863934e-05
  6.8073095e-05
  4.0235005e-05
  2.2079166e-05
  6.9980915e-06
  4.8566191e-05
  3.9184379e-06
  1.8603999e-04
  3.9107455e-03
 -5.7199642e-05
  6.3184219e-05
  1.2786084e-05
 -1.1256041e-04
 -3.7284681e-06
 -4.4176579e-07
  1.5528558e-04
 -4.6483841e-05
 -5.6408426e-06
 -7.7693076e-05
 -8.2463404e-05
 -6.9255737e-05
  1.6024128e-04
  3.4221166e-03
  9.3940653e-05
 -1.2716092e-04
 -1.2798731e-04
  3.3724093e-05
  1.0768319e-05
 -4.7267704e-06
  6.3423031e-05
  7.1852170e-05
  1.7434735e+00
  1.6569656e+00
  6.5456189e-02
  1.1435546e+00
  2.5604889e-01
 -1.0441825e+00
 -3.5778570e-01
  5.8370861e-05
 -1.7833780e-04
 -1.2866256e-03
 -1.6112022e-04
  4.5929746e-06
 -7.6134659e-02
  1.0235014e-04
  1.3819849e-04
 -7.5876385e-05
 -2.0017108e-04
 -1.1808475e-05
 -9.5307892e-05
 -9.3428165e-02
 -4.9126167e-05
  4.9249182e-05
 -2.0138991e-04
  6.1505350e-05
  7.3066090e-05
 -1.0510747e-05
 -8.8656151e-01
  3.6442831e-05
 -7.2246548e-05
 -7.7249140e-05
  7.5530479e-05
  1.9533959e-06
  4.8093825e-05
 -6.7236602e-01
  1.4622296e-04
 -4.0173315e-04
 -6.5427754e-05
  3.9000781e-05
 -5.7731573e-05
  1.5188712e-05
 -1.9809443e-06
  3.0756022e-05
  2.2256342e-01
  3.8944039e-01
  5.5079699e-01
  5.3325629e-01
  4.2221817e-01
  2.0374374e-01
  8.9424056e-01
  1.5755836e-03
  7.8518337e-01
 -1.2890410e-01
 -5.0954625e-02
  3.4751612e-01
 -2.2610527e-01
  5.1074684e-01
  3.3598546e-02
  6.0841137e-01
 -5.5357281e-02
 -2.0747863e-02
 -2.5907439e-01
 -7.2068430e-02
  9.9449122e-01
  3.2190517e-05
  3.7988505e-01
 -1.0798780e+00
  1.9813766e-01
 -2.1022486e-02
  1.0038576e-01
  5.9128523e-01
 -1.2647764e-05
  2.4130626e-01
 -7.3557310e-02
 -1.7630957e-02
 -1.8952772e-01
 -1.2892775e-01
  5.2168542e-01
  2.7148299e-05
 -1.0397919e-01
 -1.0588396e-04
  9.5221920e-05
  5.2682502e-04
 -1.4526458e-01
 -3.1201253e-06
 -7.5502592e-01
  2.9593978e+00
  2.0708542e-01
  5.0127929e-01
  3.4470555e-01
  1.0300393e+00
  2.1019100e-01
 -2.7723981e-05
  5.0596194e-04
 -1.3168333e-02
  8.3232830e-05
 -1.0472119e-01
 -6.7991279e-02
  1.7045799e-04
  1.6840117e-05
  6.3277828e-04
 -2.8954131e-05
 -3.8154333e-04
 -8.5637443e-02
 -1.2275110e-01
  2.3218330e-03
 -8.9402667e-05
 -6.9323492e-06
  2.5870567e-03
 -4.1385725e-02
 -4.5441356e-02
 -5.8698274e-02
  5.6396157e-02
  2.3595599e-06
  4.4958745e-03
 -7.4508350e-04
 -7.6577575e-03
 -9.2399530e-03
 -7.5698324e-02
  3.1136371e-02
 -8.9516885e-05
 -5.3450411e-05
  8.0425953e-06
 -1.1891584e-04
 -7.0426730e-05
 -1.0361633e-04
  1.2762232e-04
  7.0068240e-02
 -3.0238238e-01
 -2.8201848e-01
 -1.9650257e-01
  5.9668701e-03
 -1.2376948e-01
 -6.2681842e-03
 -5.9005024e-06
 -3.1238033e-05
  3.0127249e-04
 -6.7639303e-05
  1.5907537e-02
  1.3998318e-02
  3.1913361e-05
  9.0115464e-05
  3.5338937e-05
  1.4000578e-04
  2.3715531e-04
  4.7966495e-02
  6.2204640e-02
 -1.1719504e-04
  3.6956935e-05
  1.5017323e-04
 -1.6360491e-04
  3.8576603e-03
  9.9837825e-02
  1.7641434e-01
 -1.4251858e-04
 -2.4108742e-05
 -9.3018170e-04
  7.5713477e-05
 -2.3784051e-03
  3.6681427e-03
  7.4671969e-02
 -2.4008604e-04
 -9.5612733e-05
  2.2533259e-04
 -3.8110535e-05
 -1.0065325e-04
  5.3200300e-05
  6.1356688e-05
 -7.6111974e-06
 -8.9500409e-01
 -8.0702469e-02
 -3.2290041e+00
 -1.8864402e+00
 -1.3934668e+00
 -2.0119071e+00
 -3.8518459e-01
  6.0651251e-05
 -1.0000113e-05
  2.8574186e-05
 -6.0544786e-05
  9.6261382e-02
 -7.1050847e-01
  2.0676998e-05
  9.6185504e-06
 -5.7074311e-04
 -3.3260523e-05
 -3.8524994e-04
  2.8417161e-01
 -1.2956732e-05
 -2.4856150e-04
 -4.1300873e-03
  9.1080310e-06
 -2.9503112e-04
 -2.7729386e-01
 -4.6640292e-02
 -3.3163788e+00
 -1.0941931e-04
  4.0687737e-05
 -1.5393729e-05
 -7.8992980e-06
 -5.4000175e-05
  1.9176435e-01
 -1.0329676e+00
 -1.9652364e-04
  5.3972839e-05
 -2.5824635e-05
 -1.2184197e-05
  1.2596171e-05
 -1.1806421e-05
 -2.7201304e-01
 -1.1530978e-04
  6.3793707e-01
 -2.2393584e+00
  1.3105154e+00
 -6.1705625e-01
  2.1988957e+00
  1.3292271e+00
 -2.1527249e-01
 -4.2567772e-01
 -6.2699896e-01
  3.2212648e-01
  1.5420075e-05
  8.7677995e-03
 -1.6407017e+00
 -2.4751332e-01
 -9.8508500e-02
 -2.8052359e+00
 -6.0066875e-02
 -2.0906518e-01
 -9.0284836e-01
  1.1750500e+00
 -8.5665089e-01
 -9.4517475e-01
 -1.0879543e+00
 -1.1487872e-01
 -3.7436193e-01
  4.0334469e-01
 -1.3273884e+00
 -1.7687298e+00
 -3.4608343e-01
 -1.2151621e-01
 -1.6777018e-01
 -4.6455753e-01
 -3.8867193e-01
  8.9964050e-01
 -7.4994904e-01
  1.3462042e-04
  8.0298189e-05
  7.2160423e-05
 -8.4529856e-05
 -1.2294180e-04
 -7.4622577e-01
 -6.4393163e-05
 -2.9342413e-01
 -8.9160031e-01
  6.6044116e-01
  2.5488573e-01
  1.5435326e-01
 -1.3053501e-02
 -5.4295063e-01
 -7.3853425e-07
 -1.8919628e+00
 -9.4252117e-03
 -1.7620789e-05
  1.3752358e-01
 -2.2155623e+00
 -1.3991017e-02
  1.5220431e-05
 -8.6712176e-01
 -1.4058009e-01
 -3.4289838e-05
  1.0964483e+00
 -1.4304199e+00
 -1.7190473e-04
 -2.0448144e-01
 -2.3506367e-01
 -1.9218138e-01
 -2.1322481e-02
  1.2621962e-01
 -9.7543371e-01
 -3.2520154e-01
  5.0452349e-05
 -5.3696150e-01
  4.4655928e-01
  1.8874978e-01
  1.2810647e+00
 -3.3440182e+00
 -5.9273581e-05
  1.4376482e-04
  1.4824426e-04
 -3.1530850e-05
 -2.6815915e-06
 -3.3515109e-05
 -1.5114052e+00
 -8.3400946e-06
 -1.2946795e+00
  2.2175364e+00
  3.2518094e+00
  2.6009721e-01
 -7.0946352e-03
 -2.3390112e+00
  8.2732159e-01
 -1.5192787e-04
 -2.6377935e-05
 -6.6260450e-02
  9.5489784e-05
  2.3107739e-04
  2.1854580e-06
 -2.9599463e-05
  4.9879675e-04
  9.6124195e-02
 -2.2149974e-04
  1.3134042e-05
 -9.5169689e-06
  6.3546017e-02
  1.0545101e-04
  9.1183186e-02
 -3.0302208e-05
  7.0935224e-05
  7.1957147e-06
 -2.8201393e-03
  1.0041561e+00
  1.6183227e-03
  6.4415370e-05
 -5.2867628e-05
  1.2660024e-01
  6.4469519e-04
 -7.1023052e-05
  6.0136247e-01
  2.7652333e-05
 -6.9738941e-05
  2.2196626e-05
 -2.9817815e-05
  7.6764945e-06
  5.2946722e-05
  1.6624777e-05
  1.7532106e-05
  3.7669665e-03
  1.1874089e-04
 -1.2874604e+00
  1.3578990e+00
 -2.5852714e-05
 -1.2901270e+00
  5.0307912e-01
 -1.2643450e+00
  3.8958913e-01
 -1.7587328e-01
 -6.3077605e-01
  9.3587381e-01
 -2.0231389e-01
 -9.1459980e-05
  9.5831216e-05
  2.0753746e+00
  5.8276977e-02
 -4.8689620e-04
 -2.5181752e-04
 -2.4734069e-02
 -4.6215245e-01
 -5.5042101e-04
 -1.3528087e+00
  2.3524716e+00
  1.2043592e+00
 -1.0509784e-05
  1.8003997e+00
 -7.9828039e-02
 -1.1989378e+00
 -1.6415551e+00
 -2.7735949e-01
 -1.7201488e+00
 -1.4580652e+00
  2.0539961e+00
 -1.5224284e-04
 -8.8801862e-06
 -4.8937221e-05
 -4.6879381e-05
 -2.6418605e+00
 -7.9793268e-01
 -1.4456035e+00
 -4.9181966e-05
  1.3815337e+00
  7.8945830e-02
  5.9248850e-02
  1.8875453e-06
 -2.0673501e+00
 -8.8953400e-01
 -1.5187926e+00
  1.4005406e+00
  4.0564342e+00
  1.3859634e+00
 -2.8371379e-01
  2.2942605e+00
  4.9326110e+00
  2.6020566e-01
 -3.3643907e-01
 -1.5670092e-01
 -2.6029408e-01
  3.6613256e-01
  3.8476497e-01
  3.9508584e-01
  1.4104268e-01
 -7.0420660e-02
 -8.5807997e-01
  1.0444055e+00
 -4.7530657e-01
 -2.4977626e-04
  4.4099469e-04
  1.8330601e-01
 -3.1066269e-01
 -7.6732965e-04
 -8.6641741e-01
 -1.1539067e+00
  2.3163398e-01
  5.3399347e-02
 -2.0527618e+00
 -4.9008141e+00
  9.6077478e-01
  4.1365054e-01
  4.4790933e-01
 -8.0053294e-01
  1.2828304e+00
 -2.1768203e+00
 -2.8761703e-04
 -1.0732420e-01
  1.5187920e-02
  5.4329414e-02
 -1.3758069e+00
  6.4375746e-01
  5.0687367e-01
 -1.2270208e-01
  2.0632738e-01
  1.6042119e+00
  4.6200484e-01
 -3.5385182e-01
 -1.3703483e+00
 -7.1355593e-01
 -1.1420234e+00
  3.6124367e-01
 -1.4419668e+00
  8.6937022e-01
 -2.1163669e+00
 -1.5900898e+00
  9.6355540e-01
  1.9696977e+00
 -8.1230424e-02
 -1.0436641e+00
 -1.2108949e+00
 -6.2046092e-02
  5.1388127e-01
  7.0621431e-01
  2.0475672e-01
  4.1115317e-02
 -1.4151220e+00
 -1.1197411e+00
  1.9858108e+00
  9.9418533e-01
 -4.0228546e-04
 -8.6900574e-01
  4.0144667e-01
  5.6833929e-01
  5.3045350e-01
  2.1265282e-01
 -5.2804911e-01
 -8.2012630e-01
 -4.6747348e-01
  1.7986845e+00
  1.4453992e+00
 -6.1116600e-01
 -6.4633822e-01
 -3.7521869e-01
  3.9068305e-01
 -2.3945513e-01
  3.7149423e-01
 -1.0949894e+00
 -1.4761816e-01
  3.8682583e-01
 -4.6026152e-01
  2.5787928e+00
  7.7634645e-01
 -7.9330361e-01
 -1.1161830e+00
 -5.2389950e-01
 -1.8781601e-01
  1.9706926e-01
 -3.3395104e+00
 -4.5574728e-01
  2.5906186e+00
 -1.2595397e-01
  3.4040433e-01
  7.8608459e-03
 -4.4478452e-01
 -1.4676883e+00
 -1.2131522e+00
 -3.6902326e-01
 -1.3931395e-01
 -4.4589445e-01
  6.0909194e-01
 -4.3540373e-01
  3.0507278e-01
  2.1925677e-01
  1.9009358e+00
  5.1973706e-01
 -1.1452183e+00
 -1.3713953e+00
 -4.0861437e-01
  7.5958155e-02
  1.2407800e+00
 -6.3527799e-01
  6.4241797e-01
 -2.8207622e-02
  8.6518538e-01
 -1.2880416e-01
 -4.3748759e-02
 -1.0560879e+00
 -7.3774773e-01
 -5.1803625e-01
  1.6220808e+00
 -1.7207558e+00
 -1.1898849e-01
 -1.4919161e+00
 -2.9716772e-01
 -1.1889420e+00
  2.2708946e-01
  2.1915871e-01
  1.0187669e+00
 -2.1955590e-01
  2.1900311e+00
 -1.0464859e+00
 -8.0805695e-01
  9.7362244e-01
  1.8877571e+00
  3.5301900e-01
 -6.8195462e-01
 -5.6328493e-01
 -8.5716379e-01
 -4.0989900e+00
 -1.0055401e-01
  6.9149363e-01
  8.6638846e-02
 -4.1136366e-01
  4.0825400e-01
  7.5012696e-01
  5.2134496e-01
 -2.6655337e-01
 -1.6513631e+00
  1.5698830e+00
  4.7512755e-01
 -8.0076575e-01
 -1.2953635e+00
  5.9572037e-02
  5.7679451e-01
  4.6096191e-01
  6.8365723e-01
  2.9079852e-01
 -4.2197078e-02
 -8.4926933e-01
  1.6424146e+00
  4.2234263e-01
 -3.4868971e-01
 -1.0347182e+00
  1.7616980e-01
 -8.5331595e-01
 -4.4382963e+00
  9.1704524e-01
  6.7797369e-01
 -1.7097728e+00
 -2.2908957e+00
  9.3620658e-01
  2.2919667e+00
  1.5831764e+00
 -9.8463750e-01
  9.5829658e-02
  1.7225863e+00
  1.9069142e+00
 -3.9380977e-01
 -1.3584932e+00
 -9.3626022e-01
 -9.1791995e-02
  5.1906329e-02
  2.0245478e-02
  2.0245478e-02
  2.0245478e-02
  2.0245478e-02
  2.0245478e-02
  2.0245478e-02
  2.0245478e-02
  1.0567366e-02
  1.0567366e-02
  1.0567366e-02
  1.0567366e-02
  1.0567366e-02
  1.0567366e-02
  1.0567366e-02
  1.5407822e-02
  1.5407822e-02
  1.5407822e-02
  1.5407822e-02
  1.5407822e-02
  1.5407822e-02
  1.5407822e-02
  1.7600354e-02
  1.7600354e-02
  1.7600354e-02
  1.7600354e-02
  1.7600354e-02
  1.7600354e-02
  1.7600354e-02
  8.7836841e-03
  8.7836841e-03
  8.7836841e-03
  8.7836841e-03
  8.7836841e-03
  8.7836841e-03
  8.7836841e-03
  7.9182032e-03
  7.9182032e-03
  7.9182032e-03
  7.9182032e-03
  7.9182032e-03
  7.9182032e-03
  7.9182032e-03
