nep4_zbl 1 Ne 
zbl 0.8 1.6
cutoff 6 6 78 78
n_max 6 6
basis_size 10 8
l_max 4 2 0
ANN 50 0
 -1.0040624e-06
  5.8989932e-05
 -1.5118731e-02
  1.5961722e-04
  2.0714520e-05
 -3.0907919e-04
 -1.4791006e-01
 -8.0011550e-06
 -1.3869424e-05
  2.9929226e-05
  2.0719058e-06
 -4.4074841e-06
  8.7626076e-06
  1.7373235e-05
 -1.8310056e-05
 -8.3717154e-05
 -5.2744905e-05
 -2.8860257e-05
 -3.5100908e-05
 -5.7379566e-05
 -1.2878725e-05
  7.9080324e-05
  7.2464627e-06
 -2.8487431e-05
  1.7739899e-04
 -4.8535640e-04
 -2.0743959e-04
  1.2685790e-07
 -7.6680835e-06
 -4.1123520e-05
 -6.9806702e-05
 -7.6692641e-06
  2.5173342e-05
  2.5221275e-04
 -2.5988365e-05
 -4.6198191e-05
  2.2667899e-05
  4.5362053e-06
 -1.4442646e-06
 -8.5059173e-06
 -2.8435885e-05
  4.6604564e-06
  1.1947232e+00
 -9.2818856e-01
  9.9061036e-01
 -1.0003028e-03
 -2.7346745e+00
 -5.5038482e-01
 -2.1248372e+00
  9.8692944e-06
  1.9143348e-05
 -3.2057735e-05
  2.6544312e-06
 -2.0813024e-05
 -3.0705329e-02
 -6.3818865e-05
 -4.5772890e-07
 -7.4676832e-06
  5.6134299e-06
 -5.9274834e-01
 -1.5918942e-05
 -1.0596385e-03
 -3.1662130e-05
 -4.2212273e-06
  6.5476568e-05
 -3.5923116e-05
 -5.7645928e-02
  4.6896723e-05
  2.3362967e-03
 -6.4508349e-06
  2.8271432e-05
 -2.8767037e-05
 -8.9213881e-07
  1.2827989e-02
 -1.3579740e-04
 -2.8249153e-06
  2.3798029e-05
  1.3178812e-05
 -7.3337826e-05
  5.2346852e-05
  5.2024725e-06
 -3.6550799e-05
  3.6527748e-05
 -2.0992966e-05
 -3.1355098e-02
 -3.1843409e-01
  1.1328846e-01
 -8.5837489e-01
 -1.6171530e-02
 -2.9143395e-02
 -1.3470775e-01
 -1.8801769e+00
  2.5543171e-01
 -3.9089229e-03
 -1.1960640e-01
  1.9391581e-01
  2.3909345e-01
 -2.0210353e-01
 -7.7521616e-01
  1.4605623e-01
  6.2603515e-01
 -1.0980320e-01
 -9.3774520e-02
 -1.2895722e-02
 -7.7612516e-03
 -1.5985361e-01
 -1.3285657e-04
  2.2633983e-02
 -1.6624944e-01
  8.0738189e-03
  5.3067426e-03
 -1.3245733e-02
 -2.2027646e-01
  2.1708929e-03
  1.8027237e-01
 -2.4776082e-02
  8.0624623e-03
  5.3986819e-03
 -9.9364109e-02
  3.7942166e-03
 -2.2391901e-05
  4.7435542e-03
 -8.2917213e-03
  3.8111430e-05
  1.9701128e-03
 -4.3538312e-05
 -1.1894917e+00
  8.5839021e-01
 -1.7202405e+00
 -6.3517225e-01
 -3.8117517e-02
  1.4172779e+00
 -5.1847447e-02
 -3.5514875e-04
 -3.5963558e-06
 -7.3416479e-05
  3.3210710e-02
  1.9568210e-05
  6.4465189e-01
 -8.3177329e-05
 -8.2446881e-02
  7.2261035e-02
 -5.1837673e-05
  2.1098437e+00
 -8.5571416e-02
  3.9787406e-01
 -2.9262443e-05
 -1.2388685e-01
 -4.1499410e-02
  9.6996337e-05
  2.7285738e+00
 -2.1354787e-01
  1.2070514e-03
 -1.3762103e-01
  6.0950487e-04
  1.3237810e-04
  3.9337297e-06
  7.0621246e-01
 -6.2976178e-05
  6.4221017e-06
 -7.0070699e-02
  7.1877644e-06
 -1.8650986e-05
  1.6215123e-05
 -4.4779803e-04
  8.8649867e-06
 -1.5326988e-05
 -2.0813637e-05
  1.8510795e-01
  1.3097070e-01
  2.7903077e-05
  1.7056244e-03
  1.2561983e-04
  3.1567007e-01
 -3.0472133e+00
 -1.0599026e-05
 -2.7741658e-04
 -1.2165989e-05
  5.1160368e-05
  6.6915454e-05
 -2.6140588e-06
  8.4328194e-06
 -4.6456128e-04
  3.8412254e-05
  1.1610797e-05
  8.7955361e-04
  7.4850577e-06
  7.4808449e-03
  3.9176251e-05
 -6.8890222e-05
 -1.3639113e-06
 -1.3119005e-05
 -8.9764548e-03
 -5.5887613e-05
 -2.0305671e-04
 -6.1243227e-06
  5.8424052e-05
  1.4614154e-04
  1.4770178e-05
  1.0740953e-04
 -1.8795153e-04
 -3.2302014e-05
  1.0258533e-05
  8.1410572e-06
  9.9977027e-05
  1.9983090e-05
  5.7208076e-06
 -5.8310561e-05
  3.1323045e-05
 -2.2215369e-05
 -1.8006240e-01
  1.6408083e-05
 -2.1272767e-03
  3.8386587e-04
  1.5018185e-04
 -6.4186148e-05
  1.1074639e-01
  3.0620966e-05
 -6.7285546e-06
 -1.1255454e-04
 -3.8016573e-05
 -1.0275397e-05
  5.4191310e-06
  1.3410171e-05
  4.0399586e-06
 -4.0364434e-04
 -1.2742702e-04
 -1.1093522e-05
  5.3386971e-06
 -2.1249570e-04
 -9.3625823e-07
  4.8245496e-05
 -1.2347818e-03
 -3.9664836e-05
 -1.0183192e-05
 -9.1288248e-06
 -4.0822076e-03
  5.4004540e-05
  1.5739497e-05
  1.0101752e-04
 -4.5257029e-06
 -3.2263325e-04
 -1.9014660e-05
  3.1545635e-06
 -3.6801955e-06
 -1.4464695e-04
  2.6357100e-06
  2.7349213e-05
 -1.9981033e-05
  2.3062003e-05
  2.1792948e-06
  1.5257959e-06
 -2.2936486e-02
 -8.4496744e-05
  4.6164556e-03
 -8.6809760e-01
 -4.5359653e-01
 -1.9820846e+00
 -9.0159756e-01
 -2.5033087e-06
  7.1186755e-06
  2.6026801e-05
 -3.9418321e-04
 -1.0271126e-05
  2.4282233e-01
 -1.6444303e-05
 -6.4936939e-06
 -1.0410587e-05
  9.3152930e-06
 -6.5298337e-07
 -2.3972302e-07
 -3.9276692e-05
 -1.6288694e-05
 -9.9460973e-05
 -1.2392095e-06
 -3.5652329e-07
  1.5970294e+00
  1.7873682e-04
 -1.7077809e-04
  3.3154454e-05
 -2.2602506e-05
  3.8813982e-05
 -4.6101464e-05
  8.1646580e-01
  2.4253408e-05
  1.7244500e-05
 -3.3125634e-05
  3.8362541e-05
  6.8938330e-06
  1.1376484e-05
 -5.0805527e-05
 -8.7867469e-05
 -3.0935138e-05
 -8.5957363e-06
  1.2120450e-01
  6.5167212e-01
 -3.8535981e-03
  7.4919635e-01
  2.6693262e-02
  2.5815243e-01
  9.2033200e-02
  5.6623841e-05
 -6.6131372e-07
  3.6014859e-05
 -1.0149194e-02
 -3.9201870e-05
 -1.0146476e-02
 -1.6664726e-06
  8.0196094e-04
  1.8254452e-06
 -1.3758499e-06
 -6.0166558e-04
 -1.1322542e-05
 -2.2126834e-03
 -6.2072060e-05
  1.0635674e-03
  3.4419054e-06
 -3.7992206e-05
  5.2637808e-02
  5.3050575e-05
 -6.5120724e-03
  7.8321364e-06
 -3.8487028e-04
  2.6231835e-05
 -1.8794690e-05
 -1.3031647e-02
  6.5872693e-05
  3.4206780e-03
  4.5689605e-05
  4.2946945e-06
 -2.2219549e-05
 -1.0389625e-05
  4.2583642e-07
  2.3610322e-05
  1.4893003e-05
  8.1352455e-06
 -6.5053034e-01
 -5.4301000e-01
  1.8755790e+00
 -1.2566607e+00
  1.8232244e-01
  1.7345362e+00
 -5.9123403e-01
  7.2406583e-06
  6.7421734e-01
  6.9151126e-02
  3.2254038e+00
  8.7348551e-01
  1.1055024e-02
  8.3213836e-02
 -7.7562773e-01
  9.9512494e-01
  8.4158456e-01
  3.4270012e+00
  1.9271410e-01
 -1.5717816e-02
  7.3109722e-01
 -3.6937612e-01
  1.2243952e+00
  1.7107729e+00
  2.6761818e-01
  6.3063788e-01
 -9.8193304e-05
  1.6140227e+00
 -7.9698765e-01
  1.0037056e+00
  1.2131150e+00
  3.0996159e-01
  1.2817556e+00
  9.0843183e-04
  1.5193627e+00
 -3.0879215e-05
 -1.4078301e-04
  2.9606739e-04
  3.8249543e-01
  1.0935659e-06
  3.9137699e-04
 -1.2475657e-06
  7.1035996e-05
  9.8056269e-05
 -3.8191254e-04
  1.5331582e-04
 -1.7623832e-05
 -9.9861863e-05
  9.3397211e-05
 -2.0937632e-05
 -1.8228138e-06
  1.8271267e-05
 -9.0243637e-05
  2.8419043e-05
 -1.9614722e-06
  9.2558839e-06
 -1.0272732e-05
  3.0822719e-06
 -2.5894056e-05
  2.0663470e-07
 -2.1689249e-05
 -4.9015916e-06
 -2.9582308e-05
 -3.2334887e-05
 -7.0359653e-07
 -2.6110491e-05
  1.0171330e-05
  3.8402581e-05
 -2.7814232e-05
  6.0629709e-06
 -1.8204621e-05
  3.7758615e-05
 -4.6172063e-06
 -1.6934790e-05
  4.8561818e-05
 -7.5566022e-05
 -2.5815760e-05
 -5.1503903e-06
  8.9980051e-05
 -7.5084805e-05
 -6.8660731e-05
 -2.1063288e-05
 -2.7339227e-06
 -2.7233747e-05
 -1.6204841e-01
  1.1300976e+00
 -3.4899366e-01
  1.4069952e+00
  1.4676142e-01
 -1.4557460e-01
  5.8524567e-01
 -2.4757210e-05
 -1.6736044e-06
 -1.5138573e-05
 -3.7525368e-03
  5.8600208e-06
 -2.8198656e-01
 -4.5139092e-05
  4.7590710e-02
 -1.0665754e-04
 -1.7820062e-01
 -5.9998663e-05
 -1.0002815e-04
 -4.5214500e-05
 -8.7155349e-06
  8.8083185e-03
 -3.0541065e-05
 -9.1282389e-05
  6.5669394e-01
  4.2997541e-05
 -5.1336908e-03
  2.4190675e-05
 -4.3985787e-05
 -2.0346813e-05
 -1.6351436e-04
 -2.8684783e-01
 -8.5257780e-06
  1.2675771e-02
  2.0674051e-06
 -1.8208921e-05
 -3.5142704e-05
  4.5097859e-06
 -1.3006862e-05
  4.7490052e-05
 -7.6457945e-06
  2.6941834e-05
  4.5812640e-02
  3.2740423e-01
  1.3182338e-03
  1.5053914e-04
  1.3820034e-04
  7.1788140e-02
 -1.6176684e+00
 -2.9532362e-06
  3.2704545e-06
  1.5642439e-05
  1.6426416e-04
  4.0179898e-04
 -1.5836828e-05
  8.6353259e-07
  7.2127377e-06
  5.8668753e-04
  4.7853300e-06
  4.9499515e-05
  1.5028891e-04
  5.3314510e-05
 -2.0895252e-05
 -3.0198771e-05
 -4.0518909e-05
 -1.8476972e-05
 -8.0508536e-05
  3.9703322e-05
  3.0844163e-05
 -2.0559573e-05
  8.2180495e-06
  8.9529487e-05
 -1.7434018e-04
  2.3339191e-02
 -3.2979122e-05
 -2.3525627e-05
 -4.0849472e-06
  4.1962929e-05
  1.7905355e-05
  2.2921924e-06
  3.1973093e-04
  7.4878597e-05
 -1.4535936e-05
  4.3167161e-05
  3.7680322e-01
  1.6999099e+00
  1.6971263e-01
  1.5949539e+00
  1.1780175e+00
 -8.7234104e-01
  4.3572739e-01
  4.4195440e-02
 -5.3333378e-01
 -1.1193415e-04
 -6.6956237e-02
 -1.3474631e-01
 -5.1566964e-01
 -2.2329573e-04
  8.4576660e-01
 -1.6736321e+00
 -4.2376685e-01
 -1.5495209e+00
  4.9174419e-01
 -5.5940175e-01
 -6.4533985e-01
  1.1290910e+00
 -6.3589412e-01
 -8.1020993e-01
 -2.5885570e+00
  4.0713319e-01
  2.0940915e-01
 -1.3993788e+00
  1.6920636e+00
 -1.2678001e-02
 -1.9186331e-01
 -1.8331753e+00
  1.0969032e-05
  1.9082363e-01
 -9.6247512e-01
 -3.6779199e-06
  1.7347948e-05
 -3.7635146e-03
 -2.3210338e-01
 -1.6856473e-04
 -8.8476073e-03
  5.9913436e-06
  2.0805676e-02
  1.2447285e-01
 -2.3253308e-05
  5.4555071e-06
 -4.5395835e-05
  1.3881460e-01
 -1.8870914e+00
 -1.3243500e-04
  4.3421237e-06
  9.9252622e-07
  2.2064325e-05
  3.8891434e-05
  2.0009199e-06
  4.4621080e-05
  5.9647700e-05
  3.4496342e-04
  1.1388107e-05
  2.4343710e-05
  1.6573204e-05
  6.2108295e-05
  5.0702431e-05
 -4.1436975e-05
 -9.0764996e-05
  2.0193587e-05
 -1.1832914e-05
  5.5139765e-08
  7.4290829e-06
 -4.6072555e-06
 -2.5386660e-05
  3.1866186e-06
 -1.5924870e-05
  9.2314105e-05
 -7.4435650e-07
 -4.4853969e-06
 -1.3362109e-05
  1.2858421e-05
  1.1983632e-06
 -1.0901165e-06
 -1.1032494e-05
  2.1845408e-05
  4.1805088e-06
 -1.7641514e-04
  2.5209560e-05
  3.8305163e-05
 -3.5422479e-04
  2.1552358e-05
  1.6891359e-01
 -9.6646028e-05
  1.5814210e+00
 -5.2390194e-05
 -2.1694401e-05
 -2.0780481e-05
  4.2722724e-05
  4.6715486e-06
 -7.2817676e-07
  3.1841042e-05
  3.0464824e-05
 -9.5296227e-06
 -1.8590441e-05
 -3.1746767e-05
  4.6883442e-06
  4.1660565e-05
  4.1556090e-05
 -6.4582082e-06
  1.3597570e-05
 -1.3419942e-05
 -3.8219823e-06
  2.1352198e-05
  2.3296992e-05
 -1.2475818e-05
  1.3803237e-05
  2.9511499e-05
  1.6542694e-05
 -1.6701056e-04
  8.8488905e-06
 -1.5804719e-05
 -7.9301635e-06
 -2.1783762e-04
  1.5432199e-05
 -6.9506314e-06
  1.0383189e-05
 -1.0476225e-05
  1.8445644e-07
 -3.5155928e-05
 -1.0483207e-03
  3.8772091e-06
  9.1858790e-05
  2.2687906e-05
 -6.0157479e-05
  1.8144214e-05
  2.6185033e-04
  4.4578283e-06
 -5.0146715e-05
 -4.5652845e-04
 -6.2510585e-06
  1.4212850e-05
 -6.3894338e-05
  8.7450835e-06
 -1.8950368e-07
  6.5538889e-06
 -1.0227324e-05
 -2.5391505e-06
 -3.1132772e-06
 -3.0917916e-05
  2.1377500e-05
 -2.6579082e-06
  9.8025603e-06
  2.3165596e-05
  7.6685414e-05
  6.9276084e-06
  6.7422143e-06
  1.2588230e-05
  8.9174009e-06
 -3.7722915e-05
  3.1379794e-05
 -1.1132575e-05
 -2.4392746e-05
  1.0862376e-05
 -8.2343875e-05
  1.0390010e-05
  4.6596811e-06
 -1.7942730e-06
 -4.1158660e-06
 -2.4894693e-05
  1.0041811e-05
  1.5058175e-05
  1.7191054e-05
 -9.8949247e-05
 -1.8087108e-04
 -2.8147979e-06
  2.6227262e-05
 -1.2150500e-03
  5.0429171e-01
 -4.3874179e-06
 -1.3614072e-05
  1.8349398e-05
  1.8413373e-05
  1.4002469e-05
 -1.0063009e-05
 -2.9082790e-05
  2.3555607e-05
  1.0266378e-05
  4.0880959e-06
  1.1348409e-05
  3.9306036e-05
 -3.5118162e-06
  1.1439400e-04
  8.2195875e-06
  3.0354051e-05
  3.7682176e-04
  1.3539886e-06
 -9.0640991e-05
  1.1257458e-05
  2.9429724e-05
  4.5448440e-05
  4.7572255e-05
  1.5035907e-05
  1.2236717e-05
  3.5725895e-07
 -4.9184537e-06
  1.9175570e-06
 -9.8030241e-06
  2.2576278e-06
  2.9412720e-05
 -3.1554475e-05
  1.5750871e-05
 -9.0754638e-06
  4.2561445e-05
  7.8793390e-05
  1.3607826e-05
  2.5979236e-05
 -1.9694293e-05
 -7.4823856e-06
  5.7734118e-04
 -1.3036672e+00
 -3.5588228e-06
  4.4400320e-05
 -1.7323368e-05
  9.3024137e-06
  3.2826356e-05
  9.1248730e-06
 -3.9374750e-05
  5.0655876e-07
 -1.2508242e-05
  5.3215799e-06
  1.4382592e-06
 -1.0157212e-05
  1.5338422e-04
 -1.7902942e-06
  6.1463797e-05
  6.2687911e-07
 -4.4434919e-06
 -2.4552731e-04
  1.1309168e-06
  1.6916147e-05
 -2.7765320e-05
 -3.1387041e-05
 -1.2975230e-06
  2.0698208e-05
  3.2882152e-05
 -1.3438228e-05
  2.6505395e-05
 -1.6411434e-05
 -4.7190724e-06
  1.4543880e-04
 -5.1678831e-05
  9.1367965e-06
  1.7941729e-06
  1.3556385e-06
 -2.1517040e-05
  6.9300276e-01
 -1.5165280e+00
  6.2657446e-01
 -1.9664177e+00
 -1.7671167e+00
 -1.7422910e+00
 -2.4686432e+00
 -1.1056210e-03
 -1.0314463e-05
  1.6571499e-05
  1.6524266e+00
 -4.0981799e-05
  7.0918119e-01
 -2.6701402e-05
 -1.2355227e-01
  3.7746692e-01
  2.9409066e-01
 -3.5757504e+00
 -2.1784337e-05
 -6.7709230e-02
  2.9944275e-05
 -3.2309633e-01
 -1.1756703e-02
  1.5071505e-01
  1.5157917e+00
 -1.3916610e-01
  2.5903493e-01
 -1.1773222e-05
  3.7458456e-06
  3.2666552e-01
  4.6153098e-01
 -1.8907686e+00
 -1.2731911e-05
 -1.7829517e-02
  2.5773146e-05
 -1.7840966e-05
  1.0527749e-05
 -6.3718380e-06
 -1.8670440e-02
  7.8322037e-06
 -3.0565143e-06
  3.4488927e-05
 -6.5828621e-02
 -1.0903918e+00
 -4.2188601e-03
 -2.4560812e+00
  5.3508264e-01
 -9.8151773e-02
 -1.9311470e-01
 -1.3775536e+00
  7.8530681e-01
 -5.7269954e-05
 -1.7808133e-01
  1.0753496e-01
  1.7427321e-01
 -2.2034892e-03
 -6.5186393e-01
  3.7963402e-01
  1.2107222e+00
 -1.1465926e-01
 -5.2170113e-02
 -3.9010021e-01
 -1.6594949e-01
 -4.6492556e-01
  1.2936179e-01
  6.4715314e-01
 -2.3199154e-01
 -1.5862545e-01
 -3.8158402e-03
 -1.5892118e-02
 -2.9944447e-01
  1.1932763e-01
  1.6393653e-01
 -1.3280174e-01
 -1.1786005e-01
  1.9303046e-02
 -8.7629624e-02
  1.1955309e-04
 -1.2636031e-06
  4.8826369e-06
 -2.1338673e-02
  5.1437859e-05
  2.6287522e-02
  5.7383104e-06
  3.1085867e-05
 -4.5692977e-06
  4.8387454e-07
  9.9517265e-04
 -2.0738215e-05
 -1.6961619e-04
  1.6837668e-01
 -5.0701669e-07
 -1.1317700e-04
 -3.5613598e-06
  2.4609885e-06
  3.7176080e-06
  4.9644736e-05
 -2.8744655e-05
 -3.6977566e-05
  1.5341626e-05
 -6.2449457e-05
 -1.8178802e-05
 -1.2308295e-05
 -3.5224391e-05
  6.6256888e-07
 -1.7013248e-04
 -6.0871862e-06
 -2.8531487e-05
 -4.4574197e-05
  1.4931203e-05
 -4.8541870e-06
 -1.2899286e-06
 -6.5358916e-05
  4.3363607e-06
  8.9582190e-06
 -1.8749337e-05
  6.0784203e-07
  5.2720254e-05
 -4.2413660e-05
  1.4215595e-06
  7.0542901e-06
 -5.7521127e-05
  2.2256605e-05
 -4.7660802e-04
 -7.6034639e-06
 -6.7771261e-06
  3.3616398e-02
  4.3543911e-01
 -3.6723715e-01
  1.9136322e+00
 -1.1300828e-01
 -1.5670176e-01
  4.1476062e-01
  1.2092513e-03
 -3.9918687e-05
  1.7049981e-04
 -3.9708108e-02
 -2.6591273e-05
 -5.3052254e-02
  1.7654209e-05
  2.9691502e-01
 -6.4803816e-02
 -9.0575568e-02
  1.2449603e-01
  4.2790457e-06
 -1.9933835e-03
  2.0572195e-05
  3.0040973e-01
  7.1407598e-04
 -1.0231290e-03
  4.1452518e-01
  3.7978080e-01
 -3.4246565e-05
  3.6184800e-05
  3.1802600e-05
 -5.1691222e-05
 -4.8498865e-02
  5.3307053e-02
  3.7098474e-05
 -4.8972692e-05
  4.0758555e-04
 -6.5902304e-06
 -6.5505400e-04
 -1.1618959e-05
  3.4926015e-05
 -8.9473851e-06
  1.4093673e-06
  3.0911663e-06
  3.8123852e-01
 -9.4169271e-01
  3.8535144e-02
 -1.2147851e+00
 -2.0252166e+00
  1.3788074e-01
 -7.9498821e-01
 -9.7626053e-06
  7.0905612e-06
 -2.3729296e-04
 -6.8488524e-05
 -2.0074334e-05
  3.1576017e-01
 -1.8140167e-04
 -2.2858714e-07
  9.5527768e-02
  3.8760581e-06
  3.6900816e+00
  2.0082639e-01
  4.9751170e-02
 -1.1599589e-01
 -5.3658816e-05
 -2.2761169e-05
 -3.6565555e-06
 -9.3923330e-01
  2.0583117e-01
 -6.8029583e-02
 -4.5998058e-01
  2.4711895e-01
  2.7946380e-01
  4.7923922e-06
  2.2924154e+00
 -6.7337028e-06
 -8.2751569e-05
 -4.0973166e-01
 -1.6299744e-05
  2.8003695e-05
 -1.4811596e-05
 -4.6258547e-06
 -2.3153638e-05
 -6.9782371e-05
  9.3334078e-05
  2.6826341e+00
 -9.0375739e-01
 -4.3749860e-05
 -3.2296208e-01
  1.8416005e+00
 -1.3258102e+00
  5.0652528e-01
 -6.4072483e-06
  4.1191252e-06
 -6.4784558e-06
  2.7929659e-06
  8.0758509e-05
 -8.4853703e-01
  4.0608797e-06
 -3.6946953e-05
 -1.8335684e-05
  2.4493844e-05
  8.1994373e-01
  1.5843639e-04
  1.2780986e-04
 -1.9132582e-05
 -6.0988891e-06
  3.4499273e-05
 -6.2290255e-06
  8.8936335e-01
  2.3626142e-04
 -8.5669704e-02
 -1.5064968e-05
  1.3695849e-05
 -7.6364695e-06
  5.3872231e-05
 -3.5348080e-02
 -1.1504399e-04
  6.4758649e-07
 -6.5627719e-06
 -3.3098728e-05
 -3.2228592e-05
 -1.6666112e-05
 -1.2947575e-05
  1.7862358e-06
 -5.8686960e-06
 -4.3078784e-05
 -6.5425935e-04
 -1.0018137e+00
  3.3026493e-01
 -1.7384834e+00
 -6.8942852e-02
  1.4669318e-01
 -3.6900762e-01
 -1.0146952e+00
  6.0866386e-01
  1.8258135e-05
 -1.2225612e-01
  1.4378753e-01
  1.5487011e-01
 -6.9309878e-03
 -8.6081934e-01
  2.6262358e-01
  9.6091777e-01
 -5.0875299e-02
 -2.7033417e-02
  8.7397680e-02
  6.3862604e-01
 -5.4476440e-01
  2.3680037e-01
  4.0876716e-01
  1.5113271e-03
 -8.7494984e-02
  3.6787437e-03
 -1.9370952e-04
 -5.6458014e-01
  9.9305242e-02
  2.8922957e-01
 -6.8639308e-02
 -2.9552701e-01
 -3.7213163e-03
 -7.0624717e-02
 -1.9683932e-05
 -3.1290925e-05
  1.0079881e-05
 -6.4413041e-02
 -4.6900517e-05
  5.3079386e-04
 -1.1264152e-04
 -7.5212785e-04
 -6.9262755e-06
 -2.0811146e-03
  8.1599243e-02
  2.2842085e-01
  3.8103199e-01
  4.3892580e-01
  8.4837229e-06
  8.2692051e-05
 -3.6625712e-05
 -2.2345534e-05
 -6.3237268e-05
  4.3504060e-06
 -7.7643155e-05
  5.7829689e-05
 -3.1534248e-05
  2.0987400e-05
  7.4470282e-04
 -3.2929936e-05
  1.8969786e-05
  2.0741434e-06
  6.8526118e-05
 -2.7048463e-05
  3.8698112e-05
  2.9974023e-02
 -3.6066132e-05
  2.8058205e-06
  3.9872375e-05
  5.7075617e-06
 -6.9681388e-05
  3.4287212e-05
 -5.3468404e-05
  3.0323070e-05
  1.3316378e-04
  2.2591435e-05
  5.4859331e-05
 -2.9097244e-05
 -1.6673584e-06
 -4.8591537e-05
  1.5798758e-05
 -1.2345475e-05
  1.2842079e-06
  5.8861031e-05
 -2.5129742e-05
 -3.7693098e-05
 -9.6589465e-05
  2.7884436e-01
 -1.9813124e-02
  3.4833574e-01
 -1.3371491e-05
  3.6453479e-05
  3.5451292e-05
 -3.5726971e-05
 -9.6664080e-06
  2.3465565e-05
  3.7322225e-05
 -7.7020755e-05
  9.7910211e-05
 -3.9678951e-05
  1.8275323e-05
  4.0449245e-06
  2.5665308e-06
  2.5438187e-06
  6.0367088e-06
 -3.1058426e-07
  1.8086423e-05
 -3.2620206e-05
 -7.2152492e-05
  1.4460320e-04
  1.6595559e-05
 -6.1863784e-06
  2.9917696e-04
 -2.7854767e-06
  7.8339290e-06
 -4.7095964e-05
 -9.1365507e-07
 -3.7208458e-05
  2.7650914e-05
 -6.5599808e-05
 -1.5954703e-05
 -1.1363961e-05
  9.2675089e-07
 -2.9207652e-07
  4.1283315e-06
  4.2825699e-01
  2.0303573e-01
  1.8966955e-01
  7.5460434e-02
 -1.3141830e-02
  1.2548936e-02
 -2.0068285e+00
 -1.0892295e-04
 -5.6585304e-06
  3.2771230e-05
  5.8048300e-04
  2.8312677e-06
  1.5418699e-02
  1.5148288e-05
  1.2547612e-05
  5.1432407e-01
  8.7156764e-04
  5.8107767e-02
  4.6576733e-05
  8.8171459e-05
  2.2006725e-01
 -4.8405915e-01
 -3.5400516e-01
 -4.5337307e-05
 -4.0248456e+00
 -3.8167993e-05
 -3.1215222e-05
  3.3575129e-02
 -1.9180126e-05
  6.2082865e-05
  8.0460723e-04
 -6.8714738e-01
  8.3114945e-05
  2.5857196e-06
  3.8779154e-02
 -2.3845212e-05
  3.7079666e-05
  3.3297089e-05
  4.2197047e-04
  2.7407764e-06
  1.5223368e-04
  3.8081074e-05
 -5.2701122e-01
  8.3160931e-01
  3.0583191e-01
  1.3996425e-04
 -4.5026588e-01
 -2.2394495e+00
  4.2303598e-01
  3.6760746e-05
 -2.4770052e-05
 -4.6961857e-05
 -3.8527382e-05
 -1.4057010e-04
  1.1745968e-01
 -2.2894808e-05
  1.5771359e-06
 -6.7417868e-06
 -2.5328274e-05
  6.5501422e-06
  3.1652813e-05
 -1.9148709e-05
 -8.5676641e-07
  4.6574623e-06
 -1.7248030e-06
 -1.7836244e-05
 -1.2856361e-03
  1.6033109e-05
 -5.8503352e-02
  2.3443061e-05
  9.1015445e-06
 -4.7551803e-05
  2.4101122e-05
 -1.7731710e-01
 -9.5760122e-05
  1.4924283e-06
 -5.6458157e-06
 -2.8213667e-06
  1.6803822e-05
  6.3244093e-05
 -8.9719128e-05
  2.4588599e-06
 -8.4397114e-05
 -1.2907948e-05
 -3.1125590e-05
 -5.9745912e-06
 -1.5670321e-05
 -6.0785789e-04
  5.1882893e-05
 -2.2428256e-02
 -9.0712863e-01
 -4.7147741e-06
 -1.6461016e-05
  1.6639109e-05
  9.9796653e-06
  7.9758756e-05
 -5.3014005e-06
 -1.9581872e-05
  2.2672042e-05
 -7.4445793e-06
 -2.3741741e-06
 -4.1044106e-05
  2.7182750e-06
 -1.1499114e-05
 -3.7513398e-06
  1.9864532e-05
 -2.1272206e-05
  1.2978567e-05
  8.5246647e-05
 -5.0765160e-05
  1.8789966e-04
  5.1559087e-05
  1.2387249e-04
  2.2197887e-06
 -6.4970359e-06
 -1.7004808e-05
  8.1563076e-06
  2.1847920e-05
 -8.6833177e-05
 -4.4242974e-05
  4.2373485e-05
  2.1694148e-05
 -5.0182400e-05
  9.8195951e-06
 -2.2924265e-05
 -3.1794105e-05
 -6.1265707e-01
 -7.3722154e-01
 -4.6712283e-02
 -6.6386652e-01
 -1.4373031e+00
 -1.4685446e+00
  4.4341946e+00
  1.5013695e-06
  1.8246172e-05
  7.6865072e-05
 -5.6637782e-05
 -5.3903295e-06
  1.5879351e-01
 -9.9746003e-06
 -4.0449388e-05
  9.0034173e-06
 -7.8771045e-06
 -1.6440945e-05
 -6.4831198e-05
 -1.2921361e-05
  6.7532951e-06
 -3.6181607e-06
  8.3726540e-05
 -3.9670645e-05
  1.2110435e-04
 -3.6450561e-05
 -6.1818966e-05
  7.0561068e-06
 -9.0858055e-05
 -1.7506896e-05
 -2.1241385e-05
 -3.6645314e-04
  1.1158409e-04
  1.5192648e-03
 -8.3153747e-05
 -2.2863313e-05
  3.0569692e-05
  1.6292874e-05
 -1.1760701e-05
  1.6419241e-05
 -1.5988750e-04
  5.9212562e-06
  1.1318780e+00
  4.6091787e-05
  2.2635700e-03
 -2.5117576e-01
  5.2661107e-05
 -2.1799693e-01
 -1.5070383e-01
 -1.5437404e-04
 -1.1773554e-05
  1.2340095e-05
  1.1152008e-06
  6.2006729e-06
 -5.8737189e-02
 -6.0682123e-05
 -3.4133889e-04
  2.1712028e-04
  2.2751921e-05
  2.6058220e-05
 -9.8310247e-06
  1.5007041e-06
 -1.4592239e-05
  2.8792405e-05
 -2.4488149e-06
 -4.4864206e-05
  1.7057701e-04
  3.0585306e-05
  5.0406129e-04
  6.3146188e-05
 -2.8040940e-06
 -2.7017970e-05
 -3.1088448e-06
  4.3717732e-06
 -1.8302086e-05
  2.8522788e-06
 -4.6927347e-05
  2.0837158e-05
  1.0605982e-05
 -2.1384316e-05
  9.0299209e-06
 -5.1510578e-06
  6.7947503e-06
 -6.9863476e-05
 -3.5609173e-05
  3.4327964e-05
 -1.8166071e-04
  6.1143834e-02
  1.2362670e-04
 -1.6756530e-01
  4.4771788e-01
 -2.6726095e-05
 -2.7595718e-06
 -3.1956286e-05
  2.3186207e-05
  2.6332667e-05
 -3.5004257e-05
  3.6105936e-05
  1.8708404e-05
 -8.4177273e-06
 -4.2456697e-05
  5.2617784e-06
  8.9645844e-05
  6.9380708e-06
 -1.1187008e-05
 -1.9809384e-06
 -2.8852512e-05
  2.3074203e-05
 -8.5710271e-05
  1.9162377e-05
  2.2776398e-05
 -2.5555255e-05
 -1.9373187e-05
  3.2414464e-05
  8.2984911e-07
 -1.8075349e-05
 -1.3165291e-05
  3.7116388e-05
 -1.9187140e-05
  4.6512350e-06
 -4.1123276e-06
 -2.0314230e-05
 -5.4952025e-06
 -8.2482775e-06
 -1.8945009e-05
  2.0952877e-05
  2.7601519e-01
 -4.3806253e-06
 -7.9819281e-03
  6.2820403e-04
  1.4837887e-04
 -2.8780436e-03
  1.0330299e-02
  2.9985784e-05
 -7.1275615e-05
  2.8135950e-05
 -1.2722299e-04
 -3.5315607e-05
 -2.2854751e-05
  1.7356097e-05
  9.6524018e-05
 -1.1152526e-05
 -7.8943367e-06
 -1.7498889e-04
  1.3340294e-05
 -9.7737229e-06
 -4.7552949e-06
  2.7479721e-06
 -2.9605465e-06
 -3.0107920e-05
  3.6453337e-05
 -3.3920878e-05
 -1.4191408e-05
  1.8326633e-05
 -3.7863298e-05
 -3.7111116e-05
  2.7306382e-06
 -3.4208140e-05
  9.2397404e-06
  1.5197588e-05
 -1.4062137e-05
 -6.0039900e-05
 -1.7238464e-05
 -1.0791489e-06
  2.3391549e-05
  1.4952381e-05
 -1.2247994e-05
  1.0633639e-05
  1.6412054e-06
  2.9609611e-05
  1.9689456e-04
  8.3528095e-05
  3.6476493e-05
  1.1935439e-03
 -1.9065473e+00
 -8.1279086e-06
 -3.5640391e-05
 -2.4711039e-06
 -2.4179747e-06
  1.8492137e-05
  4.6561054e-06
  1.7891754e-05
  5.4006025e-05
  4.2670072e-05
 -6.9328885e-06
  1.1109695e-05
 -7.2596263e-06
 -4.7011908e-05
 -4.3995442e-05
 -1.2001767e-05
 -5.2364056e-05
 -1.4007461e-05
 -6.0434058e-07
  7.5296848e-06
 -2.1066708e-05
  3.2299391e-05
  1.9445943e-05
  4.9884722e-05
 -8.0714861e-05
 -5.3314910e-05
 -1.0499529e-05
  3.6172014e-06
  2.1247681e-05
 -6.3210523e-06
  4.3339387e-06
  1.2648688e-04
  3.6246671e-05
  3.4073102e-05
 -1.6622187e-05
  1.7209575e-05
  9.1807395e-01
  2.0103679e+00
 -3.0562251e+00
  2.5293210e+00
 -1.8883055e+00
  6.8250513e-01
  7.8751439e-01
 -3.2729110e-06
 -2.1074542e-05
 -2.8083327e-06
 -2.1374865e-02
 -3.6546957e-05
  1.7569518e+00
  3.2715507e-05
  6.2142986e-05
 -2.3985336e-02
 -3.6917325e-05
 -1.0453389e+00
 -9.0773377e-05
  8.5243106e-01
 -7.7299437e-06
  2.1704582e-06
 -8.2626886e-04
 -5.6225432e-05
 -3.1623870e-01
  7.3633535e-05
  1.2947121e-01
 -1.4459755e-07
  5.6429112e-06
 -6.3712832e-05
  4.6549549e-06
 -4.8925830e-03
  8.6452292e-06
 -1.0564836e-02
  5.1322571e-05
  1.7558136e-03
  7.4861259e-06
 -6.4668136e-05
  8.9249988e-05
 -1.9691352e-05
  1.0737939e-05
 -2.1393022e-05
 -1.2979971e+00
  3.7341353e-05
 -4.9444582e-02
  5.9526874e-06
  4.1066572e-01
 -1.1391878e-01
  6.7455238e-01
  2.4904291e-05
 -2.9161156e-05
  1.6217067e-05
 -3.6731733e-05
 -5.0300961e-05
 -4.9954306e-05
 -1.5333462e-04
  3.4137142e-06
 -2.3577380e-05
 -1.2562298e-05
  1.2683322e-06
  1.4293987e-04
  9.5576524e-06
 -6.4890319e-06
  2.9103663e-05
  1.7595779e-05
 -3.2509823e-05
 -1.8172230e-07
  6.2673153e-06
  2.1767053e-05
 -1.6077758e-05
  2.0257998e-05
 -1.0498699e-04
 -9.1950469e-06
  4.3885262e-05
 -6.0571842e-06
  2.4979070e-05
 -3.8910690e-05
 -1.0649250e-04
 -1.5459811e-05
  4.2154161e-06
  8.4468434e-07
  1.7536915e-05
 -3.6818517e-05
  5.6315967e-06
 -4.5230809e-01
 -8.3199346e-01
  1.8142071e-01
 -5.7715511e-01
 -1.2406124e+00
 -6.3896382e-01
  1.3232300e+00
 -3.1840438e-05
  2.1943879e-04
 -1.3050469e-05
 -2.0404816e-05
 -2.5294525e-05
 -3.5853620e-05
  3.2072692e-04
  4.9978630e-06
 -2.9267862e-06
  7.0660462e-05
 -8.4589344e-01
 -2.4614985e-05
 -5.9010293e-02
  6.2717122e-06
 -8.7331638e-05
 -9.5243915e-05
 -6.8134045e-06
 -8.7953523e-02
  1.4974074e-05
 -2.2293034e-04
 -2.8228838e-05
 -6.9246387e-05
 -8.3046740e-05
  3.7053371e-05
 -1.1855264e+00
 -4.1819618e-07
  3.5291257e-06
 -1.5622727e-05
 -3.5226079e-05
  8.6963028e-06
  1.9710774e-06
  9.8033570e-06
  9.0827916e-07
  1.9331253e-05
 -1.3668177e-06
  4.3083152e-01
  2.6669359e-01
 -3.3624816e-01
  8.7744570e-01
  8.1234733e-03
  8.5889529e-03
  4.1734114e-01
  1.3213648e-06
 -1.0410389e-03
 -1.6855637e-06
 -4.2442534e-02
 -9.4999741e-06
  5.2796332e-03
 -1.5579946e-05
  5.5277911e-03
 -1.0542133e-03
 -7.6340271e-05
  4.2835945e-01
 -3.9128472e-06
 -3.4238977e-04
  1.7026121e-06
  1.2635784e-01
 -5.7359975e-05
 -4.0973170e-04
  6.6587470e-02
 -1.0419053e-05
 -2.7834780e-03
 -2.6835212e-05
  2.0812624e-05
  3.0641400e-05
 -2.7657733e-03
  9.7939476e-02
 -5.6767426e-06
  1.3842841e-02
 -3.4081463e-06
  4.6891691e-06
  2.6277281e-04
 -6.4723208e-06
  9.7135417e-05
 -2.1353406e-05
 -8.0785057e-06
  7.2709049e-06
 -5.7371171e-06
  2.0589616e-05
 -6.2835541e-05
  1.6122629e-05
  3.9858431e-05
 -4.5131659e-05
  4.4721898e-01
 -3.7836535e-06
 -2.1873707e-06
  9.8915825e-06
  2.6858743e-08
 -1.2582417e-05
 -4.0430612e-05
  1.7726497e-05
  2.0426611e-04
 -2.6863894e-05
  1.5219128e-04
  2.9650198e-06
  1.1934891e-04
 -6.1372375e-05
  1.9202495e-05
  4.7409834e-05
  1.2017935e-05
  7.7255150e-05
  5.6712738e-06
  5.9896415e-06
 -4.2641212e-05
  4.9450719e-06
  3.8431215e-05
  3.7915590e-05
 -2.2152468e-05
  1.3331735e-06
  3.5195520e-05
 -5.0437216e-06
 -1.1627220e-05
  4.0334481e-07
 -1.9095205e-05
 -8.6576592e-06
  1.1898892e-04
 -2.5879795e-06
 -1.5662839e-05
 -7.6133206e-06
 -3.6942314e-05
 -2.7986071e-05
  2.2737617e-05
  2.2695548e-04
 -1.2150666e+00
 -4.8902668e-02
  1.0812063e+00
  1.5071088e-05
 -2.4754803e-07
 -5.2440286e-05
  4.2012271e-06
 -3.6493460e-05
 -1.9812049e-05
  2.3326418e-06
 -7.4323674e-05
  1.2718920e-05
  2.1122698e-05
  5.1011273e-05
  1.1256220e-05
  5.5537712e-06
  1.3594653e-05
  1.5270127e-05
 -4.2654378e-06
 -3.5008841e-05
  8.5860356e-06
  8.9155255e-06
  1.1502080e-06
  1.6833084e-05
  7.9954531e-05
 -1.8813971e-05
  7.0591113e-07
 -6.7160392e-05
 -6.9206153e-06
 -3.6430874e-06
 -3.9992014e-05
 -1.5791886e-05
  4.0793907e-06
 -3.6022317e-05
  7.6273886e-06
 -1.9619532e-05
 -3.5941598e-06
  3.9300605e-04
 -1.1857042e-05
  5.7905828e-07
  9.1346310e-06
 -4.6264683e-04
  4.1963463e-06
 -3.8797629e-01
 -4.1467842e-01
 -1.7205488e-05
  7.4847640e-06
 -2.0846264e-05
  1.5351909e-06
 -1.0343475e-04
  2.0335920e-05
  2.7388310e-06
 -6.2340157e-05
  3.0028881e-05
 -2.9454106e-05
 -2.0792446e-05
  6.9672224e-06
  3.5368973e-06
  8.8262677e-06
  9.6468702e-06
  1.0834762e-05
  9.5593590e-05
  6.7000201e-06
 -2.2454858e-05
 -5.3588060e-06
 -4.1764637e-05
  1.3418167e-05
  1.1762579e-06
 -1.2380671e-05
  8.7831831e-06
  1.1608841e-05
  2.0727033e-05
 -1.2464513e-04
 -1.8070960e-04
  2.0927584e-05
 -6.6522298e-06
  2.2149229e-06
  1.7564480e-06
  2.9735218e-05
  3.0538969e-05
  2.7433091e-01
 -2.1062496e+00
 -1.1719441e+00
 -1.7030197e-01
 -2.4086981e-01
 -5.1537883e-01
 -3.3821335e+00
 -2.3468827e-05
  3.4872203e-03
  7.4630620e-06
  2.6297719e+00
  1.0276610e-04
  4.6764284e-01
  1.8048111e-05
 -1.5620055e+00
  6.8129474e-01
  3.7758346e-03
 -4.9491796e-01
 -3.8358542e-01
 -1.4282224e-01
 -1.9417459e-01
 -4.8771474e-01
 -4.1181487e-01
  1.2993447e+00
 -8.9394462e-01
  1.8759838e-01
 -4.7921932e-01
 -1.2235218e-04
 -1.0316578e+00
  8.2171530e-01
  3.9176807e-01
 -2.8067082e-01
  1.5113594e-02
 -6.6616207e-02
  3.1635308e-01
  2.0337349e-05
 -8.1399767e-06
  8.5116284e-05
 -4.7057337e-04
  1.3483862e-05
  6.5435551e-04
 -4.8563452e-06
  1.4701712e-05
  1.1622285e-05
  2.3271676e-05
  1.9688990e-04
 -3.0446568e-05
 -4.1527550e-05
  3.8282957e-04
  1.4590478e-06
 -3.2032862e-05
  1.0302228e-05
  3.3491546e-05
 -2.5308268e-06
  1.1639260e-04
 -6.5715351e-05
 -1.4172429e-05
 -1.8687247e-06
  1.2023030e-05
  1.3723627e-05
 -2.5149828e-05
 -3.7004742e-05
  6.6394186e-06
 -1.1293278e-04
  1.4289519e-06
 -1.6759786e-05
  3.7870097e-05
  3.8094702e-05
 -6.6875502e-05
 -4.0928767e-06
 -9.4363413e-06
  7.8080427e-07
  6.3786269e-05
  1.7185410e-05
 -1.8157692e-04
 -1.1655934e-06
  1.3694935e-04
 -2.6205014e-06
  4.1615160e-05
  6.6117236e-06
 -2.3494398e-05
  6.1256789e-05
 -1.1080998e-05
  2.7701001e-06
 -2.1040760e-02
 -1.7984121e+00
  1.0391730e+00
 -1.2193905e+00
 -7.1310550e-01
 -1.5826049e+00
 -3.4208930e+00
 -9.4730513e-06
 -6.3991715e-06
  6.0172784e-05
  1.4256661e-05
 -2.4168779e-05
 -3.1436626e-02
 -3.8007383e-05
 -6.9330839e-05
 -8.0970894e-06
  2.8809904e-05
  7.4650539e-05
 -5.3961348e-06
 -1.4333917e-01
 -7.4770003e-05
 -2.5763349e-05
  4.0104148e-01
  3.6896358e-06
  4.5663211e-02
 -1.1675394e-05
  3.0595526e-01
 -6.2136919e-06
 -1.2548390e-02
 -2.6184780e-04
 -1.0943260e-05
 -1.7026104e-01
 -5.1029078e-06
 -8.0022454e-02
  2.0992748e-01
  1.1940974e-05
  2.8247180e-06
  3.4147561e-05
  4.6435687e-07
 -2.0387251e-05
  3.6425856e-05
  1.8107292e-05
 -1.3487129e-05
  2.0208831e-06
  1.3958797e-05
 -1.0854875e-05
  4.1741155e-06
  1.1297740e-05
 -6.3774300e-01
 -3.7582711e-05
 -7.4082877e-06
  3.3437091e-06
 -1.9626277e-06
  1.3995088e-05
  2.8376271e-06
 -1.7653794e-04
 -2.4041989e-05
 -5.9349641e-06
 -7.3606566e-06
 -4.1422994e-05
 -4.3125351e-06
  4.4381482e-05
 -1.4830112e-05
 -1.8789540e-05
  2.0154683e-05
  9.0529393e-06
 -1.3536708e-04
  6.8622521e-06
  2.7655146e-06
  5.0063900e-06
 -1.0115205e-04
  8.2671750e-06
  6.9552545e-05
 -5.9944396e-05
  6.3695034e-06
  1.1252977e-05
  2.1038386e-05
  3.2735643e-05
 -3.9962295e-05
 -2.0731075e-05
  9.0052436e-06
  2.5416111e-05
 -6.7882211e-05
 -1.7705528e-05
  3.5058776e-05
 -1.7973942e-04
  1.5761125e-05
 -1.2260827e-04
  4.6109112e-06
 -1.2718708e-05
 -1.3019718e-04
  3.1334032e-06
  2.7093723e-05
 -4.6861101e-06
 -1.4835112e-05
  1.4013083e-05
  9.7221382e-06
 -1.6193038e-04
 -1.1925783e-05
  4.7198487e-06
  6.0922139e-06
 -4.3670683e-05
 -2.5478253e-06
  4.0133247e-05
  7.6007300e-06
 -5.9535960e-05
  3.5482324e-06
  1.1302822e-05
 -1.3068684e-04
 -1.5308256e-05
  9.7283255e-06
  5.4386815e-05
 -4.4201715e-05
  1.4605929e-05
 -9.8274404e-06
  9.1420765e-07
  3.4975794e-05
  3.9938575e-05
 -5.6085146e-06
 -2.0961199e-06
  3.8744100e-05
 -9.6296617e-06
 -2.6742749e-05
  1.3597778e-05
  7.4602387e-05
 -1.1955596e-05
 -3.2158740e-02
  1.4848642e+00
 -2.9583874e-01
  1.9963093e+00
  3.6343258e-02
  3.7791270e-01
  5.0866741e-01
  5.2237868e-01
 -5.0250351e-01
 -2.6160353e-05
 -3.4598643e-01
 -3.0722033e-02
 -2.2426735e-01
  2.5244991e-04
  3.0703825e-01
 -6.1674678e-01
 -7.7578729e-01
 -2.7792256e-03
  1.0941181e-01
 -2.8293623e-02
  2.3627422e-06
  5.8304447e-01
 -2.8967986e-01
 -5.1788270e-01
  1.3863052e-02
  1.8882681e-01
 -3.8782388e-01
 -3.2576120e-01
  2.1849032e-01
 -3.2939702e-01
 -3.8730857e-01
  5.1653627e-02
  1.0149661e-02
  1.4433175e-02
  9.7618491e-04
  3.8874809e-05
  4.0295719e-05
  1.6324277e-05
  1.4377625e-02
 -9.5813766e-07
 -9.7982381e-03
  1.0452930e-04
 -3.1993262e-02
 -5.7836741e-01
  6.5351821e-02
 -4.5173919e-01
 -6.6360474e-02
  3.2231133e-02
 -1.3868669e-01
 -3.3167746e+00
  2.2997663e+00
  7.8067541e-01
 -3.8257354e-01
  8.0184311e-02
 -2.9959667e-01
 -1.4738518e-01
 -6.3934720e-01
  5.0550276e-01
  4.9278063e-01
 -9.6988052e-02
 -2.0084269e-01
  6.8729840e-02
 -1.1772271e-01
 -5.4667348e-01
  5.4528761e-01
  5.1942217e-01
 -3.5778396e-02
 -1.4539309e-01
 -7.5255614e-03
 -1.5499005e-01
 -3.5468230e-01
  3.2458782e-01
  5.9087735e-01
  3.0854510e-02
 -1.7014511e-01
  2.4928158e-02
 -3.0433750e-02
  9.0592593e-01
 -1.6745837e-01
  1.0432577e+00
  8.1479408e-02
 -3.8663468e-01
 -4.0276200e-02
 -3.3647338e-01
 -1.1698548e-04
  1.1971960e-05
  9.8197916e-06
  7.0869406e-05
  1.4540048e-05
  2.1862106e-02
  1.1316593e+00
 -1.4284800e-04
  1.2952150e-06
 -3.3789356e-06
 -4.8247011e-06
 -9.2331620e-06
  2.9450075e-07
  4.9538161e-05
 -2.7869100e-05
  9.1774473e-06
  1.4333525e-05
  5.9323847e-06
 -1.4830012e-05
  3.6944395e-05
 -2.2992452e-05
  1.6167780e-04
  6.1053493e-06
 -3.9861163e-05
  2.1578779e-02
  2.7381386e-05
  3.2388583e-05
  4.7756384e-06
 -3.5206995e-05
 -4.3377449e-06
  4.8898419e-06
  2.9987723e-06
  1.9752368e-05
  3.9747488e-06
 -1.2022985e-05
  4.2057211e-05
 -1.4936592e-05
 -1.1988675e-05
 -3.1621305e-05
 -1.7387272e-05
  3.9178569e-05
 -1.2002566e-05
 -8.5079503e-01
  2.0136063e+00
  2.9114444e-05
 -8.7758442e-03
 -1.9121348e+00
 -2.8886692e-05
 -3.8510898e-01
 -8.2461363e-01
  1.3348689e+00
 -5.1385007e-04
  3.6476085e-06
 -1.5231086e+00
 -7.5305521e-01
 -1.7718946e+00
  1.8489528e-01
  1.9556290e-04
  5.9948760e-01
 -1.9120662e-01
 -1.1044673e+00
 -2.7326137e-02
  1.1755576e-05
  4.9969670e-01
 -1.0837505e+00
  4.8609227e-01
  4.0663313e-02
  5.3135562e-01
  8.0876904e-05
 -9.6979320e-01
  1.0253011e+00
  2.1316950e+00
  2.3794465e+00
  1.0817994e+00
 -1.8711052e+00
  5.6716362e-06
 -3.3539638e-01
 -1.5288483e+00
  1.4551508e-01
 -1.5282178e+00
  8.5712594e-01
 -1.4944251e-05
  6.3499737e-01
  1.4774468e+00
  6.2364572e-01
 -7.2946395e-06
  9.6309370e-01
 -8.9822846e-05
 -1.7255187e-04
 -3.2123467e-01
  1.7226821e-02
  1.9839729e-01
 -3.1820959e-01
  1.5905851e+00
  3.8081784e+00
  3.9172223e-01
  6.1704898e-01
 -1.6863593e-01
  1.5891682e-01
 -5.5065858e-01
  1.2024261e+00
  1.4668211e-02
 -3.0825907e-01
  6.1038679e-01
 -7.8584909e-01
  5.7673615e-01
 -5.5278875e-02
 -4.5922832e-04
 -1.2965392e-01
  3.7039697e-02
  1.2298543e+00
  1.4320523e+00
 -4.3593489e-02
 -6.9340181e-01
  7.6356941e-01
  2.0473883e-01
  1.1490351e+00
 -2.3930253e-01
  4.4399571e-02
  4.3382287e-01
 -3.2151642e-01
  6.7753237e-01
 -1.7967762e+00
  4.4366172e-01
 -6.5519619e-01
 -2.2686771e-01
  4.7733780e-02
 -1.5809929e+00
 -7.8804903e-02
  4.9840048e-01
 -7.9074472e-01
 -2.8235337e-02
 -6.7975737e-02
  1.2805989e-01
  7.6226896e-01
 -1.1846659e-02
  3.7183899e-01
  4.3372598e-02
 -2.5919202e-04
 -1.0294231e+00
  6.3922381e+00
 -9.7009107e-02
 -7.9873347e-01
 -1.8934667e+00
 -1.8705263e+00
  1.7677059e+00
  8.7999783e-02
  1.0079613e+00
  1.1979644e+00
  9.7084033e-01
  5.5137408e-01
  1.4258929e-01
 -5.1387155e-01
 -1.1149456e-01
 -1.0981601e+00
 -1.6833798e+00
 -4.4804496e-01
  7.7062452e-01
  1.0679436e+00
  8.8159710e-02
  2.9068853e-04
  2.9665178e-01
  4.9723533e-01
  3.2953095e-01
  9.3060054e-02
  3.9522189e-01
 -1.4394040e+00
  8.1788266e-01
  8.4809560e-01
  4.1081631e-01
 -1.0531010e-01
 -7.0566937e-02
 -5.6405383e-01
 -7.9657537e-01
 -7.5375718e-01
 -2.8527334e-01
  4.3021399e-01
 -1.6303527e+00
 -6.5187979e-01
 -7.7529585e-01
 -1.2081797e+00
 -7.1283698e-01
  1.1008416e-01
  1.0878700e+00
  1.1911743e+00
  6.2125695e-01
  1.0675418e-01
  2.7895266e-01
 -3.1866002e-01
  6.4630294e-01
  5.5662233e-01
 -8.2922918e-01
  6.2983704e-01
 -2.7403104e-01
  8.2604235e-01
 -5.6581116e-01
 -6.0836899e-01
 -1.1397816e+00
 -5.5846858e-01
 -2.5045861e-02
 -7.0517457e-01
 -2.9260853e-01
 -8.1783891e-02
  7.4828082e-01
  5.8537823e-01
  7.6793295e-01
  3.4713033e-01
 -6.3948818e-02
  8.5977405e-02
 -2.0281556e-01
 -2.6377919e+00
  5.2656919e-01
  5.3210402e-01
 -1.0893780e+00
 -8.4025985e-01
  1.1768010e+00
  7.8158456e-01
 -1.0531908e-01
 -4.5181310e-01
  3.8650159e-02
 -1.3697362e+00
  1.3598955e+00
  2.2439820e-01
  1.3283480e+00
  1.1580623e+00
  8.9578742e-01
 -5.9044540e-01
 -5.7661068e-01
 -4.6288419e-01
  3.4237221e-02
  3.6436095e+00
 -1.2480085e+00
 -1.2726735e+00
 -4.2303777e-01
  1.3763845e+00
  4.5393142e-01
  1.7042956e-01
 -3.2687032e-01
  3.0522019e-01
 -1.2066010e+00
  1.0495631e+00
  1.4739456e+00
 -5.3981376e-01
 -1.7334458e+00
 -1.2152326e+00
 -2.4126780e-01
  1.6078514e-01
 -6.3514555e-01
 -1.7116387e+00
  1.9825313e+00
  1.3610647e+00
 -1.3583367e+00
 -2.2054992e+00
 -4.2308804e-01
  1.0595452e+00
  6.0723341e-01
 -2.4699470e-01
 -4.5594513e-01
  8.9114857e-01
  4.9326554e-01
 -1.3021129e+00
 -1.7018827e+00
 -1.9058301e-01
  8.6371386e-01
  8.1086087e-01
 -1.8750591e+00
 -2.8403965e-01
 -3.1598163e-01
  1.3290321e+00
  6.1650932e-01
 -4.6130624e-01
 -3.4437490e-01
 -9.0618230e-02
  1.2207449e-01
 -8.2210898e-01
  1.3481146e+00
 -7.8698260e-01
 -8.3079523e-01
  3.6673576e-01
  2.1551561e+00
  1.1949817e+00
  8.5559964e-02
 -6.5740323e-01
  2.0929458e-02
  2.0929458e-02
  2.0929458e-02
  2.0929458e-02
  2.0929458e-02
  2.0929458e-02
  2.0929458e-02
  1.0962482e-02
  1.0962482e-02
  1.0962482e-02
  1.0962482e-02
  1.0962482e-02
  1.0962482e-02
  1.0962482e-02
  1.8212069e-02
  1.8212069e-02
  1.8212069e-02
  1.8212069e-02
  1.8212069e-02
  1.8212069e-02
  1.8212069e-02
  1.8815842e-02
  1.8815842e-02
  1.8815842e-02
  1.8815842e-02
  1.8815842e-02
  1.8815842e-02
  1.8815842e-02
  9.7086104e-03
  9.7086104e-03
  9.7086104e-03
  9.7086104e-03
  9.7086104e-03
  9.7086104e-03
  9.7086104e-03
  8.8222735e-03
  8.8222735e-03
  8.8222735e-03
  8.8222735e-03
  8.8222735e-03
  8.8222735e-03
  8.8222735e-03
