nep4_zbl 1 Ne 
zbl 0.8 1.6
cutoff 6 6 59 59
n_max 6 6
basis_size 10 8
l_max 4 2 0
ANN 50 0
 -3.5455844e-01
 -1.1619601e-01
 -6.6748917e-01
 -3.3483061e-01
 -3.0084653e+00
  2.0958235e+00
  3.9726037e-01
  5.3661832e-05
 -1.4126758e-04
  1.1597137e-03
  9.8676777e-05
 -1.0243831e-01
 -4.1179534e-04
 -7.3583764e-03
 -1.0311453e-05
  8.0969170e-02
 -3.2800224e-05
 -1.3478861e-04
  2.1427062e-03
  2.6608830e-06
 -1.5278038e-04
  1.8146909e-04
  1.2242256e-02
  2.6127831e-03
 -1.3400047e-05
 -4.9589325e-05
 -3.1448806e-05
 -8.5778330e-03
  1.6516997e-04
  4.6602878e-01
  1.3771585e-04
 -2.0829857e-05
 -1.6926795e-02
  1.4800542e-03
 -6.2905834e-05
  5.5043143e-05
 -2.8735041e-05
 -1.0233478e-05
 -3.4320902e-07
  2.8878832e-04
  1.0308104e-05
 -1.1847317e-02
 -9.2017627e-04
 -2.3217683e-01
 -9.8933965e-01
 -4.7900502e-02
 -6.4307117e-01
 -6.4367324e-01
 -1.0647200e+00
  1.7343480e-02
 -5.3640944e-01
  5.5403193e-06
  8.0565095e-02
 -6.5180168e-02
  2.0978687e-06
 -2.1267931e-01
 -4.9600829e-03
 -9.8732017e-02
  9.9321157e-02
 -2.2355724e-02
 -1.7073179e-02
  4.7876141e-03
 -1.6270539e-02
  1.0880043e-03
 -5.0691585e-03
 -1.6375129e-03
  5.3132800e-07
 -4.6694316e-02
 -3.0491422e-03
 -8.9012317e-02
  9.4922073e-03
 -1.3268252e-01
  1.1897668e-03
 -2.6210906e-02
 -8.0400750e-02
  5.3613370e-05
 -2.6547179e-01
 -1.5298054e-05
 -8.6128071e-02
  7.2084309e-05
 -1.1057603e-04
  2.3604141e-05
 -7.6018885e-05
 -4.0399933e-05
 -3.4924739e-03
 -5.5201203e-01
  7.1872421e-07
  4.9865100e-04
  2.3861830e-04
  7.3180672e-05
  1.3225585e-04
 -6.7883884e-05
 -9.8551291e-06
 -2.7524620e-06
 -9.9688041e-06
 -2.3856705e-05
  7.7858175e-08
  1.0484583e-05
  1.5712416e-05
 -7.9104463e-03
  5.6571721e-06
 -5.0791055e-05
 -1.6166528e-06
 -6.9796697e-05
 -4.3856439e-06
  5.2527706e-05
 -1.3347941e-04
  6.3115513e-05
  2.2936776e-05
  4.9755504e-06
  3.1301930e-05
 -6.7132014e-06
  2.0034629e-05
  5.3118833e-06
  1.9784654e-03
  3.9474169e-05
 -6.0561983e-06
  5.1540451e-07
  5.1872516e-06
  1.7033273e-05
 -3.6833662e-06
  4.8628110e-05
 -3.7146350e-05
 -1.2851077e-05
 -1.9971467e-05
 -1.2948381e-06
 -1.5005295e+00
  5.6310880e-01
  1.3217654e+00
 -2.7365997e+00
  1.2236359e+00
 -7.7384281e-01
 -7.2475201e-01
 -3.5406614e-05
  2.4722023e-03
  2.2915488e-06
 -3.5102218e-02
  8.8840080e-03
  3.4746219e-05
 -3.6376183e-05
  1.2455178e-05
 -3.1771997e-03
 -1.2792027e-04
  1.1614133e-05
 -5.3852236e-06
  3.2891239e-05
 -9.1521006e-06
 -1.3327975e-04
 -2.1340007e-01
  2.1713033e-04
 -2.9521609e-05
  7.2629911e-05
  5.1820396e-05
  6.9618267e-03
  1.4741880e-05
  7.6910088e-05
 -3.9789029e-03
  1.0790742e-05
  5.8734547e-03
 -6.1847342e-05
 -4.3410630e-05
  7.1066216e-04
 -1.9955580e-05
 -6.6661351e-06
 -1.2743579e-06
  1.3206891e-05
  2.3768365e-03
  3.6891475e-03
 -1.0673924e-02
 -2.8864172e-01
 -8.1533206e-01
 -1.5437497e+00
  4.5637891e-01
  1.8669748e-01
  1.0688190e-01
  1.6342801e-05
 -3.8635677e-03
 -1.3164699e-05
  1.9419204e-02
  1.0654619e-01
  1.8927112e-04
  4.4508405e-07
 -8.3204777e-06
  1.6909518e-05
  7.9006162e-03
 -3.5858777e-06
  3.3551473e-06
 -4.4634176e-05
 -7.2126581e-06
 -8.2774595e-06
  3.3133798e-05
 -4.4059660e-03
  2.0592477e-05
  5.8793568e-05
 -1.2465537e-05
  1.8550467e-05
 -3.8023824e-03
  1.7214757e-05
  6.6336230e-05
  2.3209934e-05
 -8.9050436e-06
  6.9731213e-05
  8.5779524e-05
 -4.0637326e-05
  2.5479796e-06
 -4.5735134e-05
 -3.4618835e-05
  1.9551184e-05
  5.2998581e-05
 -2.6292428e-06
 -7.4742234e-01
  9.2509079e-01
 -2.0945649e-01
 -1.1602768e+00
  5.8025253e-01
 -1.2361164e+00
 -1.7448497e+00
 -6.5139252e-01
  1.7714858e+00
 -2.8888243e-01
 -3.2174110e-02
  1.0179957e+00
  1.4197176e-02
  5.2454650e-01
 -1.3059118e+00
  2.0713210e-02
  1.3890754e-01
 -2.9330203e-01
  1.1014550e+00
  2.6133758e-01
  4.2618734e-01
 -2.4096078e-01
  7.0337021e-01
  2.7351668e-01
 -3.2238930e-01
  8.1040162e-01
  5.4391023e-02
  5.3801996e-01
 -1.8728837e-01
  2.3055155e+00
 -7.1003594e-02
 -9.2324287e-02
  8.5166550e-01
 -1.6674647e-01
  4.5391536e-01
  1.1742527e-05
  2.6563194e-01
 -6.3001603e-02
  8.1143249e-04
 -3.3099113e-05
  1.0702553e-05
 -1.2191053e-05
 -1.3874378e+00
  8.0752277e-01
  7.5299066e-01
  5.8946405e-03
  7.4751377e-01
  1.9171907e-01
  1.0508505e-01
  1.0583488e-03
  2.3168976e-05
  1.5181560e-06
  6.3131779e-04
 -1.9223860e-06
 -1.7055310e-05
  3.4518573e-05
 -6.2146457e-05
  1.6399557e-03
  2.1416055e-05
 -5.7986206e-05
  1.1422662e-05
  2.3654797e-05
 -6.3880145e-07
 -2.3843120e-03
  2.3018646e-03
 -1.3028989e-04
  3.5266145e-05
  1.4956066e-05
  1.1948156e-04
 -4.2776987e-06
  6.6144811e-04
 -1.5053080e-05
  1.7226715e-02
 -1.6911879e-05
  5.3031978e-05
 -1.3274067e-02
 -2.8950444e-05
  1.5933660e-05
  7.1819428e-05
 -1.1833532e-05
  5.7768470e-05
  1.1812695e-06
  2.7685703e-05
  4.3887840e-06
  4.7629230e-02
 -1.5938402e+00
 -6.1586964e-01
  1.0298047e-01
  2.0306489e+00
  1.3830155e-01
  5.3140793e-02
 -6.0872724e-03
  1.3084038e-01
  1.7340453e-05
 -1.3197115e-01
 -1.8428309e-03
 -1.9202143e-05
 -4.7681239e-03
  3.5320353e-03
  1.7208220e-02
 -9.1037629e-03
  2.1918591e-02
  1.7217779e-01
 -4.7518130e-05
 -3.5510071e-05
  1.2818648e-05
 -6.8224175e-03
  1.4989389e-04
 -3.6954785e-05
  4.3436385e-06
  1.5376498e-05
  8.8075882e-05
 -1.2575873e-05
  2.0201705e-05
  5.4614361e-02
  2.6813753e-02
  2.4762147e-03
 -5.4756370e-03
  6.5194057e-05
 -2.1520733e-04
  7.8747519e-07
 -3.7626128e-03
  4.3243883e-05
 -6.7515328e-05
 -5.7684820e-06
  3.3054398e-06
 -1.0914754e+00
 -6.9661602e-02
 -5.3634858e-01
  7.8576922e-02
 -5.2746091e-02
  9.9724674e-01
  4.0607076e-02
  1.1939021e-06
  5.9937370e-01
 -1.9929737e-03
 -5.7026987e-06
  1.4743975e-01
  9.9872464e-05
  2.5300295e-04
 -5.1132194e-04
 -1.6247300e+00
 -2.3603526e-01
 -1.5987855e-03
  3.0183201e-06
 -2.7118538e-05
 -3.1198000e-05
 -8.4039225e-04
  2.6714299e-02
  2.4083046e-02
 -3.5353851e-06
  2.4173544e-03
  3.5110787e-03
  6.7246873e-07
 -3.5452127e-04
 -4.2032632e-01
 -2.1932632e-01
 -1.4003897e-01
 -1.0166767e-05
 -4.7170422e-05
  4.3814320e-02
 -9.3822695e-05
 -3.3882490e-05
 -5.3205866e-05
  8.0990442e-04
 -3.0298541e-05
  2.9760258e-06
 -5.4577918e-06
 -2.2359896e-01
  4.7219273e-01
  8.9601648e-01
 -6.8244940e-01
  3.3881620e-01
  1.1119025e+00
  3.4605637e-01
  1.7927277e-06
  2.2785809e+00
 -5.5415644e-06
 -5.7414785e-02
  1.0383106e-03
 -9.1581251e-06
  4.0595494e-02
  5.7075165e-05
  3.9819233e+00
 -2.9073986e-01
  8.0736727e-02
  9.0927936e-02
 -1.0063161e-04
  3.8827446e-01
 -2.0909338e-05
  4.5350108e+00
 -2.9552075e-01
  2.6724515e-02
  3.7150609e-01
  1.1482796e-01
  6.6856521e-01
 -2.5611276e-05
  5.7311308e-01
 -7.8000212e-01
  1.0505709e-04
  2.0034905e-01
  2.5244219e-05
  3.5820892e-01
  5.6771619e-06
  2.9962531e-01
 -2.1231560e-04
 -9.8549947e-04
 -2.2045358e-05
 -3.0452453e-05
  8.0173879e-05
  1.7649158e-05
 -8.3592713e-06
 -3.2725963e-03
  1.1111169e-05
  3.0560332e-05
 -1.5151812e-05
 -2.2540975e-05
 -3.2540618e-05
  1.8638709e-03
 -7.1874974e-06
 -2.6422418e-05
 -3.3046403e-05
  4.2765078e-05
 -3.1817194e-07
 -2.4259933e-03
 -1.3263981e-05
  3.1055963e-05
 -1.5857038e-05
 -1.1564575e-04
 -3.2858507e-06
 -1.0662638e-05
 -1.8467748e-05
  3.9683902e-05
 -5.4171851e-05
  2.1290116e-05
  3.7512658e-05
 -2.1531545e-05
  1.0168339e-05
  6.8687900e-06
 -3.2444841e-05
 -2.0650969e-05
 -1.8989650e-07
 -6.9112889e-06
 -1.4734233e-05
 -1.1330791e-05
 -1.2019143e-06
 -3.4437843e-03
 -6.4041669e-05
 -4.1579577e-05
 -2.7675946e-05
  9.0766998e-06
  9.2306891e-06
 -2.2034532e-01
  2.0116756e-02
  1.1005644e-03
 -4.5163330e-01
  9.3811221e-02
  1.8184531e-01
  4.1035037e-02
 -4.7114776e-05
  6.8142348e-05
 -3.3822234e-05
  3.6399306e-05
 -1.4134607e-06
  1.3180348e-04
  9.0266894e-07
 -1.1001453e-05
  4.6673381e-06
 -2.2510416e-05
  1.7618184e-05
 -1.8240798e-03
 -1.3792474e-04
 -4.7793914e-05
  1.7350949e-05
 -4.9004429e-03
  6.8981186e-05
  9.0705592e-04
  2.6945181e-06
 -1.3619077e-05
 -4.6936017e-05
  3.2742196e-06
 -3.2396365e-05
  2.6077349e-05
  1.6264745e-04
  1.0169126e-05
  3.7448586e-05
 -4.2201562e-05
  7.1409290e-06
  7.2256926e-06
 -3.6920400e-07
  5.3318531e-06
  1.5668964e-05
 -1.7667957e-05
 -4.0092717e-05
  8.0090383e-04
 -2.4733829e-04
  8.0504191e-01
  2.1514534e-05
 -1.2779883e-01
 -5.0309682e-01
  2.6242876e-06
 -1.2978478e-05
 -2.0017476e-05
 -5.1444611e-05
  3.6478901e-05
  1.8398076e-05
 -6.5307038e-05
 -9.2538767e-06
  3.0017660e-03
  1.6397049e-05
  1.6346808e-03
  8.5624879e-06
 -2.7274116e-06
 -5.5052578e-06
  4.6774145e-05
 -3.1389720e-06
  4.5104174e-05
 -2.5716226e-05
 -3.7614191e-05
 -4.9325876e-04
 -4.0396943e-04
 -5.7273096e-06
  2.6789290e-05
 -1.8339894e-06
 -3.2344695e-05
  4.9004324e-05
  3.4233253e-05
 -1.5045009e-05
  4.9873004e-03
 -3.3713684e-05
 -8.3455132e-07
 -1.3899119e-05
 -2.8157212e-06
  2.5854555e-05
 -3.5111614e-06
  5.2470000e-06
  8.9767427e-06
 -9.5947697e-05
 -7.7089171e-06
 -2.8040988e-06
 -1.0623735e-06
 -1.3256554e-05
  8.2566548e-06
 -4.5295692e-05
  3.3805856e-05
  9.6743479e-06
 -1.3577072e-05
  1.0335349e-02
 -1.0007428e-05
 -7.9085248e-06
 -1.9282268e-05
 -6.9596590e-06
 -8.6253149e-06
 -4.2393243e-05
  2.5017462e-05
  7.4210758e-03
 -2.6992852e-06
 -3.3680517e-05
 -1.1668148e-05
  3.2854309e-06
 -3.2743661e-05
  1.7419679e-05
 -1.4419158e-05
  6.9456801e-05
  1.7508398e-06
  6.3546875e-05
 -7.3048628e-05
 -1.9150726e-05
 -4.9161274e-05
  8.8957413e-06
 -2.0763006e-03
  1.7125540e-05
 -1.4248205e-05
  3.1579766e-05
 -4.8874372e-06
  3.7381396e-05
  1.5699560e-03
 -5.3735821e-05
 -1.9144916e-03
  4.9377680e-03
  2.4873759e-06
 -2.3646573e-05
  5.2513619e-06
 -7.0722108e-06
 -7.6483757e-06
  4.8828606e-05
 -4.3138079e-06
  4.3793625e-06
 -5.0751056e-05
  2.3871227e-05
 -2.0284358e-05
 -4.7629965e-06
  1.6647562e-05
  5.6921369e-03
  4.3463162e-05
  1.3702779e-05
 -4.1850697e-05
  3.9548805e-04
 -2.7972239e-05
 -4.7736157e-06
  2.5821390e-04
 -1.4478690e-05
 -2.5152935e-06
  2.8802731e-05
 -1.0529277e-05
  2.0051334e-06
  9.3928822e-05
 -1.0836781e-06
  2.9707276e-03
  1.5505444e-05
  1.4747256e-05
  2.6191376e-05
 -1.1292561e-05
 -2.1836415e-04
 -1.6361197e-05
 -2.3556588e-05
 -4.3851655e-06
  2.4678152e-07
  3.8264702e-06
 -1.5153532e-05
  2.0636618e-03
  8.2140177e-06
  8.6979584e-05
  1.9385739e-06
 -5.3689871e-03
 -8.0164595e-05
  1.5501444e-05
 -1.8669685e-04
 -2.8835696e-06
 -1.2072590e-05
 -1.6683537e-03
 -6.6942894e-03
  2.4697203e-05
  6.0397531e-05
  3.2712123e-06
  4.8810067e-05
 -1.9011968e-05
  2.0371290e-05
  4.7803674e-06
 -8.7518129e-06
  4.8425436e-06
  4.7128242e-03
 -7.5767884e-06
  1.4739042e-05
  4.6564210e-06
  3.2349832e-03
 -1.7730643e-05
  6.4573042e-06
  3.7534855e-07
  2.5374563e-06
  1.0925256e-05
 -1.3949758e-05
 -9.4043862e-06
 -3.7007410e-08
 -2.0853629e-06
  1.3792313e-05
 -3.2908092e-06
 -1.2173593e-03
 -2.4315632e-05
 -2.1913136e-05
  8.2588040e-06
  1.8031866e-05
 -1.4224590e-02
  1.0192608e-03
  3.9663711e-03
  1.6838163e-02
  1.6191567e-01
  2.8609404e-02
  5.2150376e-03
  1.5250438e-05
 -1.3294448e-04
 -3.6092370e-06
 -1.4572781e-05
  4.5179040e-06
  1.8422596e-05
  8.6919781e-06
 -3.5674089e-05
 -3.5233658e-03
 -4.7473426e-05
 -7.1405138e-06
 -2.1991158e-04
 -2.5024059e-05
 -1.5173025e-05
 -6.5403292e-06
 -1.1451803e-05
  4.2082982e-05
 -3.4416569e-04
 -2.8539830e-06
 -1.3047563e-05
 -3.0728029e-06
  5.2100466e-05
 -6.6049307e-07
 -1.5301839e-05
  2.6071260e-05
  4.4242348e-05
 -1.1959805e-05
  5.0533246e-05
  1.0182506e-05
  1.3189869e-05
  2.1105780e-05
 -1.1160524e-05
  5.8107140e-05
  2.7860990e-05
  2.5185313e-05
  1.3663736e-02
 -1.2233090e-01
 -6.7982532e-02
 -8.5899502e-01
 -2.5021759e-01
 -5.5703980e-01
 -9.7917467e-03
  1.3838228e-03
 -1.1957691e-03
  1.2706307e-05
  1.0499581e-02
 -5.8509380e-04
  1.8124727e-05
 -1.3093677e-04
 -8.6142421e-03
  6.4504305e-03
  2.3734821e-03
  5.3502486e-06
 -1.3762875e-04
 -9.3841838e-04
  5.7976126e-06
  1.0088602e-05
  1.8173870e-01
  2.8240748e-03
 -4.2175298e-04
 -2.6512875e-03
 -3.3143308e-02
 -7.2955959e-06
  2.1266658e-04
 -3.5683177e-05
 -2.9962693e-04
  1.6532562e-05
 -9.6067786e-03
  3.9081806e-05
 -2.6618918e-05
  2.5133908e-04
 -8.1902267e-03
 -1.6807571e-06
  6.6828642e-07
 -1.5605940e-05
 -4.6129908e-06
 -4.0746676e-05
 -6.3821062e-02
  2.3490597e-02
  1.4550431e-03
  4.1030291e-02
  1.2476570e-01
  2.1613995e-02
  8.5757067e-03
  3.7819876e-03
  6.3360152e-05
 -1.7894870e-05
 -2.2310800e-05
  1.1119798e-05
 -4.4036064e-05
 -2.4981831e-05
  3.1724030e-05
  1.6472494e-02
  1.5724650e-05
 -8.3746436e-06
  9.8287121e-05
  5.0910786e-03
  3.0617693e-03
 -8.9469595e-06
 -1.6725016e-05
  7.7248120e-04
  8.1478265e-06
 -4.9165905e-05
 -3.8938299e-05
 -7.8953390e-06
 -1.2338004e-03
  1.2167882e-05
  6.4375665e-04
  5.3785502e-06
  4.5300354e-04
 -6.0735922e-05
  3.2109786e-03
  3.5825133e-06
  1.9081999e-05
 -1.2278809e-05
  1.1034757e-05
 -5.5320565e-06
 -2.2208842e-03
 -4.1943127e-05
 -2.4529222e-06
 -4.6622553e-03
  8.7992912e-06
  5.9989572e-05
  1.7747621e-05
  2.3139772e-05
  3.2481958e-06
  1.0980876e-05
  8.6981136e-06
 -1.9717187e-05
  1.0443207e-05
 -3.2166902e-06
 -2.2732476e-05
  9.6989088e-06
  8.2738647e-05
 -4.8418251e-06
 -2.4064648e-06
 -4.1004681e-05
 -1.0743410e-06
 -5.0123672e-06
  3.3741824e-05
  2.8006712e-03
 -1.4749579e-05
 -3.5315876e-05
 -1.0860933e-04
 -1.0496169e-05
 -7.5451806e-03
  1.6082262e-05
  2.1585718e-05
  1.7760030e-05
  2.8665530e-05
  2.6017290e-03
 -1.7694637e-06
 -1.1243223e-05
  9.3065364e-06
 -4.1447856e-06
  7.6335864e-06
 -1.0249342e-05
  4.8372849e-06
  1.4322964e-05
 -8.1138651e-06
  1.9651865e-05
  1.4697215e-05
  7.1835361e-04
 -5.7002962e-06
  8.5300690e-06
 -1.5443631e-03
  9.9401129e-03
  8.1918233e-06
 -1.4187141e-05
 -2.6709492e-06
 -2.7919260e-03
 -1.9191428e-05
 -1.5998074e-05
 -1.4656316e-04
 -4.2283946e-06
 -1.3442096e-06
 -2.2210010e-05
 -2.1666460e-06
 -1.2402806e-03
  2.4287743e-05
 -1.5688769e-06
 -2.9211531e-05
 -4.3460521e-05
 -3.3919878e-06
 -2.4455221e-05
  4.0210100e-05
  6.2597555e-06
  1.2606777e-03
  1.4473862e-05
 -1.8902548e-06
  1.0723680e-05
  3.3254582e-06
 -3.4362969e-05
 -1.1133795e-05
  2.7108421e-05
  1.2580966e-06
 -1.7497912e-05
 -3.0762076e-05
 -1.8429739e-05
 -2.6265300e-06
 -2.3282459e-05
 -7.1482677e-06
 -1.1695190e-05
 -2.0792506e-05
 -8.4225176e-06
 -5.9810286e-06
  3.8740742e-05
 -1.0469825e-05
  3.2668617e-05
 -2.7142994e-06
 -2.1414000e-05
  9.4346906e-06
 -2.2354019e-05
 -2.6018135e-05
  1.8184777e-05
  3.0648789e-05
 -8.5938821e-04
  1.1412270e-05
 -3.9773681e-06
  4.1664031e-04
  9.6883370e-05
  2.5476109e-05
  2.4827905e-05
 -1.5942196e-05
 -3.8375794e-05
  1.0858695e-05
 -1.1705596e-06
  1.5359581e-05
 -1.7386496e-05
 -1.3104648e-05
  1.3960437e-03
  3.0632179e-06
 -1.7873610e-05
 -9.9914405e-06
  1.1355042e-05
 -1.0149114e-05
  4.2789328e-05
 -3.2462380e-05
  2.4242663e-05
 -3.8691542e-07
  6.7902700e-05
  3.6742540e-06
  1.2559194e-05
 -4.8375464e-06
  3.3907385e-05
  3.3724610e-02
 -7.0277587e-02
 -7.9556257e-02
 -4.7003427e-01
 -6.8424821e-01
 -4.7801161e-01
 -9.4119087e-02
  5.3941611e-05
 -2.1786304e-02
  1.5510370e-05
  8.9485133e-05
 -1.8088390e-01
  2.4066605e-05
 -5.2902818e-02
 -1.3559452e-02
 -2.7635455e-02
 -6.9786096e-05
 -4.9209280e-04
 -6.8110846e-02
  9.3407398e-05
 -4.3042739e-05
  1.5587384e-02
  1.4110622e-02
  5.1865154e-03
  5.0935354e-03
 -1.7980175e-03
 -1.2100951e-02
 -1.8806408e-05
  6.0236682e-05
 -3.3649581e-04
 -2.1279130e-02
  4.6967187e-05
 -5.5470601e-02
  1.8415731e-04
 -3.4674129e-04
  9.6843842e-06
 -2.2324338e-04
 -2.4370938e-05
 -1.1137443e-05
  4.1891934e-05
 -4.7814476e-05
 -3.4895941e-06
  3.1725045e-05
  9.6486724e-07
  6.3828002e-06
 -6.3586391e-05
 -1.6291036e-05
  6.3035536e-06
 -6.1702691e-03
 -1.6033067e-05
  4.9247814e-05
 -1.8014043e-05
 -1.9694417e-05
 -4.3290256e-06
  1.1554419e-05
 -2.0055812e-05
 -2.1098718e-05
 -1.1715254e-05
 -1.2138445e-06
  3.0952335e-05
  1.0415275e-06
  3.9131208e-03
  5.1120078e-05
  1.7968007e-06
 -1.5578293e-05
  1.7521615e-04
  2.0130801e-05
 -2.0019619e-05
  1.5849391e-05
 -1.9334420e-05
  1.2760548e-06
 -6.8157947e-06
  3.9407264e-06
  8.8928618e-06
 -4.4930354e-07
 -2.3137976e-05
 -9.0993865e-07
  7.3748092e-06
 -5.5980337e-07
  2.5197853e-05
  4.8084835e-06
  4.8860807e-06
  1.0068470e-05
 -5.0434014e-06
  8.0815125e-01
  1.9813231e-01
  1.7593886e+00
  2.1622810e+00
  4.6505642e-01
  5.3432003e-02
  7.7148676e-01
  9.5591194e-04
 -4.7186040e-05
 -2.5504321e-04
  3.2079464e-01
  3.6929217e-01
  1.2618775e-04
  1.2182283e-02
 -1.2373163e-04
  1.1093282e-03
 -1.2469500e-05
 -1.2775791e-04
 -4.9327893e-05
 -3.9560241e-03
  2.1757974e-06
 -4.0825671e-05
  7.2833590e-02
 -9.1262633e-04
 -3.6059373e-05
 -8.6664670e-07
  5.2064919e-04
  1.5512545e-03
 -5.5961598e-05
  7.8226149e-06
  3.7886603e-03
 -6.9972104e-03
  1.2523305e-04
  1.5601547e-03
  1.0025406e-04
 -6.7177219e-03
 -7.2046196e-06
 -4.5515657e-03
  1.3177042e-05
 -9.4632860e-06
 -1.0940117e-03
  2.3836634e-05
 -1.6122867e-05
 -7.4517670e-06
 -2.2320752e-05
 -4.7149256e-06
  2.1470109e-05
  2.0740083e-06
  7.8964913e-05
 -2.7394914e-05
 -1.4915587e-05
  2.1809650e-05
  1.8399820e-05
 -1.1023713e-05
  4.5864085e-06
 -3.2989050e-05
  1.2983111e-05
  3.6682453e-05
  1.2376966e-06
  1.8953031e-05
  3.7532980e-05
 -1.0778093e-05
 -2.3698169e-05
 -2.4569968e-05
  1.7086270e-05
 -2.9963055e-06
  2.1721097e-03
 -3.0286699e-03
  2.1291198e-05
 -3.3690394e-05
 -1.4758977e-05
  8.9120329e-07
 -7.3693327e-06
 -3.2644661e-05
 -1.1682100e-05
  3.1528568e-06
  3.2574368e-05
 -1.3067116e-06
 -5.2955860e-05
 -9.2383016e-07
 -1.6114211e-06
  1.0381753e-05
  1.3813396e-05
 -4.8617499e-06
 -1.8262463e+00
  4.4396827e-01
 -1.3962160e-01
  1.3188266e+00
  1.7185528e+00
 -4.4846117e-01
 -7.7986163e-01
 -1.6682793e-01
  1.5223810e-02
 -1.2607301e-02
 -1.4767708e-01
  7.7035793e-06
 -7.4910124e-05
  6.2102050e-02
 -4.0472805e-04
  4.6821463e-01
 -3.7236944e-07
  1.7066805e-05
  3.2559622e-02
 -2.8133678e-04
  1.3670712e-04
 -6.3865017e-03
 -1.7792979e+00
 -3.6559636e-03
 -1.2717082e-02
  7.8456262e-03
  1.1666677e-02
  2.6111302e-03
  1.7210798e-05
 -9.3503630e-01
 -6.7090441e-04
  2.2160627e-03
  7.5334166e-03
  1.1931665e-04
  2.9049732e-02
 -7.0933682e-05
  8.9290075e-02
 -3.4248617e-03
  3.0937635e-03
 -1.3465073e-04
  8.8553870e-04
 -3.4845143e-05
  1.4631766e-01
 -1.5314128e-01
  1.5736942e-01
 -3.8263693e-02
 -3.3671626e-01
 -1.8339872e-01
 -2.7777750e-02
 -5.5657718e-05
 -8.3918349e-06
 -3.0567135e-05
  3.4097924e-05
 -1.1134775e-04
  5.6733273e-04
 -3.8453152e-05
  4.4596312e-05
 -3.2295697e-04
 -4.2642199e-07
  9.7281390e-06
  6.9472799e-06
  9.7299177e-05
  4.1964841e-03
  7.1365721e-05
  5.0337171e-06
  1.2335402e-05
  8.2514890e-07
 -3.7791739e-05
  7.1669696e-05
 -1.8702167e-04
  5.8511727e-05
 -8.7416021e-07
 -1.0394372e-04
  7.5292497e-05
 -4.4749951e-05
 -5.5840204e-04
 -3.2246997e-05
  7.0031754e-05
 -1.5985444e-05
 -2.6476615e-05
 -6.4656064e-03
 -6.6263487e-06
 -1.5571479e-05
  1.6723181e-05
  2.5682506e-01
 -1.3260993e+00
 -1.4047902e+00
  3.4957466e-01
 -9.0742099e-01
  5.3449833e-01
 -6.5061915e-01
 -5.9324532e-04
 -1.4521805e-05
 -1.3022668e-04
 -2.2510397e-03
 -1.1777164e-04
  3.9231018e-05
 -1.6100254e-03
  2.4097997e-06
  2.6698905e-05
  4.8585225e-06
  3.6526956e-03
 -8.5728883e-05
 -6.6167286e-06
  2.7891786e-06
 -7.1236173e-06
  1.8206002e-02
  4.1025965e-03
 -1.4783550e-06
 -2.9335904e-06
 -1.6641159e-05
  1.1645214e-03
 -5.1211955e-06
 -3.4281948e-05
 -2.8864283e-02
 -1.0488462e-03
 -5.7665206e-05
  1.6282671e-04
 -2.2967866e-04
  8.3937499e-05
 -3.7162602e-03
 -6.8499059e-05
  1.9507152e-05
 -4.4156672e-03
  2.9367466e-05
  1.2495263e-06
 -1.8251851e+00
  6.0238291e-02
 -3.5433128e-02
  1.0753290e-02
  3.8892132e-01
  3.7532557e-02
  4.2502824e-03
  1.4042012e-05
  1.3423759e-04
 -1.0557574e-05
 -4.0116578e-05
  9.7325639e-05
 -7.4365584e-04
 -3.5114899e-05
 -1.5798218e-05
  8.1837949e-05
 -2.2391941e-06
 -1.0701421e-05
  6.5336703e-06
 -1.9505369e-05
  8.6451364e-06
  1.8310235e-04
 -5.2248626e-03
 -3.8205378e-03
  1.3336970e-03
 -1.7322840e-05
 -7.4904719e-03
  2.2285207e-05
  1.1050900e-05
  1.4608603e-05
  1.0291101e-04
  7.5422363e-06
  1.1028746e-05
 -3.3667937e-05
  5.1201470e-05
  5.6104756e-05
  5.3761978e-05
  1.3880027e-05
  4.7042982e-07
 -1.2430299e-05
  2.7269416e-05
 -2.2015616e-03
 -2.1865089e-06
  1.8605995e-05
 -2.3379951e-05
 -3.0618514e-05
 -1.9184463e-03
  2.4417668e-05
  4.7199995e-07
  8.1128173e-06
 -1.5804888e-05
  7.8975319e-07
  4.5476818e-07
  6.5340493e-05
  1.2183028e-05
  1.1004489e-05
 -8.1415164e-06
 -9.9373310e-06
  1.1331252e-05
 -3.1140723e-07
  5.8349688e-06
  7.1448660e-05
  8.0766040e-06
  2.7584041e-05
  4.1778294e-06
  4.2261118e-07
  3.5523702e-03
  1.4978745e-05
 -9.5165324e-06
  9.9467616e-06
  4.4160574e-06
  1.0588496e-05
  9.2082591e-05
  8.0034306e-06
  1.6812268e-03
  6.1555866e-06
 -3.0805070e-06
 -4.4429147e-05
 -3.2136297e-06
 -2.7161450e-06
  3.0194475e-05
  2.6998205e-05
  7.7297145e-06
 -2.8083360e-04
  2.5424525e-02
 -1.0832827e-02
 -1.2393811e-03
 -4.8035188e-03
 -1.8904600e-01
 -8.4862739e-02
  9.4951555e-04
  1.0645809e-04
 -5.7697383e-05
 -2.5716075e-05
 -3.2933939e-03
 -4.6879450e-05
 -2.7953070e-05
 -8.1505379e-05
  2.5252914e-03
 -1.4392383e-03
  7.7467072e-03
  9.4682991e-07
 -4.4326847e-05
  1.8644353e-03
 -2.6488044e-06
 -2.7019014e-06
  1.2809245e-04
  6.4570230e-04
  3.4270313e-05
 -3.3093183e-03
 -1.4035379e-03
 -5.8128721e-06
  5.9459261e-03
 -1.3766938e-05
 -2.5691965e-05
 -4.9268128e-03
 -2.1590332e-04
  2.2227876e-03
 -1.0227733e-05
 -1.8207561e-03
 -1.3537455e-05
  3.8305119e-05
  7.5025135e-05
  3.3484645e-05
 -8.6024784e-06
  8.0685168e-06
  6.7835164e-01
  1.4436756e+00
  8.8228953e-01
  1.6751808e+00
  2.6161414e-01
  2.1804824e+00
  2.8468835e-01
 -7.8480586e-02
  9.3497196e-04
  4.1985252e-01
 -1.0005081e-01
  9.3564019e-02
 -1.5919393e-05
  6.2226871e-05
 -3.5088803e-04
 -3.2659099e+00
 -6.6879570e-02
 -3.7719977e-01
  2.4438762e-06
 -9.8179996e-02
 -4.2203934e-05
  6.0385182e-06
  5.1302099e+00
  4.7010797e-01
  1.3172753e-01
  5.8923185e-02
  2.7566222e-03
 -3.0218644e-05
 -5.7378871e-05
 -5.7130337e-01
  2.5922883e-01
 -1.1757477e-02
  2.0744619e-06
 -1.1478784e-02
  3.4640019e-05
 -1.3438516e-04
 -4.9699130e-03
 -2.5246541e-03
  4.0320274e-06
  8.2196857e-06
  7.0090396e-06
  7.3337992e-06
  5.6834896e-03
 -1.8041080e+00
 -2.5624444e+00
 -7.0373136e-01
 -8.6640112e-02
 -1.5649470e+00
 -7.7675730e-01
  1.3522200e-05
 -1.5613585e-03
 -7.6026644e-04
 -9.4107018e-06
  9.9373301e-06
  9.4003944e-06
 -1.1149733e-05
 -4.0743845e-03
  1.2376737e-03
  1.6458847e-05
  2.8763982e-06
 -1.6457141e-05
  2.0168738e-04
 -7.2309967e-06
  2.2840828e-05
 -8.0227311e-04
  6.1064900e-05
 -9.2775968e-04
  2.3750415e-05
  7.1928448e-06
  2.8277811e-06
  1.6848177e-05
 -3.3241349e-06
 -6.3910884e-05
 -9.3038689e-05
  5.5405767e-06
  1.2212890e-05
  4.3085467e-05
 -2.9848787e-05
  3.9559330e-07
 -2.5303025e-06
  4.1218223e-03
  6.8528236e-05
  5.9558201e-04
  9.4311023e-03
  8.9374304e-01
 -3.3520025e-01
 -6.9019198e-01
  1.9274573e+00
  5.1241493e-01
  1.1344297e+00
 -8.7197095e-01
  7.6061486e-05
 -3.4650967e-01
  2.2446666e-05
 -2.5085619e-05
 -2.8528500e-01
  6.2751882e-05
 -1.9290114e-02
  5.1162660e-05
 -7.7091968e-01
 -7.3220544e-05
  2.7521607e-01
 -2.2003680e-01
  6.3381779e-01
 -6.4272153e-06
  1.3225516e-05
  1.3839610e+00
  6.4219907e-03
  1.6902892e-05
 -1.8689296e-03
 -1.5270167e-05
 -1.7319448e-04
 -4.6329814e-04
 -8.5823286e-01
 -3.0037605e-03
  2.9100970e-04
 -4.5521963e-02
  1.1159399e-02
 -8.3571220e-05
  2.5973783e-04
 -1.5210803e-04
 -6.4264432e-06
 -4.0272607e-06
  1.6261354e-05
  1.1210584e-05
 -8.5740462e-03
  2.3137618e-02
 -7.2201020e-01
  1.7876581e+00
 -8.3207816e-01
 -5.1337725e-01
 -2.9404194e+00
 -5.5070198e-01
 -2.2079207e-06
  1.1103844e-02
  4.6181191e-05
  5.9775779e-05
 -3.6386743e-01
 -4.1916734e-03
 -7.3928066e-05
  4.4421344e-03
 -1.5883723e-04
 -3.5527578e-04
  1.7202834e-02
 -5.7584316e-06
  1.3720007e-05
 -3.2492643e-03
 -6.3712985e-05
 -3.2123622e-01
  1.6240434e-01
  1.4366816e-05
 -3.4044958e-06
  1.1271969e-03
 -6.1616211e-06
 -3.6483849e-05
 -4.0168461e-06
 -1.2810790e-04
  1.5272285e-02
  6.3991502e-06
 -1.4429252e-05
 -1.1112825e-04
 -5.6268287e-05
 -6.0427330e-05
 -3.9529273e-06
 -2.4759549e-05
 -6.9677781e-06
 -3.8323810e-06
 -1.2263205e-05
 -2.2147851e+00
 -9.0865061e-02
 -1.7405476e-01
  2.6508772e+00
  2.9903176e+00
 -9.0396516e-03
  9.1036528e-02
  1.6049000e-03
  5.0470536e-04
  1.0544955e-02
 -8.2466766e-05
  2.9780900e-03
 -3.1128027e-05
  2.3407924e-03
  1.0932372e-04
  3.6307082e-01
 -8.9963014e-06
  5.2987540e-05
  5.1908803e-05
  1.7951294e-05
 -4.3340857e-05
 -6.6850139e-06
 -5.4180855e-01
 -1.8618681e-02
  2.3207315e-06
 -8.4205412e-06
  5.6814903e-04
  8.3236715e-05
  1.1667043e-05
  2.9950029e-01
 -3.4586839e-05
 -5.6982881e-05
  2.0492279e-04
 -1.8307002e-03
 -1.3557355e-05
 -4.2896343e-05
  7.8524077e-05
  1.4928513e-05
  7.7575214e-06
 -4.0218096e-05
 -1.6429777e-03
 -3.1552354e-06
 -5.6634932e-03
  1.7858255e-01
  5.0634634e-02
  1.0457425e-01
  8.0770653e-01
  6.3015781e-02
  4.0759109e-02
 -3.1250198e-05
  9.5282208e-05
  1.8200490e-06
  8.7707907e-05
  3.6697790e-01
 -3.7083020e-05
  5.1917473e-04
 -1.5414205e-05
  2.5765602e-02
  2.7234299e-02
 -8.7972650e-05
  4.5163885e-02
 -3.7850447e-03
 -5.5057299e-05
 -2.9459727e-04
 -2.8996285e-02
 -4.9723089e-03
  2.2882103e-05
  6.6745980e-04
  1.4952419e-03
  4.6166783e-06
 -3.0556497e-05
  2.7790279e-03
  4.9351687e-03
 -3.7110516e-05
  6.4139456e-02
 -1.9578004e-04
  1.8765850e-05
 -5.3254325e-06
  1.5538759e-02
  1.6191090e-05
  2.0640806e-05
 -1.2828660e-04
 -2.2464732e-05
  3.8895823e-06
 -9.1605922e-03
 -1.2695073e-01
  1.1142467e+00
 -4.9984413e-01
  1.5226531e-01
  3.1642683e-03
  5.5983935e-02
  3.3763547e-06
  2.5117039e-03
  7.1016971e-06
 -7.1240780e-03
 -1.4184183e-05
  1.2526615e-04
  3.5736739e-05
  8.7382177e-05
  3.4056051e-05
 -1.6516100e-05
  4.9556485e-05
  1.1002122e-06
 -1.9025709e-04
  2.1143431e-05
 -1.4396991e-03
  1.1395320e-04
  3.5615893e-05
 -3.2127871e-06
 -9.4323377e-06
  1.8257182e-05
  3.2444874e-05
  3.9885390e-06
  1.0611359e-05
 -4.6190267e-05
 -1.7363405e-05
  8.2259336e-05
  1.5671546e-06
 -3.3731238e-05
  3.0148265e-06
  3.7981072e-06
 -3.6780988e-05
 -1.6103503e-04
  3.7126661e-06
 -2.2830920e-05
  6.6366529e-06
  5.7098787e-05
 -2.8087843e-05
  3.1620336e-06
 -1.4269083e-05
  4.6263474e-05
  7.1746590e-06
  3.0200068e-05
 -4.7160897e-06
 -1.4099029e-06
  2.0818227e-06
 -3.4835106e-05
  2.0454756e-05
  3.5033914e-05
  6.4151365e-08
 -2.0661326e-03
  2.4928718e-06
  2.2631971e-06
  5.7162932e-04
  7.9810101e-04
 -3.8056241e-05
  1.9447276e-05
  1.4956706e-04
  3.6548023e-05
  9.8272612e-05
  2.4744277e-06
  3.5868725e-06
  2.2327245e-05
 -6.6145476e-06
 -2.1037913e-03
 -7.6613514e-07
  1.5550821e-04
  4.9264881e-06
  9.2031428e-07
  4.4517961e-05
 -2.8600671e-05
  3.8703515e-03
 -1.2349087e-06
  2.9278797e-05
 -2.6316891e-07
  8.2173965e-06
 -1.7290651e-05
 -5.2751639e-05
 -6.0303724e-01
 -2.7005948e-04
  4.4764660e-04
 -2.8733134e-02
 -2.3574837e-02
 -1.5020844e-02
 -2.0540155e-01
  2.8152086e-03
  1.8380846e-05
 -6.1045998e-06
  1.5897773e-03
  7.7831741e-05
 -1.4152488e-06
  9.1189395e-06
 -2.5961951e-06
 -1.9133162e-05
  1.0096140e-06
  2.0154881e-05
 -2.6992361e-06
  4.2344622e-05
 -3.3077185e-06
  2.5971667e-05
  8.8572335e-07
  3.3304887e-06
  2.1349240e-05
 -7.7049990e-05
  2.3101487e-05
 -5.0953618e-06
 -4.5350840e-05
 -6.1694216e-03
 -1.0036815e-06
 -3.0776757e-06
 -7.5576754e-06
  2.3252876e-05
  3.8519406e-06
 -3.3586839e-06
 -1.5275967e-06
  3.1827237e-03
 -2.5866009e-06
 -3.0696145e-03
 -1.7168461e-05
  6.9165026e-06
 -6.3643801e-01
  1.1163951e-01
  4.3724278e-01
 -9.6758163e-01
  2.7041951e-01
 -3.4936449e-01
 -1.0973716e-01
  9.1094689e-06
  2.3473239e-04
  4.4555168e-06
  2.9486304e-04
  4.9222177e-01
 -2.3107606e-03
  1.8095827e-02
 -6.6355198e-05
  1.8572098e+00
  1.3639377e-01
  5.4295785e-03
  2.2583844e-01
 -6.1022365e-06
  8.2470015e-06
 -1.4836047e-05
 -1.7868210e+00
 -2.1177140e-01
 -2.6545303e-02
 -1.4832224e-05
 -9.9655308e-02
  4.8562422e-05
  4.2863252e-05
  7.0726894e-02
  4.0057521e-02
 -4.2299166e-06
  5.3887438e-02
 -7.1949385e-02
  3.2976259e-02
  2.7461800e-07
  2.6692933e-04
  8.9797813e-06
  2.4215162e-05
 -1.0643863e-05
 -5.9124554e-06
 -7.7046680e-06
 -1.3341101e-01
 -1.1421964e+00
  2.6531430e-02
 -2.0177022e-02
  1.2932364e+00
  1.4311620e+00
  4.2260581e-01
 -2.7257027e-05
 -3.5742642e-03
 -9.6716314e-05
  1.6991953e-04
  1.3927311e-01
  7.8078474e-06
  4.4831527e-06
  5.3824142e-06
  3.6840076e-05
  6.8433059e-04
 -6.6153713e-02
 -1.0307407e-05
  1.1567648e-03
  1.6966046e-06
 -3.5365396e-05
  8.4373519e-02
 -1.6946836e-01
 -2.6051718e-04
 -5.6570557e-06
  1.1785354e-05
  1.9618221e-05
 -3.3322733e-06
 -1.4542280e-02
  2.0160319e-03
 -2.1970117e-02
 -6.5136068e-05
 -1.5995167e-05
  3.9453398e-06
 -7.5294243e-05
 -2.1692954e-03
 -3.2577307e-05
  1.3182377e-05
  1.4074176e-03
  4.9236824e-05
 -2.0838626e-05
 -6.2756824e-01
  8.3985940e-02
  1.4132841e-01
  9.2493922e-01
 -1.6106097e+00
  4.4418357e-02
 -1.1415204e-01
  9.2384629e-03
 -4.3563683e-02
  2.2562508e-05
  3.7915022e-05
 -6.5993154e-05
 -8.2166662e-05
 -1.5193671e-05
  2.2350860e-05
 -1.4250745e+00
 -4.1799438e-05
 -7.3240813e-06
 -1.5381814e-02
 -3.1420242e-03
  5.7733953e-03
 -8.8641318e-06
 -9.3011987e-01
  2.0502421e-05
  1.5956569e-04
  1.5570951e-05
 -2.9020864e-04
  4.3830648e-03
  1.0204200e-08
 -1.2688724e-04
 -3.1654011e-03
  1.8083178e-05
 -3.3573771e-05
 -8.6524142e-06
  5.8805179e-03
  1.1495482e-05
 -4.7584699e-06
 -1.4401870e-05
 -1.0386919e-04
  8.3101813e-06
  3.6558758e-06
 -4.7210800e-05
 -4.1397107e-01
 -2.4553694e-01
 -2.3800645e+00
 -5.0867558e-01
 -1.1650547e+00
  1.6065906e-01
 -1.1323229e+00
  4.8559858e-03
 -2.2722312e-05
 -1.5570951e-01
  1.8138508e-04
 -2.9097420e-05
 -2.1255999e-05
 -3.9838891e-05
 -4.7635585e-06
 -3.1903559e-01
 -2.2766241e-01
 -1.7308039e-03
 -8.8483289e-02
  6.2975982e-06
 -3.4784732e-06
 -3.2386000e-03
  8.6673200e-01
  1.0223311e-01
  5.1743241e-06
 -6.3752974e-05
 -1.2750429e-02
  3.0985844e-05
 -5.4490893e-06
 -1.8984783e-03
 -2.1469319e-01
 -7.2075176e-04
 -3.0814052e-05
  5.6072408e-06
 -6.1401435e-05
  9.0549309e-03
 -3.1801553e-03
 -6.0293311e-03
 -5.3030450e-05
  6.8401285e-05
  6.8668442e-06
  2.1119818e-06
  9.9698794e-01
 -2.9665318e-01
 -1.4977172e-01
  6.4938462e-01
 -6.0471296e-01
  6.3350767e-01
  1.2395233e+00
  1.4037867e-04
 -1.5683531e+00
  7.9013174e-05
  1.1356232e-03
 -2.0943782e-01
 -1.5124748e-04
 -5.8657705e-04
  1.6049193e-05
 -1.5248115e+00
  3.4559313e-03
  2.4735294e-03
 -1.6002571e-03
  8.3287581e-05
 -9.4040018e-03
  3.5764257e-05
 -2.4872491e-01
  1.3032304e-03
  3.1329677e-03
 -7.2303548e-02
 -8.0309190e-02
 -2.4583179e-01
  1.1120088e-04
 -1.0906675e+00
  2.3164262e-01
  3.9701408e-04
 -6.5887212e-03
  6.0787359e-05
 -1.0380516e-01
  1.7103099e-05
 -1.5364683e-02
  6.6044100e-05
 -5.2160135e-06
  4.4382468e-06
  2.0476660e-05
 -4.3436819e-05
 -2.2801738e-05
  6.0481929e-05
 -1.7782102e-03
  6.4762682e-04
 -3.6713745e-06
  3.8645946e-04
  6.5728680e-05
  3.7472450e-06
  2.2908393e-03
  1.6464963e-05
  5.8251684e-05
  7.4621530e-05
  6.4131114e-06
  4.5749025e-06
 -3.0173094e-05
  4.6786881e-05
  2.8922768e-05
 -1.5097229e-05
  3.0195384e-04
 -2.6702689e-04
  1.5700788e-06
 -1.4380911e-05
  3.1757845e-05
 -1.2935173e-04
  5.1968791e-06
 -9.9228910e-06
  1.1545151e-04
 -1.5228394e-02
  3.3448150e-06
 -1.2995740e-05
 -1.8682903e-06
  3.1772365e-06
 -5.5765682e-05
  9.6913009e-06
  2.8479395e-03
 -2.2837769e-06
 -2.2646002e-06
  2.0375483e-06
  2.5790612e-05
  3.3871811e-06
 -1.7548491e-05
 -9.5604824e-05
 -5.0778151e-03
 -2.5031805e-02
  2.6675729e-05
 -6.0373195e-06
  3.0779621e-01
  1.1584763e-01
 -5.5565084e-05
  4.6042910e-06
 -1.3301184e-05
  3.3356829e-03
 -1.7939434e-05
  5.1200197e-05
 -5.3317111e-05
 -1.4044473e-05
 -3.3381852e-04
  4.3508871e-03
  9.8139804e-05
  1.0753148e-05
  1.2315990e-03
 -5.3317312e-05
  3.7442183e-05
 -2.5661200e-05
  1.5733205e-04
  2.1985436e-05
 -6.6533510e-05
  5.6450358e-06
  1.4047515e-05
  4.1154624e-05
  1.8692681e-05
  8.1741418e-06
 -2.2491101e-06
 -1.5194756e-06
  4.1331612e-03
  2.1532833e-05
 -1.4511117e-05
 -1.1325386e-06
 -9.4981115e-05
  2.0601059e-05
 -3.4206219e-06
  4.5228717e-03
 -2.1966469e-05
 -1.4538032e-05
 -1.5198085e-02
  5.1748049e-02
 -2.3293425e-03
  1.2840991e-01
  3.6305135e-01
  2.3756798e-01
  8.5080586e-02
 -2.0952886e-01
  4.9450085e-01
 -3.9199084e-01
 -2.3871273e-02
  6.2046778e-01
 -2.2106856e-01
  1.4238434e+00
  5.1961552e-02
  4.2247728e-02
  6.3820900e-03
 -9.9660650e-02
  3.9888012e-01
 -3.9448071e-02
  4.0260199e-01
 -2.6679879e-01
 -3.8734924e-02
 -2.7456926e-02
 -2.5708715e-02
  1.5621622e-01
 -1.4333004e-01
  4.4548190e-01
 -3.5272190e-01
  3.5153475e-02
  8.5153379e-02
 -4.1702497e-03
  9.6451759e-02
 -7.1253493e-02
  1.2563714e+00
 -2.4738856e-01
  9.8541832e-01
 -1.8462853e-01
  3.2348808e-02
 -3.5436150e-01
  2.4912381e-04
  2.9042010e-05
  4.4237021e-03
 -3.1408527e-01
 -8.4395385e-01
  1.0749419e+00
 -1.0905418e+00
 -1.3163366e+00
 -3.0366367e-01
  1.0842099e-05
 -3.7490656e-05
 -8.3541509e-04
  1.5566269e-05
 -7.7352306e-05
 -7.9001293e-05
 -4.4011216e-05
 -5.1845287e-05
 -2.4503507e-01
 -1.0437871e-04
  2.4561245e-05
 -1.2798765e-04
 -7.9910778e-06
 -1.1590500e-04
  4.5103170e-06
  6.2216216e-01
  3.7126739e-02
 -5.5099094e-06
  6.6759628e-07
  3.4714028e-06
 -3.2024152e-05
  1.5999065e-05
 -5.4350294e-02
 -2.0029864e-04
  1.9533771e-05
 -5.3952888e-05
 -3.7795933e-05
 -2.0880312e-05
  1.2415407e-05
  5.0690405e-06
  1.5597054e-05
  5.8789997e-06
  1.3488548e-06
 -5.0697895e-06
  6.5180007e-05
 -1.7773131e-01
 -9.3590462e-01
  1.3806601e+00
  7.7023339e-01
 -1.2573246e+00
  2.0188217e-01
 -1.0951617e+00
  1.7757423e+00
 -6.6422325e-01
  1.1058314e+00
 -1.0055311e+00
 -4.3819211e-03
 -1.6760223e+00
 -1.8975922e-04
  6.8771860e-06
  4.1922973e-03
 -3.2204194e-03
  1.3845290e+00
 -8.4371233e-01
 -1.1342586e-04
  3.0501308e-03
 -6.1830142e-05
 -3.7634932e-03
  8.2141261e-05
  7.5660044e-01
 -2.3267272e-05
 -6.9319785e-01
 -4.9220398e-04
  1.4144961e+00
  1.6370159e+00
  9.7360513e-05
  1.2893219e-03
 -1.9401585e+00
  6.9780630e-01
  1.4745761e-01
 -3.1489351e-01
  5.3524637e-01
 -1.1121722e+00
  3.3428568e-01
 -6.4516710e-03
 -6.6001266e-01
 -9.9656689e-01
 -3.3525631e-01
 -1.9134648e-01
  1.4692386e+00
 -1.0163270e+00
  4.6520191e-03
  6.9516145e-02
  5.6373518e-02
  3.6390338e-02
 -3.0636942e-01
 -1.1462402e+00
  1.8439864e-01
  1.9946456e-01
  7.2863716e-01
  6.2951553e-01
  3.8404500e-01
  5.8398491e-01
  6.5975767e-01
  5.1000166e-01
  1.8897936e-03
  1.1586564e-01
 -2.1522522e-01
 -2.8981836e-04
  2.1210543e-04
 -9.8238082e-04
  8.1219517e-02
 -1.3450663e+00
  2.6771173e-01
  9.2415285e-06
 -1.8164795e-02
 -2.2686530e-04
 -3.8841492e-01
  4.1178188e-05
  7.0949191e-01
  1.4882410e-05
  6.3558614e-01
 -1.9305336e-01
 -2.8241697e-01
  3.1712192e-01
 -1.1395552e-05
 -2.0290808e-01
  2.4567244e+00
 -9.0824760e-02
 -3.3471787e-01
 -2.5300726e-01
  1.9356455e-01
  1.0927255e+00
  1.3836853e-01
  1.8855976e-02
 -1.2699549e-01
  7.2559428e-01
  3.1269222e-01
 -2.6476863e-01
 -4.9386460e-01
 -6.2203628e-01
 -8.8248332e-04
  5.2325722e-02
  1.4965086e+00
 -1.7785421e-01
  3.6398077e+00
 -5.7981312e-01
 -1.8009411e+00
 -2.7779467e+00
  1.6014658e+00
  6.2751538e-01
  1.1905456e-01
  1.1836956e+00
  8.3848000e-01
 -2.6223007e-01
 -1.1153429e+00
 -9.4432712e-01
 -1.5376121e+00
  3.6889811e+00
  2.6163033e-01
 -1.5208812e+00
  4.8550519e-01
  3.6235440e-01
  1.4779425e+00
  9.1075289e-01
  3.6028889e-01
 -6.4043742e-01
 -5.6589532e-01
  1.6264942e-01
  5.0456500e-01
 -4.3330736e+00
  3.9453742e-01
  6.2720615e-01
  2.6868415e+00
  1.4473035e-02
 -3.8521940e-01
 -1.1708100e+00
 -6.0795116e-01
 -2.6580253e-01
 -3.3775043e-01
 -2.3761330e+00
  4.5556083e-01
 -1.1669068e-01
 -7.1867561e-01
  1.0018741e-01
  9.9830377e-01
  6.6405624e-01
 -5.0916370e-02
 -4.7929016e-01
  1.4719065e-01
  6.5202945e-01
  2.1664355e+00
 -1.1570312e+00
 -1.6017790e+00
  1.1974612e+00
  1.1677308e+00
  7.2541159e-01
 -7.0996684e-01
 -3.2255268e-01
 -1.0892012e-01
  4.0225822e-02
  5.1177400e-01
  4.6043825e-01
 -2.7011759e+00
  4.3631923e-01
 -3.0909154e-01
  2.6532803e+00
  8.8583374e-01
  3.9614961e-01
 -1.2561460e+00
 -5.6193012e-01
 -5.8690029e-01
  4.3701321e-01
  1.4649786e+00
  2.9064882e+00
 -1.7313449e+00
 -5.8244866e-01
 -1.9073396e+00
  2.2443648e-01
  2.9778549e-01
  5.2686226e-01
  2.4017657e-01
  2.5948900e-01
 -7.9114221e-02
  2.0745032e+00
  4.4231084e-01
 -6.6975057e-01
 -1.3107141e+00
 -1.5068204e+00
 -3.8357366e-02
  3.9467737e-01
  5.8350867e-01
 -1.2995672e+00
 -4.3029007e-01
  2.9613516e+00
  1.4735987e+00
 -1.6392688e+00
 -2.5154407e+00
 -2.0211066e-01
  1.0792707e+00
  7.5260359e-01
  6.7911661e-01
 -2.4780755e-01
  1.7676686e-01
 -5.1970339e-01
 -1.5785978e+00
  4.1742872e-02
  5.2395529e-01
  2.9765895e-01
 -3.8212192e-01
  5.6723338e-01
 -1.2677784e+00
 -5.8134997e-01
 -7.3550165e-01
 -8.1719810e-01
 -5.7700157e-01
 -1.9821629e-02
  3.0926609e-01
  2.3089556e-01
  8.1886429e-01
 -8.5642844e-01
  3.2955834e-01
  1.3454816e+00
 -8.1342429e-01
 -2.1017265e+00
 -1.6802380e+00
 -6.2949294e-01
  6.3628601e-03
 -1.2591034e-01
 -1.0205948e+00
 -1.6873989e+00
 -6.2276053e-01
  9.3018925e-01
  1.0242840e+00
  1.3439524e+00
 -4.2144614e-01
 -1.1594571e-01
  7.4903405e-01
 -2.8554027e+00
  2.5511333e-01
  3.5063839e-01
 -4.0292001e-01
 -1.3494254e+00
 -3.2476270e-01
  3.5280013e-01
  6.8667233e-01
  2.5192728e-02
  2.5192728e-02
  2.5192728e-02
  2.5192728e-02
  2.5192728e-02
  2.5192728e-02
  2.5192728e-02
  1.2635380e-02
  1.2635380e-02
  1.2635380e-02
  1.2635380e-02
  1.2635380e-02
  1.2635380e-02
  1.2635380e-02
  2.3594568e-02
  2.3594568e-02
  2.3594568e-02
  2.3594568e-02
  2.3594568e-02
  2.3594568e-02
  2.3594568e-02
  2.3497570e-02
  2.3497570e-02
  2.3497570e-02
  2.3497570e-02
  2.3497570e-02
  2.3497570e-02
  2.3497570e-02
  1.1361231e-02
  1.1361231e-02
  1.1361231e-02
  1.1361231e-02
  1.1361231e-02
  1.1361231e-02
  1.1361231e-02
  1.2241715e-02
  1.2241715e-02
  1.2241715e-02
  1.2241715e-02
  1.2241715e-02
  1.2241715e-02
  1.2241715e-02
