nep4_zbl 1 Ne 
zbl 0.8 1.6
cutoff 6 6 46 46
n_max 6 6
basis_size 10 8
l_max 4 2 0
ANN 50 0
  2.5225632e-02
 -5.0283434e-05
 -1.5085529e-01
  8.7919496e-02
 -4.3120384e-01
  2.9754045e-04
  1.7995316e-01
 -3.3834272e-05
  1.3971793e-05
 -7.1556853e-05
 -1.2282630e-05
  2.0294230e-05
 -2.9422026e-07
  7.3096680e-06
  2.2593948e-05
 -4.1284666e-06
  1.0283799e-05
 -3.2201428e-06
  2.1279213e-05
 -1.1214658e-05
 -3.2442931e-06
  1.0661390e-01
  7.2967150e-06
 -1.9521760e-05
  1.7812323e-05
  1.3327406e-05
  1.0848932e-04
  7.9875972e-06
  9.8795885e-05
 -1.1188225e-05
 -1.4180881e-04
 -1.1414338e-05
  5.7191355e-04
  1.1354081e-06
  7.3461565e-06
  4.7001486e-06
  9.8878754e-06
  6.3074035e-06
  4.4449320e-05
 -6.4815695e-06
 -3.2181419e-05
 -7.4215732e-06
 -4.1101839e-06
  1.4458881e-05
 -3.0368294e-06
 -7.1913801e-06
 -9.2171285e-06
  2.5386904e-05
 -6.0027310e-06
  8.0986647e-06
  2.3564384e-05
  1.1619519e-05
  3.7412503e-06
 -6.8110921e-06
  4.0565958e-08
  7.6112269e-07
  2.7880615e-06
 -1.0464605e-06
 -1.1873827e-05
 -1.3362090e-05
  5.0314629e-05
 -3.8830303e-06
  6.5058093e-06
  4.0806035e-06
  1.6772422e-07
 -8.6041618e-06
 -9.4821155e-07
  3.1458916e-07
  1.3780189e-05
 -6.6182161e-05
 -2.7368191e-05
  1.7571641e-05
  1.1080342e-05
 -4.8692973e-06
  1.8313797e-06
  1.5451535e-05
 -2.1687624e-06
 -2.5948673e-05
 -6.2194299e-06
 -1.4787010e-05
 -3.0839921e-05
 -1.6986471e-05
  1.0520273e-05
  6.7952064e-06
 -2.1856691e-01
 -9.2372848e-06
  2.1265353e-01
 -5.4326802e-02
  5.1208127e-01
  1.7903227e-02
 -1.9904021e-02
 -3.8950117e-07
 -7.6178534e-05
  1.8003836e-04
  5.8351219e-05
  3.6171278e-07
 -7.8484760e-08
  2.8341075e-05
  6.6153370e-06
 -1.0330704e-05
 -2.6417820e-04
 -5.5312099e-05
 -1.7044715e-05
 -3.5023450e-06
  1.9907935e-05
 -7.6436633e-01
 -1.6161621e-05
  9.1921735e-05
  6.4723135e-05
  2.1592637e-06
  4.4831258e-06
  6.0069392e-06
  1.3900868e-04
 -5.1729030e-06
  7.9254026e-04
  1.8301796e-05
 -2.5418976e-03
  8.8006045e-06
  5.5660066e-06
 -1.5576808e-05
 -6.5705963e-06
  1.8495821e-06
  6.0928447e-05
  9.3217841e-06
  1.0360514e-05
 -1.6740158e-05
  1.2482393e+00
  5.3978527e-01
 -3.7393963e-01
 -2.1632643e-01
 -3.8899153e-01
  2.2971585e+00
 -1.8861716e+00
  2.3002028e+00
 -7.0365429e-01
  4.5173075e-03
 -1.0651082e-05
  2.4273088e-04
  7.3601133e-01
  4.3135852e-01
  3.9480245e+00
 -1.1239122e-01
  2.8535560e-02
  1.2636595e+00
  2.4504291e-01
  8.2901543e-01
  1.1310079e+00
  2.8599632e+00
 -1.0015866e+00
  7.8247331e-02
 -2.3094472e-01
 -2.6411059e-01
  1.2197938e+00
  7.3365921e-01
  1.7829547e+00
 -2.9049230e+00
  1.3091917e-01
 -1.2941527e-01
 -1.8856852e-01
  1.1906947e+00
  1.2835772e+00
  9.0730101e-01
  9.8058554e-05
  6.0250877e-05
  6.5269984e-02
  1.0798334e-05
 -6.5291692e-06
  2.4728764e-05
 -2.6206771e-01
  5.6337956e-03
 -4.5249555e-03
  1.2416363e-05
  3.9149559e-04
 -2.7123434e-04
  4.9898632e-02
 -2.8633726e-06
  1.5464045e-06
  7.8527064e-06
  8.2802471e-06
 -2.3388049e-05
 -9.8925644e-05
 -7.2166058e-06
  3.4266224e-05
 -5.8516048e-07
 -3.0225836e-05
  8.0508407e-06
 -1.9396981e-04
 -1.0106689e-05
  1.1136535e-05
  3.2520562e-04
  8.2205397e-06
 -5.3199424e-06
  3.0426394e-05
 -3.0821870e-05
 -7.6363749e-06
 -2.2097287e-05
 -5.4495190e-06
 -2.9887386e-05
 -2.5278048e-05
  8.5551335e-05
  4.0529583e-05
  1.5399926e-05
  8.8720772e-05
 -3.2926375e-05
 -2.5224820e-06
 -8.7709586e-06
 -2.1141679e-05
 -8.6315558e-06
  1.5999323e-05
 -1.7237757e-05
 -2.0630884e-03
  1.0939214e-06
 -1.1912847e-04
 -5.9286402e-05
 -7.3532778e-01
 -1.2168786e-05
 -2.6960377e-02
  6.2610366e-06
  7.2703961e-06
  1.6547012e-05
  1.4736757e-05
 -1.8736739e-06
  3.0775638e-05
 -2.6182750e-05
  1.2367215e-06
  4.7149587e-07
 -1.9400309e-06
  4.8035299e-06
  1.2130417e-05
 -1.2439277e-06
  7.7569333e-05
 -4.3004435e-03
 -1.6657666e-05
  1.0270497e-04
  2.7877089e-05
  1.1644142e-05
 -2.1586477e-05
  8.6643076e-06
 -1.4943294e-05
 -1.0133211e-05
 -5.7626112e-06
 -8.7484907e-05
 -8.7021244e-06
  8.5368620e-06
  1.0553319e-05
 -7.1259278e-06
 -2.7288453e-07
  1.5663445e-05
 -4.6834271e-07
 -2.7975316e-06
  1.7929751e-05
  8.0886557e-06
 -1.7269829e-01
  8.8301378e-05
 -1.2521419e-03
  6.5968059e-05
 -7.2861679e-02
 -5.7266957e-06
  1.4733816e-02
 -1.3198991e-06
  8.6763994e-06
  1.4063216e-06
  2.3046218e-06
  6.6891822e-05
  2.7618778e-04
  9.4058269e-06
  1.6136270e-05
 -1.7927665e-05
  9.7278382e-05
  6.7265350e-06
  1.6667023e-05
 -7.4771094e-08
  1.6348764e-05
  1.7185657e-05
 -2.6162484e-06
  9.4003517e-06
  6.7667988e-06
  1.7979632e-05
 -6.0978255e-06
 -3.8460448e-06
  2.4908383e-07
 -9.2926875e-06
 -3.9977182e-05
 -1.7964290e-05
  1.3980033e-05
  1.3109405e-06
 -2.5585666e-06
  1.8041703e-05
 -1.0791967e-05
  2.6155012e-05
 -4.1588177e-05
  2.0832620e-05
  1.3225963e-06
  1.2233952e-05
 -1.0446721e-01
  1.6268704e-02
 -3.9172623e-02
  1.2730411e-05
 -9.7714255e-05
 -1.4763145e-03
  2.4788756e-02
 -1.3636825e-04
  1.1156552e-04
 -2.9611023e-05
  2.0749951e-05
 -1.0930384e-05
 -6.8540485e-06
 -1.1264033e-05
  5.4033643e-07
 -2.0818579e-05
  6.0151426e-05
 -5.8299538e-06
 -1.1145226e-05
 -5.0811295e-06
 -3.7708123e-05
 -4.8359936e-05
  1.3833194e-05
 -2.4226840e-05
 -3.9428302e-05
 -2.5815176e-05
  1.5508562e-07
 -6.2258652e-05
  1.5779931e-05
 -8.1884518e-06
 -2.4351046e-05
  9.4409252e-06
  1.2882761e-05
  4.0493755e-06
 -6.3851957e-07
  2.5165795e-05
 -1.6774396e-05
 -4.5161887e-06
 -1.2830470e-06
 -9.2678620e-06
  4.4136254e-06
  2.8128114e-05
  6.3587207e-01
  6.8720281e-01
 -3.1860005e-03
  2.2325134e-05
 -1.4168777e-01
 -3.1738386e-05
  5.1731217e-01
 -7.7496785e-05
  2.3165962e-06
 -8.0904989e-03
 -9.7631646e-06
  1.5617161e-04
 -7.5031217e-06
 -8.1185199e-06
  2.9487851e-06
  1.3842458e-05
 -1.7101743e-06
 -1.7967446e-07
  2.7660071e-06
 -2.6549704e-05
 -1.9978345e-04
  1.1755009e-02
  4.1564331e-06
  2.5703890e-05
  4.0099898e-05
  4.6714108e-06
  1.2744702e-05
 -1.5393542e-05
  2.4739894e-04
 -2.0723004e-05
  6.9133949e-07
  1.9649703e-04
  5.0330473e-06
  9.4467941e-06
 -4.8572480e-07
  2.3218613e-06
  3.5968676e-06
 -2.0089497e-05
  9.3041908e-06
  1.3532292e-05
 -5.6774002e-07
 -4.2309630e-06
  1.7797678e+00
 -1.7307228e+00
 -1.3275899e+00
  4.3395326e-02
 -1.4908564e-01
 -1.0165626e+00
 -1.3277255e+00
  6.9301188e-01
 -7.6283711e-01
  5.7309942e-04
 -5.3211721e-03
  6.5314904e-02
  2.5114781e-01
  3.0553365e-01
  6.8120301e-01
 -4.1054094e-01
 -2.0744258e-01
  4.1836739e-01
  4.2108122e-01
  2.7876422e-01
  4.2696601e-01
  1.2749279e+00
 -8.9280653e-01
  7.7514178e-01
 -2.6582441e-01
 -2.0940639e-02
  6.5833968e-01
  5.8439583e-01
  1.0099115e+00
 -3.4457672e-01
  2.7443698e-01
 -9.5677119e-01
  6.6414541e-03
  1.0697329e+00
  4.7972915e-01
  2.3953807e-01
  2.3640250e-05
 -8.3496789e-06
  1.2437448e-04
 -4.0343234e-06
 -1.3407835e-05
  3.3671669e-05
  3.3271313e-02
  2.7952542e-06
 -1.8732276e-04
 -2.4745677e-05
 -7.6916856e-01
 -9.1494503e-06
 -2.1136715e-03
  1.9941586e-05
  1.8792600e-05
 -1.3169346e-05
  1.7904654e-06
 -3.8465596e-06
  8.2083197e-06
  1.8183267e-05
 -2.9198063e-05
  4.1766343e-06
  1.8431978e-05
  1.4362379e-05
  8.6158725e-06
  6.6015423e-06
 -5.7481689e-06
 -2.5529132e-04
 -1.1537980e-05
 -2.4281302e-05
 -1.5919381e-06
 -1.3289760e-05
 -2.4718343e-06
  2.0763225e-07
  5.5175082e-05
 -2.8393549e-06
  1.0538631e-05
 -4.1959711e-06
 -1.4787614e-05
 -3.6224414e-05
  3.8518801e-06
  1.2934935e-05
 -7.0526280e-06
 -1.7889519e-06
  1.2329941e-05
  2.3589573e-06
  5.7666733e-07
  5.1157458e-05
  1.4450436e-02
 -3.9941681e-04
  3.2590982e-04
 -6.5205822e-06
  2.4591529e-04
  4.1774543e-05
 -5.8531407e-03
 -8.9564364e-06
 -7.2800808e-06
  2.0964342e-07
 -2.2859776e-05
 -4.3181983e-05
 -1.4614858e-05
 -3.3888912e-06
 -6.0643720e-07
  3.1351210e-05
 -7.7654004e-06
 -2.2119535e-05
 -3.4624692e-05
 -9.4949419e-06
 -8.0669515e-06
 -1.6745964e-05
 -1.1329836e-05
  2.6375594e-04
  3.8188068e-06
 -5.3938078e-07
  1.0119072e-07
 -7.0385468e-06
  5.0313697e-06
  1.1324158e-05
  8.1732505e-06
 -2.9595628e-06
 -3.5247017e-06
  6.3011823e-05
  3.1547410e-05
 -2.1292330e-05
 -8.2170145e-06
 -1.5141056e-06
 -8.7398530e-06
 -8.1555690e-06
  1.9429393e-05
  4.4356653e-05
  5.9502363e-01
  6.6009488e-05
  6.3809022e-02
  2.4072656e-02
  6.3379645e-02
 -1.6526996e-04
  7.3765665e-02
 -6.5796230e-06
  1.2550879e-05
 -1.1981235e-01
 -1.6146061e-05
 -9.0277799e-06
  3.0420917e-06
 -2.0203861e-06
  1.3624398e-04
  1.8310833e-05
 -1.7034052e-05
  2.9200908e-05
  1.0261676e-05
  1.8594249e-06
 -4.3537689e-06
  2.3636769e-01
  2.1704203e-04
 -8.4444611e-05
 -4.3675419e-07
  1.5938751e-05
  1.1469313e-05
 -2.6688951e-07
  2.7100705e-02
 -2.0058822e-05
 -1.5060143e-05
  3.5251040e-05
  4.9837658e-05
  1.3990290e-05
  3.2244428e-05
 -3.9737774e-06
  2.1277070e-05
 -5.2783216e-06
 -1.2062180e-05
  4.7573150e-05
  3.0992971e-05
 -1.0146093e-05
 -5.3386731e-05
 -4.5145853e-06
 -4.0712119e-05
 -1.2116402e-06
 -3.1006079e-05
 -1.3845115e-05
  1.4015888e-05
  4.2468432e-06
  1.8793004e-05
 -3.1023752e-05
 -3.1589097e-05
 -1.4118794e-05
  5.7233315e-06
 -9.9094177e-06
  3.3038334e-05
 -1.2780476e-06
 -2.0686748e-05
  1.5631745e-06
  9.7279117e-06
  1.1131347e-06
  4.1546155e-06
  4.5295496e-05
  3.2983939e-06
 -2.6583022e-05
  1.5198630e-05
 -2.0822332e-05
  2.2400218e-05
  2.2931677e-05
 -7.2584371e-06
  1.3348475e-05
  3.1649042e-06
  3.3655884e-05
 -6.9693915e-06
 -8.9662103e-07
 -2.1202890e-05
  2.8316968e-05
 -6.1596867e-05
  1.5153211e-05
 -5.0434650e-05
  8.4711501e-04
 -1.4746614e-05
 -1.1069210e-05
  1.7693510e-05
 -5.2499163e-01
  3.5264253e-05
 -1.3762067e-05
 -3.8836470e-01
  2.6568539e-05
 -2.0459823e-03
 -1.3778502e-05
 -4.0802205e-04
  3.3768829e-05
  1.2339976e-04
  6.2818690e-06
 -1.1267641e-06
  8.1225835e-09
 -5.6136482e-06
  2.5422046e-06
  5.1376664e-05
  2.5829171e-05
 -8.3019868e-06
 -6.8182117e-06
  6.0000166e-05
 -1.7965682e-04
  2.4192317e-05
  1.3642247e-04
 -1.1395391e-05
 -8.7998305e-06
 -4.4484845e-05
  5.5670654e-07
 -3.5917282e-04
  3.5340832e-05
  1.3735976e-06
 -7.3616688e-06
 -8.9668911e-06
 -1.5948988e-05
 -3.7840641e-06
 -2.9784951e-06
  3.0405404e-06
  1.2025776e-05
 -1.3440628e-04
  1.0165568e-06
  6.7062065e-06
 -8.0469836e-05
 -2.0196967e+00
 -3.7491044e-01
 -2.6008544e+00
  7.3918477e-06
  1.9635264e+00
 -2.9993027e-01
 -1.6455189e+00
 -3.0100851e-05
 -5.7125494e-06
  2.8498682e-01
 -2.6164757e-06
 -9.6273925e-06
 -1.0956579e-05
  1.6614260e-05
 -3.9585252e-06
 -2.5435268e-06
  1.4216083e-07
  2.0758162e-06
 -4.1177864e-06
  6.9105436e-06
  2.7211052e-05
 -4.2445354e-02
 -2.5048424e-03
 -1.1778899e-05
  4.9567079e-05
  1.1118717e-05
 -1.1706854e-05
 -9.3972476e-06
 -1.7404140e-04
 -2.3137119e-04
 -1.2166023e-02
 -2.2573260e-05
 -4.9569599e-07
 -3.5016703e-05
  3.2846951e-06
 -5.8353589e-06
  9.0747935e-06
 -1.0050588e-06
  9.9056306e-06
  2.6534144e-05
  1.8288938e-05
 -3.9593274e-06
 -2.3249657e-05
 -4.7965110e-05
  1.2429588e-04
  1.0995465e-05
  1.9656478e-04
  2.3490145e-06
  8.8672074e-05
  1.3131632e-05
 -8.4648791e-06
 -1.4008332e-05
  9.2140705e-05
 -1.4905183e-05
 -4.3514824e-06
 -1.3879806e-05
  1.0742667e-05
 -8.6323753e-06
 -2.1766868e-05
 -9.0123518e-07
 -3.4113080e-05
 -8.3313716e-07
 -7.3063884e-06
 -6.6405257e-05
  2.1014845e-05
  5.4350139e-06
 -5.6328627e-06
 -3.2263147e-06
 -1.7107785e-05
  2.9043751e-05
 -4.9510954e-06
 -9.8448409e-06
 -7.9846831e-07
 -1.7837134e-05
 -1.1159978e-05
 -2.3003724e-05
  1.5651696e-05
  7.3382621e-06
 -2.5441973e-06
 -1.0534156e-05
 -1.2825874e-05
 -1.0787669e-06
  2.4457026e-05
  2.5477371e-05
 -2.4593718e-01
  5.6965268e-06
 -1.4936425e-03
 -2.6217418e-05
  6.1349965e-05
 -1.5583052e-04
  1.4481802e-02
  6.7193241e-06
 -1.0483354e-05
 -7.8441430e-05
 -1.0782361e-07
 -4.3723362e-06
 -1.3695809e-05
 -2.0101503e-04
 -1.3171553e-05
  1.0036293e-05
  4.7195637e-05
  4.6289475e-05
 -3.9624065e-05
  1.9172652e-05
 -4.1572002e-05
  2.9302872e-04
  1.4619133e-06
  1.4935719e-05
  1.5317315e-05
  2.4818416e-06
  2.7984372e-06
  1.2266634e-06
 -1.1323092e-06
  1.6634987e-05
 -6.0286525e-06
  1.0651486e-05
  5.4319698e-05
  5.0696203e-06
  5.4184934e-06
  2.8712979e-05
 -3.9295581e-05
  1.6890709e-06
  4.3520608e-06
  1.9952728e-05
 -3.4950626e-05
 -4.2889962e-05
  2.7329645e+00
 -8.1806797e-01
 -1.0072653e+00
 -5.8564901e-01
 -4.0970159e-01
 -7.0870930e-01
 -1.7421422e+00
  5.4582004e-05
  1.5679958e-01
  3.4543741e-01
  4.6143445e-01
 -2.1286155e-01
  6.5830754e-06
 -6.1623883e-05
 -2.0279216e-04
  1.9311394e-01
  4.0186918e-01
  7.1047708e-02
 -9.7457796e-02
 -8.0847021e-06
 -2.1819680e-05
  1.0946890e+00
  1.6771989e+00
  9.9151798e-02
  3.3455199e-01
  5.2074543e-03
 -5.2965468e-01
 -8.9366138e-03
  1.6411368e+00
  1.0907910e+00
 -2.0148994e-01
  3.0702469e-03
 -1.1446904e-01
 -1.4459677e-01
 -1.5134609e-01
 -3.1071071e-05
 -3.1402849e-06
  4.1552030e-06
  1.5362119e-05
  1.6864584e-05
 -1.4034954e-04
  1.7223145e-05
 -3.0437684e-02
  3.1092040e-05
 -5.5183965e-04
 -5.9515573e-06
  8.7966651e-02
 -1.9988478e-05
  2.0690847e-04
 -2.8944245e-05
 -2.1853728e-05
 -1.8005436e-05
 -4.1505518e-06
  2.0776430e-05
  1.4139431e-05
 -2.6404274e-05
  2.3834803e-06
 -4.1908388e-06
  3.8808539e-05
  1.8093453e-05
  2.4531410e-05
 -2.1365070e-06
  8.7648077e-06
 -2.1954405e-05
 -2.0334781e-05
  2.5754725e-06
  2.6708347e-05
  4.7829290e-06
  6.9170405e-06
 -4.9698083e-06
 -8.4578260e-06
  5.2982946e-06
  8.6007112e-06
 -5.8744995e-06
 -8.6358741e-05
  1.0439800e-05
 -3.9742717e-06
  6.1290307e-06
 -1.8918012e-05
 -4.0587779e-06
  3.1024836e-05
  4.8492151e-05
 -4.0348434e-05
  3.0675099e-06
 -1.6809306e-01
  7.7999786e-05
 -3.7672231e-03
 -8.2585357e-06
  1.2099066e-05
 -8.6230262e-05
  2.5744775e-02
 -4.0982577e-06
  5.7522589e-05
  2.6138371e-06
 -1.9290055e-06
  6.3874672e-06
  6.6009493e-06
 -1.1842232e-05
 -9.4783780e-07
  2.1707024e-06
 -5.4643264e-05
 -2.5420001e-04
 -1.6916818e-05
  1.1313759e-05
 -7.4474498e-05
  2.7741233e-04
 -9.4207404e-05
  1.5264517e-05
 -7.8723469e-04
 -2.6428010e-05
 -3.1376458e-05
  6.1989408e-06
  3.1501662e-05
 -8.8335401e-06
  6.0270158e-06
  2.1129210e-06
  1.7490504e-05
  3.4535889e-05
 -9.9626618e-09
  1.0197153e-05
  3.1962285e-05
  4.7511898e-05
  1.0782911e-05
 -2.2141985e-06
 -1.9212914e-05
  3.3506885e-06
 -3.6574442e-02
  1.8486455e-05
 -7.5572179e-06
 -7.2651528e-05
  6.4190644e-01
 -6.5353385e-04
  6.7810774e-02
  6.4228033e-07
  1.5026137e-05
 -5.5904761e-06
  5.4886027e-07
  1.5963946e-05
  3.8140261e-05
  1.0045440e-05
 -4.2186775e-07
 -4.5746833e-07
  2.2956385e-05
 -1.2971460e-06
 -2.2424929e-05
 -1.0950336e-05
  3.1964628e-05
 -4.7242191e-02
 -1.2948135e-05
  3.2741762e-05
 -1.0337370e-04
  8.5539605e-06
 -1.1368174e-04
 -4.6530299e-06
 -2.3825054e-05
  2.5137857e-05
 -2.2383233e-06
  5.2522441e-06
 -1.5062689e-04
 -6.1172341e-06
 -3.1003667e-05
  4.4950534e-06
  8.4138010e-06
  9.3692910e-07
  4.6741357e-06
  9.3502376e-06
 -7.7511149e-06
 -1.1478292e-05
 -9.5016009e-01
  9.1253296e-06
  4.9567352e-05
 -9.9016934e-06
 -2.5050271e-01
  2.1376669e-05
 -1.1312167e-02
 -2.2563822e-06
  3.6837951e-05
 -1.7576036e-05
  3.2865883e-06
 -9.1718648e-06
 -1.9579576e-05
  1.7984439e-06
  3.0105537e-05
 -4.4987455e-06
  1.8215620e-05
 -7.5362632e-06
 -7.7935874e-07
  5.0420399e-06
 -1.3403922e-05
  1.0462205e-05
  3.6019894e-06
 -7.2408426e-07
  4.0096470e-06
 -8.3305713e-06
 -1.6595905e-05
 -4.5315296e-06
 -5.5480805e-06
  8.7845046e-06
  2.2674178e-05
  1.6522777e-06
  6.1139053e-06
  2.4578798e-05
 -6.6793618e-06
 -1.0025582e-05
 -7.9049260e-06
 -2.9383682e-05
 -1.2842627e-05
  5.5774844e-06
 -2.1955810e-05
 -3.7745820e-05
  1.1134756e-01
  2.2518899e-01
  2.2288948e-01
 -1.2483525e-01
 -4.3334797e-02
  8.7672688e-02
 -1.6099495e-01
  1.3606833e+00
 -1.6184889e-01
  1.1369722e-01
  1.5681201e-01
  4.4743744e-01
  1.5900229e+00
  1.4458216e+00
  4.4980434e-01
  3.3202715e-02
  1.1995514e-01
  3.4616131e-02
  7.3683754e-02
  1.1188672e+00
  1.5397133e+00
  2.0306748e-03
  5.3567211e-03
 -4.3770797e-03
 -4.0740393e-02
 -7.8864275e-03
  1.4526941e-01
  4.9923161e-01
  5.7977188e-02
  3.7401084e-02
  1.6013019e-02
 -3.4802921e-02
 -1.7623600e-02
  1.8527806e-01
  2.5779077e-01
  1.0790430e+00
  1.0969188e-01
  6.2270496e-02
  3.1911618e-01
  3.5786451e-07
 -2.2047539e-01
 -9.4025806e-03
 -2.9310957e-01
  2.5358841e-06
  4.2619836e-04
 -8.0613256e-07
 -4.8493230e-01
  3.1548960e-04
 -4.1957416e-02
  1.7766833e-05
  2.0984531e-05
  2.7915951e-06
 -2.1817576e-05
 -5.5668320e-06
  1.8310133e-05
  8.9311943e-05
 -2.2624405e-05
 -9.1342154e-06
  5.9761434e-05
  1.4287582e-05
 -2.0915745e-06
  2.7999216e-05
 -3.2283958e-07
 -3.6366664e-02
 -2.0019817e-05
  2.0602092e-05
  1.1826921e-05
 -5.2002521e-04
 -2.4791034e-05
 -9.3278777e-06
 -2.3827792e-05
  2.8020029e-06
  5.8708014e-05
 -1.7058537e-06
  1.5800126e-05
 -1.2654013e-05
 -7.5612338e-06
  2.7725779e-05
  1.9115281e-05
 -7.7858667e-06
 -4.7855447e-05
 -8.7752578e-06
  7.3082133e-06
  6.6030034e-06
  1.1623354e-01
 -7.0668309e-04
  6.2898132e-03
 -1.3149042e-04
  1.3164633e-05
  4.0634261e-03
 -2.6623685e-02
 -7.1702134e-06
 -4.6218502e-06
 -1.5238275e-05
 -1.6912732e-05
 -1.8780605e-05
  9.8243190e-06
  2.1974151e-05
  4.6715490e-06
 -1.0318528e-05
  2.1674603e-05
 -1.6753414e-05
  5.1303410e-05
  3.4352746e-05
  1.4685590e-05
 -2.4364317e-05
  9.1950009e-05
  2.4058796e-05
  4.4997122e-07
 -1.2679099e-05
 -2.4181149e-04
 -1.0365480e-05
  6.7407171e-05
  1.8795021e-06
  6.9061200e-05
 -1.8838760e-05
 -2.0049911e-05
  4.0951476e-05
  7.9831907e-06
  2.9880265e-04
  1.3202443e-04
 -2.1722283e-06
  1.2295190e-05
 -1.1092026e-05
 -1.4159717e-05
  7.5503654e-06
  6.6442633e-01
  2.3358367e-02
 -1.8929252e-03
  2.8797409e-02
  1.4610457e-01
  3.6591449e-05
  3.4524432e-01
 -7.0736328e-06
 -1.9584874e-04
 -4.0911371e-01
 -3.4915734e-05
  1.8279010e-05
 -1.9556430e-07
  2.5955494e-05
  9.7968928e-05
 -9.1796674e-06
 -4.0701507e-06
  8.6279369e-06
  2.6347795e-06
 -1.0799881e-05
  2.4433664e-06
  4.9820772e-01
  3.0917814e-03
 -4.6200217e-05
  6.2172953e-06
  3.9151750e-05
  5.5648634e-05
 -1.7027163e-05
  1.7627648e-01
  1.1094058e-05
 -4.0001320e-05
  1.8447394e-05
  4.6143157e-04
  9.5231307e-04
  1.8748491e-05
  8.8440429e-06
  3.7104292e-05
 -1.9040301e-06
 -4.3330503e-05
 -2.8173754e-06
 -2.2826303e-05
  2.8485565e-06
  1.3943724e-04
 -1.2033071e-05
  1.0487399e-05
 -2.9971891e-06
  7.7318829e-05
  5.0983908e-06
  2.9571507e-05
  1.0615546e-04
  6.3501429e-05
  6.1764185e-05
 -5.9608296e-06
 -1.1186306e-05
 -8.5118518e-06
  2.8902781e-04
 -1.0054591e-05
 -8.6003010e-06
  1.6487240e-05
  3.1492320e-05
 -1.0543118e-05
  3.4335094e-06
  2.7066544e-05
 -2.2927479e-06
 -1.4751812e-05
  1.0315089e-06
 -1.2515016e-05
  8.4410767e-06
 -5.6758870e-07
 -4.4656516e-04
  2.3935223e-05
 -1.2292085e-06
  8.6339416e-05
 -8.4836443e-05
 -6.0102025e-06
 -4.2713232e-06
  4.6616449e-05
  7.8991734e-06
  5.1894782e-05
 -1.1593283e-05
  3.5836415e-06
 -3.6306446e-06
 -3.3703175e-06
 -1.4117137e-05
 -1.4611728e-01
 -6.2211031e-05
  1.7924091e-01
  1.1369325e-03
 -1.4535855e+00
  6.2189610e-03
  4.1891861e-01
 -2.5398724e-04
  3.5276541e-06
 -1.9144232e-05
 -2.8887249e-05
 -8.9634614e-06
  2.8372022e-05
 -5.9720628e-07
  6.2843181e-05
 -3.5569851e-06
 -1.3191787e-05
  1.0871811e-04
  5.4339769e-05
 -1.1195509e-06
 -4.8997859e-05
  2.2677526e-01
 -2.8526345e-05
 -3.9444159e-05
  1.5765003e-05
  3.9483442e-05
 -5.0048169e-05
  1.2682103e-05
  3.2685450e-04
  2.2617303e-05
 -1.7254679e-03
 -1.2412148e-04
  5.6113794e-02
  3.1673349e-05
  2.9958233e-05
 -1.5747633e-05
 -1.5283853e-05
 -7.1796763e-05
  5.5259083e-05
 -6.0146854e-06
 -3.0859171e-06
 -1.4548231e-05
  8.7017238e-01
 -2.1241749e-05
  9.0873007e-05
 -7.1887979e-07
  8.6628264e-01
  3.8616004e-06
  2.0655444e-04
 -1.2961940e-05
 -2.3353374e-05
 -1.4890198e-05
  1.5626076e-05
 -1.2113994e-05
  1.9850042e-06
  1.2018561e-05
  2.8933227e-06
  1.3061334e-06
  2.7500741e-05
 -1.8000319e-05
 -5.7611164e-06
 -2.5339372e-07
 -2.0888016e-04
  1.8350651e-05
 -1.9347372e-06
  5.1685142e-06
  1.2599096e-05
  9.7060174e-06
  1.6229003e-06
 -4.1970412e-05
 -7.5374419e-06
  5.3319827e-06
  1.6600259e-06
 -2.4189358e-06
 -6.1725459e-06
  6.1721596e-07
  3.9597282e-05
  2.1966585e-05
  1.2679146e-06
 -1.9003537e-05
  1.9654059e-05
 -3.4081540e-06
 -1.4823881e-06
 -3.4867567e-06
  7.0584573e-02
  6.6757719e-05
  8.6272717e-02
 -8.7585147e-05
  4.4933964e-05
  6.3495996e-04
 -5.9495796e-04
 -7.4428235e-06
 -1.2919951e-06
  7.8200865e-06
  7.0824542e-05
 -1.7013323e-05
  1.2877762e-05
  1.6490047e-06
 -4.0835089e-06
 -4.6276054e-06
 -4.2535739e-05
 -4.5669723e-05
 -2.9535936e-06
  1.8461065e-05
 -2.0481125e-06
 -5.1780544e-06
  1.8017725e-05
  4.3414846e-05
  2.6185544e-05
 -1.1306881e-06
 -3.7773368e-06
  9.5202573e-05
 -3.5589139e-06
  6.9477996e-06
  5.9748560e-05
 -1.0919202e-04
 -1.1185881e-05
  1.8942493e-06
 -3.2129356e-07
 -6.9237358e-06
  1.7655248e-05
 -1.1281591e-05
 -2.4521732e-05
 -9.9783392e-06
 -4.0871191e-06
 -6.2406593e-07
 -1.7008979e-05
  1.1311661e-04
 -2.0498395e-04
  1.4695093e-05
  2.0181243e-01
 -4.0619163e-04
  1.9593816e-02
  7.9246793e-06
  1.8577934e-04
  2.2469862e-06
  1.2369486e-05
 -1.6131462e-05
 -5.9374970e-06
 -4.5866418e-06
 -2.3117664e-06
 -3.7928726e-06
  2.8866200e-05
  2.0063371e-05
 -2.7440467e-07
 -1.5883901e-05
 -3.2238371e-05
  1.0452515e-05
  5.3734730e-05
  2.7092947e-05
  1.0963361e-04
 -1.0552572e-05
 -2.6878950e-05
  2.6517551e-05
 -3.1949003e-04
  3.3142996e-06
 -3.9618142e-05
  3.1294196e-05
  2.4071562e-05
 -1.2221171e-05
  1.9137507e-07
 -1.1660271e-05
  2.5757947e-06
 -3.3631546e-05
  2.2785698e-05
 -2.5569600e-05
  9.3581220e-06
 -2.4176434e-05
  9.2325047e-02
 -2.0226473e-06
  3.0707270e-05
  5.2181849e-06
  1.5234696e+00
 -8.1527851e-06
  4.5573663e-02
  1.1556119e-06
 -2.0674452e-06
  6.0673005e-06
  8.0643467e-06
 -6.8979707e-06
 -4.1798296e-05
 -9.1041793e-06
 -1.5799398e-05
  2.0349307e-06
  4.0196919e-06
 -2.1611349e-05
  1.7616206e-06
 -1.8345117e-05
  2.5379290e-05
 -2.7083126e-06
 -8.1704611e-06
  1.5793988e-05
 -3.6321373e-05
  5.3827393e-06
 -2.0670143e-06
 -1.7231443e-05
  1.0574929e-05
  3.1206321e-06
 -7.6562736e-07
  3.4647417e-06
 -2.0221762e-06
  2.4570322e-06
  1.7611566e-05
 -2.1976271e-05
 -1.5129018e-05
 -4.7256899e-06
 -9.6194503e-07
 -2.0519043e-05
  6.2341517e-04
  1.7915372e-05
 -6.3597746e-02
 -8.5226347e-06
  1.7942641e-03
 -7.2900621e-05
  3.1290063e-01
  1.4414268e-03
 -1.4781501e-02
  3.2220647e-05
  1.1021478e-05
  6.3736561e-06
  1.4009430e-05
 -8.1999879e-06
  8.0785787e-05
 -2.1320684e-06
 -1.1285021e-05
  7.2141270e-06
  1.2704691e-05
  2.7875962e-05
  1.1192152e-05
 -4.8949260e-05
  4.7754915e-05
 -7.5097673e-04
 -1.8050598e-05
  4.8723118e-06
 -4.6557954e-05
 -1.3930644e-05
 -1.3014108e-05
 -1.3547675e-06
 -3.5969941e-05
  1.5502141e-05
  7.8860021e-06
 -4.0352108e-05
  2.1111341e-06
  6.0551418e-05
  9.5081296e-06
  3.9872421e-06
  2.0156427e-05
 -2.0181786e-05
  3.2965581e-05
 -6.9248454e-06
 -8.9670830e-05
  7.2963890e-06
  5.8843088e-05
  7.6175835e-05
  4.4161541e-05
 -2.2368936e-06
 -1.7438293e-06
  9.1751441e-05
  1.3897493e-05
  6.6615735e-06
  1.9642213e-05
 -3.8090540e-05
 -4.1664716e-06
  1.8976014e-05
 -1.7038779e-05
 -6.3599386e-05
 -1.4499330e-05
 -1.7198441e-05
 -3.7328100e-05
 -1.0075376e-04
  2.4594865e-05
  1.1630202e-06
 -2.1706290e-05
  9.2319706e-06
  9.5491650e-06
 -4.8605991e-05
  6.1566407e-06
 -6.8801455e-06
 -5.2568575e-06
  3.3208373e-05
 -1.8185314e-05
 -7.9718047e-05
 -2.5925917e-06
  3.0572953e-06
  1.0930793e-04
  5.7495242e-07
  2.1820881e-05
 -2.3745185e-06
 -7.8978566e-09
  3.8724374e-05
 -3.5130538e-06
 -3.5147125e-06
 -5.0204994e-06
 -4.5422485e-07
 -5.7624670e-04
  3.0443205e-06
 -3.0728930e-01
  2.1978158e-05
  6.3276240e-03
 -1.7503075e-05
  2.9173613e-01
 -2.9994379e-05
  2.0242765e-05
  8.6091723e-06
  1.4639268e-06
  2.2669874e-06
  7.4032243e-07
 -4.0860590e-07
 -2.5031954e-06
  5.6262256e-06
  1.5450113e-04
  6.0955397e-05
  1.4182467e-04
  2.2009719e-05
 -8.0193364e-05
  3.8176058e-06
 -2.5175518e-06
 -1.2454402e-04
 -2.0341597e-06
  6.6123340e-07
  9.2779328e-06
  4.2949214e-05
 -2.0284977e-05
 -1.8299615e-05
 -1.3390092e-04
  5.4612119e-05
  1.7847591e-05
  2.3479850e-05
 -3.5494973e-05
  7.1396249e-07
 -6.9914690e-06
  6.0747941e-05
  1.6962938e-05
 -6.8804488e-06
 -1.1019879e-05
  1.5760779e-05
 -2.4052055e-03
 -9.9595109e-06
  5.8873316e-05
 -3.5894333e-05
  9.2518169e-01
  1.8516530e-05
 -1.4131989e-04
  5.7872080e-06
  2.0690281e-06
 -7.9614383e-06
 -1.2647000e-05
 -1.1279123e-05
  8.4935036e-06
  4.5426887e-06
  8.1285061e-06
  1.6766675e-06
  1.0984574e-05
 -1.6117162e-06
  2.5501971e-05
  3.1678003e-06
 -1.5227281e-05
 -1.2730125e-06
 -1.0803586e-04
  1.3958246e-05
 -4.2204547e-06
 -3.3442306e-05
 -2.8648274e-05
  8.5546262e-06
  1.2314988e-05
  5.5849814e-04
  4.5097928e-05
  1.2195187e-06
 -1.7653543e-05
 -9.6548220e-06
  5.5752548e-07
  1.4555850e-05
  8.3184450e-06
  2.3134624e-05
 -1.8977580e-06
  2.3780131e-06
  5.1573529e-06
  1.3318028e-04
  1.6267689e-01
  1.1744573e-01
  3.7613460e-03
 -1.2459859e-01
  1.6059026e-01
  2.1675447e-01
 -3.9281067e-01
  1.5193711e-04
 -1.6252623e-05
  7.5405042e-05
 -1.6419444e-05
  1.8949520e-05
  5.1447005e-05
  3.3143806e-06
  1.9823114e-05
 -2.7944761e-06
  1.4852569e-05
  2.7134104e-06
  7.9580954e-05
  5.6698086e-06
  3.4834713e-05
 -1.0693847e-03
 -4.9998812e-07
  6.5909022e-05
 -3.5542769e-05
  2.2962346e-05
  4.6572609e-06
 -9.2023092e-06
  1.3468098e-05
  5.6578992e-05
  1.4058794e-04
 -4.0777190e-06
 -3.7331523e-05
 -2.9342716e-06
 -2.6400897e-07
 -2.4301798e-07
  3.0375224e-05
 -1.6048440e-04
  9.6305603e-06
 -2.3426224e-05
  3.4183588e-05
  1.0235429e-05
  2.3717511e-01
  1.2228386e-05
 -1.1785418e-02
  5.0437741e-04
  8.8495839e-01
 -9.4273710e-06
  5.1951613e-02
  3.1534721e-05
  8.8609697e-05
  2.8029337e-05
 -4.1170566e-05
 -3.3880795e-05
 -2.5782458e-05
  1.5028382e-06
  9.9936777e-05
 -1.3966912e-05
  5.8908455e-07
  4.1876065e-05
  4.3986265e-07
  6.3722509e-06
 -1.3854429e-06
  1.3364369e-01
  1.0983265e-05
  6.2067382e-05
  6.9160169e-06
  1.8306535e-05
 -2.9538937e-06
  1.2086500e-05
  5.5156488e-05
 -7.1935265e-06
 -7.2629075e-05
 -5.9962645e-07
  2.7507665e-03
  5.8661702e-05
  3.8498260e-05
  1.8739416e-05
 -1.4775553e-05
 -5.2622592e-05
 -2.7073274e-05
  3.4920126e-06
 -1.1753770e-05
 -7.9138163e-06
 -1.9670570e-01
 -3.7435228e-01
 -2.3745415e+00
  1.4956835e-01
 -2.9774803e-01
 -2.1475922e-01
  2.8686049e+00
 -1.8590872e+00
  8.8107800e-01
 -1.6513368e-01
 -5.5008930e-01
 -1.1545715e-05
 -7.5733167e-01
 -4.5250452e-01
 -1.7015314e+00
  1.9715692e-01
 -1.3970692e-01
  1.0378307e-02
 -3.6130118e-01
 -4.8028329e-01
 -1.2122964e+00
  4.8231799e-02
  1.4358833e+00
 -2.0913696e-01
 -2.2306745e-03
 -3.4897608e-01
 -1.1227908e+00
 -1.0535166e+00
 -2.8681576e-01
  1.4094666e-01
 -5.2483118e-01
  9.0371959e-02
 -1.9583108e-01
 -3.7635136e-01
 -8.1704742e-01
 -4.2794389e-01
  1.8147070e-05
 -1.5346721e-05
 -1.2199128e-01
  3.6280515e-05
 -2.1803691e-05
 -3.2330197e-05
  1.6987395e-01
 -1.3080107e-02
  1.2071401e-02
 -3.6690074e-03
 -6.8410598e-02
  7.4225664e-03
 -5.5956062e-02
  1.2624453e-04
  2.1672847e-06
  3.7312235e-05
 -1.5145955e-05
 -3.0148851e-06
  1.5204999e-05
 -3.5817927e-06
  6.5594424e-05
 -5.1154220e-06
 -3.4658208e-06
 -2.9505145e-09
 -8.8541310e-06
  3.0368803e-05
  2.1869793e-05
  9.9647855e-07
  3.6997066e-05
  9.6305976e-06
  1.7427177e-06
  4.4835351e-06
  5.8530213e-07
 -1.2202163e-05
 -3.4839937e-05
  9.5002351e-06
  1.7343384e-04
 -2.2259228e-07
 -3.1151786e-04
  2.9425210e-05
  2.1433361e-05
 -2.8389650e-05
  2.3609775e-05
 -1.2419494e-04
  2.2205897e-06
  6.2965451e-06
 -2.7314260e-05
 -7.4537684e-06
  8.5270864e-01
  1.0237793e-01
  1.6973437e+00
 -1.4708555e-01
 -1.6919130e+00
  5.4131073e-01
  4.3936613e-01
 -2.2861284e-06
  1.8355901e-04
 -1.8053021e-01
 -3.5263542e-06
 -2.4271135e-06
 -2.2572129e-05
 -5.0208760e-06
 -2.0016949e-05
 -7.3835431e-06
  9.4162624e-07
  2.5335363e-05
 -1.3147934e-06
 -3.7879170e-06
  3.7785128e-05
 -1.8051272e-05
  1.4043624e-04
 -1.2828454e-01
 -2.0773162e-01
 -3.4572361e-06
  3.8074536e-06
 -3.2428419e-05
  4.3524860e-06
  2.3058272e-04
  1.7272708e-01
  1.7360167e-05
 -1.9672211e-02
 -2.1005982e-05
  4.7360667e-05
 -3.4061818e-06
  2.3499556e-06
  1.8025869e-06
  6.5678923e-06
  3.2772252e-06
  1.1223558e-06
  5.9705542e-07
  4.6330443e-01
 -1.3465676e+00
  3.9788198e-01
  1.9128676e-05
 -1.0469564e+00
 -5.8614546e-01
  2.8171520e+00
 -7.8454036e-07
 -3.2141058e-06
  3.0722636e-01
  3.2168246e-05
  3.3328772e-05
 -1.1411528e-04
  4.7758422e-05
  1.1294503e-04
 -6.7329711e-06
  5.3122808e-06
  3.6826834e-05
 -4.3090931e-06
  4.3971082e-05
 -3.9693045e-06
 -5.7782546e-02
 -2.0567454e-01
  1.6896953e-04
  1.6330686e-04
  1.1244238e-06
  1.2169280e-05
 -1.1277047e-05
 -1.2319804e-04
 -1.2210717e-01
 -2.0377272e-01
  1.4290082e-06
 -3.1252290e-05
  2.2444316e-05
  1.9522062e-05
 -9.2597566e-06
 -2.2683664e-06
 -4.4968542e-06
 -1.6211920e-05
 -4.0232535e-06
 -2.3357827e-06
  6.5350527e-05
 -1.9791733e-02
  2.9141895e-04
 -2.8453176e-03
  3.1408753e-02
 -1.3798848e-01
 -1.9185521e-02
  2.4665641e-02
 -7.2756648e-06
  1.8983665e-04
 -4.4514458e-05
 -7.8005769e-06
 -7.1441186e-06
 -1.3916260e-04
 -6.1792525e-06
 -1.3816038e-05
 -1.5754229e-05
 -2.8210075e-05
  2.5010397e-04
  3.6599793e-06
 -2.8436752e-06
  2.1663142e-04
  6.0495915e-04
 -2.1896431e-05
  1.7055723e-05
  6.0011862e-05
  6.2154522e-06
  3.6771846e-06
  1.1323563e-07
  6.0411812e-06
 -2.0452064e-05
 -1.9032615e-05
 -2.8983748e-06
  2.8102146e-04
  9.1472239e-06
 -4.5132984e-07
 -2.5713407e-05
  1.9557072e-05
 -1.7672006e-05
  7.1777690e-06
  1.4041810e-05
  3.2130840e-05
  7.1944805e-06
 -6.1233804e-05
  3.4272523e-06
  5.0592342e-05
 -2.2027638e-05
  4.2417165e-04
 -3.3958633e-05
 -1.7287281e-05
  9.1674457e-07
  8.3764666e-05
 -8.3496107e-06
  1.4120404e-06
  3.6117373e-05
 -7.8580742e-06
 -6.0116208e-06
  3.5770663e-06
 -1.4881894e-05
  2.3904520e-05
 -3.1922205e-05
  3.9403239e-06
  5.8978571e-06
 -1.8497807e-05
 -4.7809040e-06
  3.2437012e-05
  3.4494911e-05
  3.7661166e-06
 -5.9489935e-06
 -7.8103330e-06
 -1.2625586e-05
  6.2931163e-06
 -1.3956896e-05
  4.3319264e-06
 -3.3410001e-06
 -7.6639808e-06
  1.2588038e-07
  1.8540371e-05
 -1.0438374e-05
  1.3406942e-05
  3.8098324e-06
  1.9046527e-06
 -2.4399283e-06
 -1.0351143e-05
  7.2177102e-07
  3.2488117e-01
 -3.5458179e-05
  9.8368176e-04
  3.4287063e-04
 -1.0303019e+00
 -1.2573137e-05
  5.4982800e-02
 -6.9975490e-06
 -1.4301439e-05
  6.8989234e-06
 -2.8507729e-06
  7.4084084e-05
 -2.5893444e-06
  1.7596043e-06
  7.1293289e-06
  1.0683715e-05
 -4.2110414e-06
 -1.1694098e-07
 -6.4706660e-06
  1.2171208e-06
 -1.7102304e-05
  6.7538820e-02
  1.8662153e-05
 -3.6637784e-06
 -3.6628928e-06
 -2.8545299e-05
 -1.4412579e-05
  6.7245761e-05
 -1.9073157e-05
 -3.7744128e-06
 -3.0857045e-05
 -5.0200775e-05
  7.2374759e-04
  1.7743263e-05
  3.5010723e-07
 -1.2286274e-06
  2.0032961e-05
  3.0762038e-07
  7.5787916e-06
  2.0232479e-05
  1.2220466e-05
 -6.5118775e-06
 -5.7013441e-02
  1.6469108e-02
 -1.8591636e-01
  7.0726787e-06
  1.2161981e-01
 -2.1586628e-03
  2.0451672e-02
 -8.2076607e-05
  5.0888202e-06
  2.6033882e-07
  3.0632862e-05
  2.2760387e-05
 -1.4771265e-06
 -3.1130956e-05
 -1.8420304e-05
 -9.4105289e-06
  9.7538679e-05
  7.5892385e-05
  9.7081966e-08
 -1.8928145e-05
 -1.1591681e-05
  4.8238915e-05
 -2.3093211e-05
 -1.1933519e-04
  4.9616197e-06
  6.1094483e-06
  3.1161151e-06
 -1.5981172e-05
 -3.3671389e-05
 -1.4273324e-07
 -7.0925144e-06
 -2.1650279e-05
  7.0075530e-06
 -1.9684887e-05
 -1.3125226e-05
  6.9659955e-06
 -2.5394302e-05
  3.5110173e-05
 -2.0607697e-06
 -4.4210246e-06
  1.2372488e-05
 -6.1855831e-06
  2.4577891e-02
  2.5432470e-05
 -8.4785410e-05
  3.6975362e-05
 -5.3722280e-01
 -1.8408362e-04
  2.7955732e-01
 -7.5605417e-06
  1.6920918e-04
 -1.3633144e-05
 -3.6857105e-05
 -2.4838380e-06
  4.9234122e-06
 -3.9696001e-06
  2.3396508e-04
  1.8677893e-05
  6.2057239e-05
  3.8244602e-06
 -3.5682513e-07
  1.7321992e-05
 -4.1110252e-07
  1.5502895e-04
  1.3976980e-05
  1.3793373e-04
  4.0939822e-06
 -3.5451130e-06
  1.0921563e-05
  5.1394431e-07
  1.7840597e-04
 -7.5697726e-06
 -1.9466030e-05
 -1.1788721e-06
  5.2961455e-05
  4.9300543e-06
 -7.1419163e-07
  2.0516016e-05
  4.4585609e-06
 -3.4430736e-06
  1.0866232e-05
 -1.9157733e-05
 -2.6578120e-05
  4.2429510e-06
 -8.8605821e-02
  1.2689631e-02
 -4.6556760e-03
 -2.1213344e-05
  6.4963009e-05
 -1.2942006e-04
  3.4427274e-02
 -6.1496653e-06
  9.2459950e-06
 -1.2234472e-06
 -1.0070074e-05
 -1.6253070e-05
 -1.1826063e-04
  6.1675828e-06
 -1.8565146e-05
 -6.0601091e-05
  6.6556299e-06
  1.0565328e-04
  1.6082927e-07
 -2.1274278e-05
  8.9452360e-06
  5.8059236e-06
  1.0831388e-04
  3.7797603e-05
 -2.3950643e-06
  1.2339444e-05
  9.4867455e-06
  1.6936949e-05
 -5.3861054e-06
  4.0667787e-06
  6.3769940e-06
 -2.1229829e-05
 -1.6800540e-06
 -8.9179339e-06
  4.0113136e-06
  1.5905509e-05
  2.9506032e-06
 -2.0314631e-06
 -2.3460547e-05
 -5.0187850e-06
  1.2033963e-06
 -8.3637260e-06
 -2.3047643e-02
  4.5927947e-05
  4.8990914e-04
 -1.8980367e-05
 -7.4898440e-01
  2.3479781e-05
 -2.5392441e-02
  1.0216786e-05
 -1.5491081e-05
 -6.7729139e-05
  3.2165146e-05
 -6.5321452e-05
  5.8674495e-06
  5.7161242e-06
 -4.7570423e-04
 -2.7327724e-06
  8.0454441e-07
  4.0243522e-06
 -2.2578512e-05
  1.2784823e-05
  4.6642028e-05
 -1.4592560e-01
 -4.0490168e-06
 -1.8679675e-05
  1.1190303e-06
 -1.6871259e-06
 -2.1362259e-05
  3.9339029e-06
 -2.1833846e-04
 -3.4912416e-06
  1.9473754e-04
 -4.6533905e-06
 -4.4803960e-06
 -1.3356388e-04
 -6.7106066e-06
 -1.1058158e-04
  1.6136146e-05
  1.7126298e-05
 -1.3985194e-04
  8.0575155e-06
  3.8128983e-05
 -1.2095963e-05
  2.4591470e-01
  2.7038359e-06
  5.0308436e-02
 -5.7728542e-03
 -5.2747446e-06
  1.1431263e-01
 -1.1162197e-04
  2.2922024e-05
  2.1866732e-04
  1.1326141e+00
  3.8922542e-01
  3.4640048e-05
 -1.1466051e+00
  6.3123800e-05
 -1.9168158e-04
  1.2605159e+00
  3.4174395e-06
 -2.8117732e-04
 -7.2457972e-03
 -8.7746794e-06
  5.8170670e-05
 -5.6759859e-03
  5.2142626e-01
  1.9761460e-01
 -5.3473841e-03
 -4.8420439e-05
 -7.6372385e-01
 -6.5948407e-05
 -1.7038082e-01
 -8.4482409e-02
  8.9750768e-07
 -1.9888358e-01
  2.9774111e-02
 -3.5296205e-01
  4.3532549e-05
 -1.6631515e-05
 -1.7133548e-03
  5.9482228e-04
 -2.7701029e-01
 -1.1558828e+00
 -2.5443136e-04
  5.8653146e-01
 -1.9975377e+00
  2.3706363e-01
 -9.1471966e-06
 -1.3737018e-01
  9.8875906e-05
 -5.3122545e-05
  5.8766091e-07
  1.7234965e-01
 -1.7066212e-01
 -1.2181385e-05
  1.5546998e-01
  5.0027907e-01
 -5.6933247e-02
  1.4259656e-01
 -4.4548023e-02
 -6.4712927e-02
 -7.3742583e-02
  3.2616261e-01
  1.9160926e-01
  2.6386507e-02
 -6.7507696e-01
 -2.1014505e-06
  4.9030110e-02
  1.6548952e-01
  9.0615787e-03
 -3.3458415e-02
  3.0321720e-01
 -2.3820881e-02
 -4.5876637e-02
  1.0743637e-01
 -1.1530568e-01
  1.2904583e+00
  1.0676933e-01
  7.0670463e-02
 -6.9153303e-01
 -1.7060670e-04
 -9.6052331e-01
  3.7829149e-01
  4.3609131e-02
 -7.2845489e-02
 -6.3209325e-01
  8.3832428e-02
 -5.1679597e-03
 -3.8145084e-02
  1.1241254e-01
  1.0471669e-01
 -5.5815232e-01
 -4.7405323e-01
  7.4239783e-02
  3.4703636e-01
  1.2665516e+00
 -1.1344584e-01
  7.8167650e-05
 -1.4623430e-01
 -5.9141994e-02
 -6.7082673e-02
 -5.4790277e-02
  2.3114315e-01
 -1.2735049e+00
 -3.8823206e-04
  2.9883499e+00
  7.1563715e-01
 -7.5080091e-01
  2.2142723e+00
  1.3859272e-01
  4.7350422e-01
 -5.8224672e-01
  6.3133234e-01
  8.9713120e-01
  4.1235471e-01
  6.6628253e-01
  4.8535711e-01
 -8.6311853e-01
  7.1038491e-01
 -1.1703917e+00
 -7.3545820e-01
  9.0262574e-01
 -5.0056612e-01
 -8.1851834e-01
 -1.3977408e+00
  4.1200507e-02
  1.3399626e+00
  2.3448687e+00
  4.8734221e-01
 -8.7261873e-01
  8.2359535e-01
  6.1483836e-01
  5.6217846e-02
 -1.1902503e+00
 -9.0375233e-01
  1.7393160e-01
  5.3148586e-01
  1.4838527e+00
 -1.4609201e-01
 -1.6414477e+00
 -1.1871350e+00
 -2.9163682e-01
 -1.7958823e-01
  5.4235363e-01
 -7.9020339e-01
  2.4881519e-01
  9.7876564e-02
  6.1488342e-01
  9.5795810e-01
  2.1932139e+00
 -3.3118388e-01
  8.8902718e-01
  6.4515591e-02
 -9.6779013e-01
  7.0302302e-01
 -1.9858381e-02
  2.3024602e+00
  2.6581485e+00
  2.8903198e-01
  4.4616863e-01
  1.6230394e+00
  4.8532751e-01
 -6.5864927e-01
 -1.2675240e+00
 -4.3340021e-01
  4.4374228e-01
  6.9809508e-01
 -2.9366553e-01
 -1.0227705e-02
 -3.0727613e-01
  5.6851792e-01
 -3.0471473e+00
  1.3620694e+00
  2.4384522e-01
 -4.5843329e-02
 -1.1134679e+00
  9.4842422e-01
  1.0292057e+00
  1.9957869e-01
 -2.6738845e-02
 -1.0954102e-01
 -1.1223032e+00
 -3.7347817e+00
  1.0362101e+00
  1.6131258e+00
 -1.4399734e+00
 -2.0434363e+00
  2.4421467e-01
  1.7102761e+00
  9.2716151e-01
  3.6722451e-01
  1.4399940e+00
 -4.0230191e-01
  1.0766478e+00
  1.4161451e+00
  4.2770147e-01
 -1.0667292e+00
 -1.6568761e+00
 -3.9540964e-01
  4.8896721e-01
 -9.9629992e-01
  7.3867455e-02
  8.6485153e-01
 -4.7468114e-01
 -9.4744402e-01
 -1.3652505e-01
  4.0533257e-01
  1.2953485e+00
  3.6162704e-03
  1.1349838e+00
  8.8333195e-01
 -1.8332568e+00
  6.7358494e-01
  1.5047351e+00
  8.5410982e-01
  6.2286007e-01
 -1.3598178e-01
 -3.7199351e-01
 -1.0381564e-01
  1.3517487e+00
  4.1350316e-02
 -6.6657329e-01
  4.5562364e-02
 -1.1533322e-01
 -2.5663259e-02
  7.6974773e-01
 -1.1203386e+00
  1.1106081e+00
 -2.5349646e+00
 -2.8761125e-01
  1.6290151e+00
  3.0623543e+00
  1.2934042e+00
 -2.3832301e-02
 -9.2225975e-01
  1.8683727e+00
  1.1134119e+00
 -4.1527843e+00
 -1.9611670e+00
 -1.2525051e+00
  1.6508286e+00
  7.1967918e-01
  2.7749589e-01
 -1.5625477e-01
  4.7427632e-02
  4.7427632e-02
  4.7427632e-02
  4.7427632e-02
  4.7427632e-02
  4.7427632e-02
  4.7427632e-02
  1.0928302e-02
  1.0928302e-02
  1.0928302e-02
  1.0928302e-02
  1.0928302e-02
  1.0928302e-02
  1.0928302e-02
  9.0270210e-03
  9.0270210e-03
  9.0270210e-03
  9.0270210e-03
  9.0270210e-03
  9.0270210e-03
  9.0270210e-03
  1.9038191e-02
  1.9038191e-02
  1.9038191e-02
  1.9038191e-02
  1.9038191e-02
  1.9038191e-02
  1.9038191e-02
  1.3261767e-02
  1.3261767e-02
  1.3261767e-02
  1.3261767e-02
  1.3261767e-02
  1.3261767e-02
  1.3261767e-02
  3.4423047e-03
  3.4423047e-03
  3.4423047e-03
  3.4423047e-03
  3.4423047e-03
  3.4423047e-03
  3.4423047e-03
