nep4_zbl 1 Ne 
zbl 0.8 1.6
cutoff 6 6 71 71
n_max 6 6
basis_size 10 8
l_max 4 2 0
ANN 50 0
  5.4403543e-05
  7.3481518e-05
 -3.0478996e-06
  9.7933889e-06
 -7.9621896e-06
 -5.6613530e-06
  9.5369899e-07
  4.8903417e-05
  1.2044313e-06
 -1.5983189e-05
 -3.7152517e-05
  1.2617855e-06
  4.2512642e-05
 -1.5534079e-05
 -1.4525002e-05
 -1.8254865e-05
 -1.9149285e-05
  6.6032217e-06
  5.7623089e-07
 -3.4445824e-05
  3.2284079e-05
 -2.4534418e-06
 -2.3390485e-05
 -4.9182140e-06
  1.6541073e-05
 -3.0577703e-05
 -5.7448547e-06
  2.2151380e-05
  5.2414248e-06
 -1.7789212e-06
 -2.7409311e-05
 -8.1417320e-06
 -1.8274326e-05
 -8.5562311e-07
  4.0313612e-06
 -5.0229244e-07
  3.1765846e-06
 -4.0992894e-05
 -3.1945629e-06
  1.6545671e-05
  1.4598769e-05
 -2.1505577e-06
 -4.6557423e-02
 -3.6970652e-03
  1.8614685e-03
 -2.6810108e-02
 -2.0532757e-02
  6.0082398e-02
 -1.3439371e-01
 -4.7130197e-06
 -5.6200683e-01
  8.5664324e-02
 -1.0736910e-01
 -4.0641078e-03
 -8.7464210e-03
 -3.4706417e-01
  5.5953842e-02
  6.3843263e-04
  1.4231877e-01
 -3.4415771e-03
  1.9357292e-03
 -2.4812648e-03
 -3.2282493e-03
  9.2181273e-02
 -3.5910614e-04
  1.2268179e-01
 -5.0872710e-02
  3.4580389e-03
 -1.0811482e-02
 -4.5407345e-03
  3.3182140e-02
 -7.2369799e-02
  6.9219753e-02
 -9.1762923e-02
 -5.3048907e-03
 -2.7596442e-02
 -4.0218662e-02
 -2.4073349e-02
  1.5611031e+00
  5.3845905e-03
 -3.6151872e-05
  3.5414251e-03
  1.8232079e-04
 -1.4984557e-02
  6.6940131e-04
 -2.1965581e-05
  1.6808222e-01
  2.3735392e-05
 -7.1491368e-02
  8.1940576e-05
  5.2727088e-02
 -2.4509825e-06
  4.9530381e-06
 -5.7963930e-06
  4.0533532e-06
  9.4315161e-05
 -3.9988777e-07
 -1.8030129e-07
 -7.4137293e-05
  1.0326985e-05
  4.1523341e-05
 -2.8148772e-06
  1.8831746e-05
  3.1411033e-05
  1.1957301e-05
  2.4790175e-05
 -3.3695331e-05
 -1.5127001e-04
  7.5086159e-06
  3.5756915e-05
  7.0750451e-05
  1.6074920e-05
  2.9455572e-05
 -1.0999530e-05
 -1.4552756e-05
 -1.2725511e-07
  8.1008999e-05
  2.6942706e-05
 -6.2217041e-05
 -9.1995037e-07
 -3.2664855e-05
  2.4361625e-05
  2.7494691e-05
 -9.2028376e-06
  1.3353417e-05
 -1.1089469e-05
 -1.5677194e-01
 -8.3940327e-03
 -6.6606498e-01
 -1.6933645e-01
 -4.1355139e-01
 -7.1825936e-02
 -6.0280789e-02
  2.3779992e-05
  2.4827343e-06
  9.7816213e-05
  5.4766333e-06
 -1.9569339e-03
 -2.5388470e-05
 -1.1188710e-05
  1.8134004e-04
 -2.8554639e-05
  2.5331443e-05
 -1.4320267e-06
  1.5112523e-04
 -1.7683635e-02
 -1.8474869e-02
 -1.3428718e-06
 -2.7407136e-08
  4.2744895e-04
 -1.9650543e-03
 -5.1485498e-05
 -2.1633008e-03
 -3.7047091e-01
  4.2145741e-05
  1.3095490e-05
  2.7733541e-04
 -1.0556505e-04
 -1.3602152e-04
 -4.1031428e-03
 -4.0197039e-01
  1.6485490e-05
  3.0823379e-05
  1.8569728e-05
  3.3473312e-05
  2.3130394e-06
  4.2482848e-06
 -1.0266941e-05
  2.4310586e-05
  2.5307789e-05
 -1.2125152e-05
 -5.2679366e-05
  1.3565240e-05
 -2.3810027e-05
  1.4384645e-05
 -9.9664630e-06
 -9.5951264e-06
  6.8185373e-06
  7.7040031e-06
 -3.1543896e-05
 -5.5864228e-05
 -2.6505113e-05
  4.1376086e-05
 -2.5551239e-05
  2.2459388e-05
  1.3564780e-06
  1.0016646e-06
  1.5318996e-05
 -6.5529784e-06
  7.0885717e-06
 -1.3853427e-06
 -1.6360433e-05
 -2.1776497e-05
 -2.4911093e-05
 -2.2788940e-06
 -1.3382778e-05
 -1.4186006e-05
 -1.9987338e-05
  1.1143134e-05
 -6.7422052e-06
 -7.0735905e-06
 -1.4871242e-05
  3.4068955e-06
 -3.1288812e-06
  1.4493412e-05
  3.2607364e-05
  6.8132573e-07
  9.2096325e-06
 -1.1168383e-05
  3.7974050e-06
  3.1699768e-01
  5.1320696e-01
 -5.9157819e-02
  1.3832122e-02
  1.4594786e-01
  8.5200806e-04
  1.0906985e-01
  2.8111470e-05
  5.3682770e-06
 -3.5469893e-05
 -3.8346980e-06
  2.3219140e-05
  3.9042425e-05
 -1.4423893e-05
  1.2954441e-06
 -4.4284761e-06
  1.6288384e-05
  1.3122821e-05
  1.5815305e-06
  1.0905144e-02
  3.3661951e-03
 -3.8864971e-05
 -1.6124386e-06
 -7.3183124e-05
  5.0939578e-03
 -1.9892552e-05
  1.9944007e-02
  3.2925949e-01
 -6.5209775e-07
 -4.6292498e-05
  1.8423616e-05
  2.6035374e-03
  1.9213336e-03
  4.4906128e-02
  2.8903610e-01
  1.8409753e-05
  2.8919500e-05
 -2.3467344e-06
 -1.8715475e-05
 -3.8197745e-06
  2.3338132e-05
  1.3073682e-05
 -4.2908869e-05
 -1.3609784e-05
  6.3495376e-05
 -1.8025645e-05
  1.0005038e-05
 -1.6038007e-06
  1.1137548e-06
  9.5826545e-06
 -5.8541673e-06
 -5.8464116e-06
 -4.3923928e-06
 -1.1878841e-05
  3.5094320e-06
  1.5123378e-05
  9.7563031e-08
 -8.1443786e-06
  1.6781057e-06
  3.8236358e-06
 -6.9173725e-06
 -3.5108369e-06
  3.4939367e-06
  2.8677157e-06
 -2.4463745e-05
  7.7508448e-06
  3.4068448e-06
  2.4675650e-05
  5.7573307e-05
 -2.2959037e-05
  2.4719832e-06
  6.7483088e-05
  2.2704879e-05
 -3.4204953e-07
 -1.0921170e-04
 -2.3337914e-05
  1.0232005e-05
 -1.0460674e-06
 -1.0314207e-05
  1.0103763e-07
  8.7448743e-06
 -3.1427637e-06
  2.5404217e-05
 -4.5061239e-05
 -5.7860638e-07
 -4.2149815e-05
  3.6986155e-04
  5.8318758e-05
  8.6715245e-06
 -2.4143923e-05
  2.7542299e-05
  9.5152300e-06
 -1.3621303e-04
 -5.8786776e-05
  3.1280772e-05
 -4.5216734e-06
  2.1118480e-05
  3.9146889e-05
 -6.1009887e-06
  3.6945989e-05
 -1.3173339e-05
 -1.2359405e-05
 -1.0010372e-06
  2.0316254e-05
  7.1940903e-08
  1.0386397e-05
 -6.7270735e-06
 -6.7053799e-05
  1.9107616e-05
 -2.6031374e-05
 -7.1497980e-06
  2.9332119e-05
 -1.5192252e-06
 -3.1390516e-06
 -7.2257308e-07
 -7.2365729e-05
 -6.5878157e-06
  3.0822110e-05
  1.0263228e-05
 -7.8249368e-06
 -1.2769819e-06
  1.0819096e-05
  2.0318157e-05
  1.9999690e-05
  3.2998237e-06
  3.9306975e-05
 -4.2853993e-01
 -1.1882396e+00
  5.9634435e-01
 -6.9366217e-01
 -1.2849575e-01
  1.7067376e+00
 -6.1725146e-01
 -2.6308985e-06
 -9.1402793e-01
  2.6091075e-04
  1.9954701e-04
 -2.9956794e-01
  9.3409959e-03
 -1.0495108e+00
  3.7350089e-03
 -7.1971029e-01
 -4.8744045e-05
 -3.8875919e-02
 -1.5698528e-01
  1.2817314e-01
 -9.2461246e-01
  6.0460274e-04
 -8.0857325e-01
  2.4894883e-03
 -5.9308872e-02
 -1.2500283e-01
  2.5327329e-03
 -3.3830208e-01
  1.2420893e-01
 -8.3871007e-01
  1.3773960e-04
 -6.2988993e-06
 -7.1469121e-02
  3.0808678e-01
 -1.6469206e-01
 -4.5053785e-05
  1.9235040e-01
  1.3825357e-05
 -1.0662543e-06
 -1.0243684e-05
  2.6310712e-02
 -1.3381391e-05
  8.2567170e-02
  6.5854502e-01
 -1.6307713e+00
 -3.0185662e-03
  1.8111689e+00
 -4.2515975e-01
 -1.9541824e+00
  8.3759187e-07
 -2.6855739e-07
  1.4232034e-05
 -2.1868373e-06
 -8.2670756e-02
 -5.3630811e-03
  3.4849747e-06
 -3.6762478e-05
 -1.1685892e-05
  1.4824164e-04
 -7.5206357e-05
 -2.2677466e-02
 -7.1095318e-02
 -2.6100755e-04
 -8.5869273e-05
  3.6419864e-05
  5.1691428e-02
 -1.1884093e-04
  2.4843027e-07
 -2.4708172e-02
 -5.4430366e-06
  3.9786232e-06
 -3.8158374e-05
  2.2977129e-05
 -1.1483256e-01
 -1.4329674e-04
 -1.1746651e-01
 -7.4632484e-01
 -1.5385038e-05
  4.2463322e-05
 -3.7643589e-05
 -2.4963458e-05
  6.5055450e-05
  6.1111650e-06
  1.1796722e-06
  9.4241877e-05
  5.7574221e-06
 -6.5651424e-05
 -4.4429737e-05
  2.4312611e-05
 -8.1344697e-06
  2.1505841e-06
 -3.0148055e-06
  1.9194836e-06
 -4.1164672e-06
 -4.9122082e-06
 -3.4836383e-05
  4.5881857e-06
 -1.4275284e-05
 -7.3150200e-05
  1.9145740e-05
 -2.0116361e-06
 -2.0770085e-05
 -2.9418248e-05
  5.0265404e-05
  2.8344617e-05
  2.4243105e-05
  5.1239058e-06
 -3.9208280e-06
  2.6271687e-06
  2.5390478e-05
 -2.3145336e-05
  3.4761131e-05
  8.3050772e-06
  7.5407615e-06
  1.3556306e-05
  1.2419135e-05
 -7.4400841e-06
  4.8176269e-05
  4.9142277e-06
 -2.7109522e-06
 -3.4639797e-05
 -4.3323776e-06
  1.6632757e-05
  3.4391737e-06
 -9.4145571e-06
 -3.0980916e-06
  1.2889954e-03
 -6.5678805e-06
 -2.2651783e-01
 -5.1194525e-05
 -9.1513345e-04
  6.4873784e-05
  1.4140615e-01
 -1.2318410e-05
 -2.4228160e-05
 -1.4424597e-05
  1.6391036e-07
 -2.3192917e-05
  4.2452004e-05
 -4.6393498e-06
 -8.9848036e-05
 -4.3459375e-05
 -5.0594244e-05
  6.1966949e-07
 -2.0139219e-05
  2.6212799e-04
 -9.3497499e-07
 -1.8273432e-04
  5.5958277e-05
 -2.3693516e-05
  4.6616737e-05
 -4.9873863e-05
  8.5649808e-05
 -5.9815379e-06
 -2.9812338e-05
  1.6497462e-06
 -1.0181283e-04
 -1.7459042e-05
  4.6392910e-05
  7.8367312e-03
 -4.7460766e-05
  1.5520913e-05
 -2.6439122e-05
  1.1013006e-05
 -1.1007155e-05
 -9.8426717e-06
 -3.4542063e-05
 -3.8592127e-05
 -5.6946203e-02
  4.9676182e-05
  3.1793945e-05
 -1.1536670e-02
 -4.5083258e-03
 -4.8909918e-05
 -1.7002553e-01
  2.5884248e-05
 -4.5460165e-06
  3.2921846e-05
  5.3342333e-06
 -2.8263348e-05
  1.0596779e-05
  7.0719184e-06
 -7.3790438e-06
  8.2625571e-05
  8.9654866e-05
  3.0618819e-05
  5.3811164e-05
 -8.8945468e-05
 -6.3127416e-05
  7.7906589e-05
  8.8380213e-05
  1.1667763e-04
  7.1353068e-05
 -1.2033654e-05
 -3.5128787e-03
 -1.4853216e-06
  3.3727093e-04
 -9.7377197e-05
  4.9380888e-06
 -3.3692908e-04
 -1.3221169e-04
 -1.5252365e-02
 -7.7242985e-05
 -1.1560051e-05
  3.5902271e-05
 -3.2441767e-05
 -8.4497769e-06
  1.3298107e-05
  1.1676060e-05
 -7.4040912e-07
 -2.1046704e-02
 -4.9215693e-02
 -1.8970786e-01
 -8.8718114e-03
  8.2903534e-02
  6.0401894e-06
 -1.0587364e-01
 -1.4023385e-07
  8.4721669e-06
  4.3654200e-05
 -3.5539844e-05
 -1.5091477e-04
 -2.7266009e-05
 -3.9611514e-05
  4.4234398e-06
  2.3494849e-05
  3.0766500e-06
  6.9433860e-05
  1.9263141e-05
 -2.2735111e-04
 -2.0388852e-05
  2.2215537e-04
 -2.6126494e-05
  2.0027615e-04
 -2.8267104e-04
 -4.5898021e-05
 -1.7789241e-03
 -2.6370615e-05
 -2.8088141e-05
 -3.0131827e-04
  4.3824671e-06
 -4.1523032e-04
 -1.0495698e-03
 -4.7809113e-02
 -1.8245701e-02
 -9.8664350e-06
  3.3029799e-05
 -2.5827144e-06
  2.3845743e-05
 -2.4062840e-07
  9.1437414e-06
  4.9480845e-05
 -1.4292454e-02
  4.7423127e-05
 -2.5609839e-05
 -5.1383176e-05
  4.4948233e-06
  5.2976960e-05
 -1.7882021e-01
 -1.7930281e-04
  9.5714431e-06
  1.3348296e-04
 -4.6055673e-05
  1.7462846e-06
  5.9574777e-06
  5.2338883e-06
  8.0414466e-06
 -2.6316637e-05
  1.4727541e-04
  7.7460504e-07
  2.5403051e-05
 -6.6580804e-05
  4.9185533e-06
 -1.7743032e-05
 -5.0238494e-05
 -3.2872060e-05
  2.9859059e-06
  2.3685783e-05
 -3.6598524e-04
 -7.5985379e-05
 -2.2938355e-05
 -1.3430978e-04
  1.8387058e-04
 -7.7220957e-06
 -3.4804423e-06
 -8.9950040e-03
  2.5949921e-05
 -3.3393284e-05
  4.0808714e-05
  8.4991607e-06
  2.8069767e-06
 -2.1396041e-05
  4.2351414e-05
 -7.6819924e-06
 -1.2550701e-01
 -1.2528513e-01
  2.2561359e+00
  3.0205119e-01
 -1.7154000e+00
 -2.1094428e-01
  1.3135260e-01
  1.0777468e-04
 -2.8733846e-05
  9.6429903e-05
  1.2796924e-05
  7.8416131e-02
  6.4976084e-01
  1.2458740e-05
  2.0416829e-01
  1.8322935e-05
  1.2084950e-04
  1.2249972e-04
 -5.8490541e-02
  3.9960974e-01
  5.2637386e-01
  6.6259950e-06
  2.6732305e-05
  4.0271442e-02
 -3.7632290e-02
  3.6159452e-02
  6.3426971e-02
 -7.4346554e-01
  1.1732515e-01
 -6.6908128e-06
  5.4026665e-03
  5.2620078e-05
 -4.4433985e-02
  8.8051595e-02
  7.7589226e-05
 -3.5737754e-05
  2.1484877e-05
  9.0217756e-05
  8.2492234e-06
 -3.0351817e-04
 -2.7373602e-05
 -2.1908450e-06
 -6.1372913e-07
  5.1653620e-05
  6.9900612e-05
 -9.9582452e-05
  3.8241957e-05
 -1.3907925e-04
 -2.8146975e-05
  5.0519866e-06
 -7.6108881e-05
 -4.7994695e-06
 -1.2480787e-05
  1.4230788e-04
  2.2151751e-06
  3.2514283e-05
 -6.7528112e-05
  4.3222310e-05
 -1.3408236e-05
 -1.2620417e-05
 -2.4395511e-05
 -3.6286154e-05
 -4.1767080e-06
  1.9625202e-05
 -2.5759684e-05
 -3.9596925e-06
  2.5444117e-05
 -8.2005194e-05
  4.3624244e-05
  2.0839552e-05
  2.9469800e-06
 -3.9348928e-05
 -2.6726855e-06
  3.8989647e-06
 -3.5847779e-07
  9.5296509e-06
 -3.0324896e-05
  2.7559355e-07
  4.0005179e-06
  4.4612912e-06
  6.4728789e-07
 -3.8649555e-06
  3.4725176e-06
 -9.0941412e-06
  2.6403183e-01
  5.7381713e-01
 -2.3886877e-01
  1.5848249e-01
 -5.1209778e-01
  7.8762360e-02
  8.2822639e-01
  1.2669334e-05
  1.8126610e-01
 -4.2641976e-05
  1.6613458e-05
 -1.0958014e-03
  1.4870728e-03
  3.2770064e-01
 -1.8822325e-02
  8.0209436e-05
 -8.3032661e-05
 -4.2793449e-06
 -1.3120832e-02
 -7.7974185e-02
 -7.9450532e-05
 -1.0339017e-01
  6.4813480e-02
 -5.5485431e-02
 -6.3053612e-06
 -3.1967372e-02
 -4.2034775e-02
  5.0557420e-02
 -1.3144355e-03
  1.2767968e-01
 -7.3940755e-05
  2.3700864e-05
  9.1053449e-02
  1.5597790e-02
  1.8103233e-04
 -3.2780157e-05
 -3.6095440e-05
  3.9071252e-05
 -9.4975312e-06
  6.1731930e-06
 -2.9526234e-03
  1.2675496e-05
  1.4812657e-02
 -1.8817045e-05
  7.6530323e-06
  3.6740027e-04
  2.5730364e-02
  1.6150343e-04
  6.3622206e-02
  3.7047685e-05
  2.3162845e-06
  1.2107297e-06
  2.2447133e-05
 -1.1973339e-05
  1.4406590e-04
 -6.0453687e-05
 -5.5248842e-05
  1.8505001e-05
  6.6162062e-07
 -8.8293955e-06
 -1.0516194e-05
  3.4955004e-04
  1.2997354e-05
  2.2727836e-05
  7.6810611e-06
 -4.8433212e-05
  1.5009550e-04
  6.0714097e-05
  7.3033379e-04
 -1.2798940e-05
 -1.7768239e-04
  1.6756740e-04
 -3.9587187e-05
  1.8346663e-04
  4.8656315e-05
  1.0197509e-02
 -3.9999027e-06
  1.6577747e-05
  1.2576238e-05
 -1.5911679e-05
 -3.4235015e-06
 -1.2639878e-04
  2.1446798e-05
  2.5054675e-05
 -2.0186572e-01
 -5.3806644e-02
 -7.9608232e-01
 -2.6036132e-02
 -8.9397836e-01
 -3.5229021e-01
 -4.1173599e-03
 -6.6884490e-06
 -7.2243973e-04
  3.4965237e-04
  1.1444146e-04
 -2.5263284e-03
  3.3026245e-05
 -2.2790427e-04
 -5.8960824e-05
  1.1042473e-04
  4.3296070e-05
 -1.3159835e-04
  5.0614169e-03
 -1.1676237e-02
 -6.9390699e-02
  6.6662906e-05
 -1.1140691e-06
  3.4779343e-06
 -1.3539477e-02
 -3.3429940e-03
 -6.0392013e-03
 -1.6347668e-01
  8.2714705e-06
 -1.4590373e-04
  3.6552115e-03
 -1.6412877e-06
  1.3542161e-03
  1.0168897e-05
 -1.9284005e-01
 -5.6421050e-05
  5.9959177e-05
  5.2760060e-06
  2.6770294e-05
 -4.0429172e-06
  7.0355502e-03
  1.5002209e-05
 -6.7852157e-01
  1.6698734e+00
 -1.5695660e+00
  2.0191820e+00
  7.6064670e-01
 -3.5701582e-01
  3.4776473e-01
 -4.1026313e-02
 -1.0388844e-02
  6.0368108e-04
 -3.2601143e-05
 -6.7272431e-01
  1.2113749e-01
 -7.7684665e-01
  4.2348515e-06
 -4.5170626e-01
  1.0223623e-01
 -7.5847802e-06
 -5.4540839e-02
 -2.4450789e-01
 -5.5277669e-01
  9.5998757e-02
 -4.0486213e-02
  3.1481522e-06
 -8.9945846e-05
 -8.1691138e-02
 -4.6800826e-02
 -1.4241331e+00
 -1.5454443e-05
 -4.9940228e-01
  1.5006027e-01
 -1.3892376e-01
 -1.0271965e-02
  1.7374144e-01
 -1.3330618e+00
 -8.8113347e-06
  7.0341937e-03
  2.4413350e-06
  2.1899867e-05
 -6.7203963e-04
 -5.5001294e-03
 -1.5667262e-02
 -7.0375104e-06
  1.0996336e-05
 -1.3002512e-04
  1.1927768e-04
  1.2056353e-04
  2.7449769e-06
  1.4264282e-04
 -5.5769046e-06
 -2.5222402e-05
  4.8642829e-05
  1.1750270e-05
  1.4440647e-05
  1.2527455e-06
  1.3146921e-05
 -1.2828445e-05
  4.6238274e-05
  1.2204264e-06
 -3.4506887e-05
  1.4096911e-05
 -1.2440723e-05
  8.6781129e-06
  1.0030578e-05
 -4.2292759e-05
 -1.5442072e-05
  4.2636084e-06
  7.2688068e-05
  1.0968840e-05
 -2.1927533e-05
 -1.8444172e-05
  1.6887214e-04
 -3.0308645e-06
  1.0233783e-05
  5.5584846e-06
 -3.1859698e-05
 -1.9151184e-05
  1.4837512e-05
  4.3286891e-05
 -2.3173619e-05
 -1.3151280e-05
 -1.5969028e-05
  2.5542826e-05
  9.3260803e-07
 -5.7576936e-01
 -2.7761903e-01
 -1.9241813e-06
  1.6378580e+00
 -5.0599551e-01
  5.2664924e-01
  2.2037919e-01
  5.3057395e-02
  1.0357785e-06
  2.4278957e-06
  2.6483165e-02
  6.8547912e-02
  3.0076539e-02
  1.0737594e+00
 -8.5561097e-01
 -1.0389558e-01
 -3.5117477e-01
 -9.9290915e-02
 -1.2312111e-02
 -8.2125906e-03
 -1.0615547e+00
 -1.3004136e-01
 -1.7657302e-02
 -4.3325770e-01
  5.4385740e-01
  4.3404181e-02
  1.0152225e-02
  1.1923881e+00
 -1.0962717e-01
  1.4044510e-04
 -2.4806386e-01
  2.3465216e-01
 -2.7361143e-01
 -1.3872172e-04
 -7.8016490e-01
  1.0376933e-05
  1.6465840e-05
 -1.3766362e-05
 -1.4143969e-05
 -9.2185892e-06
 -5.0558160e-06
 -8.0189875e-06
  1.1091232e-01
  4.9236929e-01
  2.4105503e-01
 -3.2862466e-05
  3.1665955e-02
  8.0444053e-02
  9.1784418e-02
 -2.2867476e-05
 -9.3896699e-05
  1.5995305e-06
  7.1591880e-06
  2.1208230e-04
 -5.3505595e-05
  8.9944733e-06
  6.9223051e-06
 -3.5428129e-06
 -2.6043595e-04
 -2.6601647e-05
  7.7653231e-06
  1.3594056e-02
  6.5899210e-04
 -3.6910410e-06
  1.0388197e-05
 -2.0843899e-04
  1.1669724e-04
  1.4663901e-05
  3.5586024e-03
  8.4075369e-03
 -5.3697274e-08
  7.5148680e-05
 -1.3086269e-06
  1.3568780e-07
  6.6089560e-05
  4.8259579e-02
  1.0734618e-01
 -2.3673538e-06
 -4.9342274e-05
  3.0315594e-05
 -3.1885886e-06
  3.7823452e-06
  2.6490322e-06
  1.5117017e-05
  1.7178985e-05
  9.3535991e-06
  1.7722116e+00
  1.3668796e-01
  9.7983682e-01
  3.0296302e-05
  4.6245852e-01
 -3.2069061e-06
  5.9117774e-06
 -2.6936154e-06
  4.4761241e-06
 -1.5305204e-05
 -8.1890348e-06
  1.1763733e-05
 -1.3616793e-05
 -4.7914698e-05
 -3.4009412e-05
 -1.0043139e-05
  9.9921876e-05
  6.1996856e-05
 -1.4676237e-05
  2.1577823e-06
 -4.3648905e-07
  2.8442504e-05
 -1.0618540e-05
 -2.1412652e-06
  5.3712774e-05
  4.0919276e-05
  2.5714996e-06
  8.4475869e-06
 -1.0990835e-04
 -1.9854097e-05
  5.7270372e-05
  2.8250355e-03
  3.7266207e-06
  2.3750626e-06
 -1.8451163e-05
  5.5567607e-06
 -2.4589201e-06
  6.3395964e-06
  2.6661901e-05
 -1.0643362e-06
 -3.7064172e-02
 -3.9216857e-03
  6.4295612e-02
 -2.4659051e-01
 -2.8146702e-01
  1.2625752e-01
 -1.4714794e-01
 -3.1360619e-06
 -1.0931514e-04
 -2.7910630e-06
  1.3532226e-05
  7.8864286e-05
  9.5553969e-07
  2.6642861e-06
  2.5744137e-05
  8.6342316e-06
  1.0418488e-05
  2.0232657e-05
  3.1031392e-05
 -1.7992283e-05
 -7.6547367e-05
  1.0783630e-04
  4.1610452e-05
  5.5364548e-05
 -3.7559890e-04
 -1.7708388e-06
 -2.4830393e-04
  1.9402520e-05
  4.9957569e-05
  5.5215119e-06
  1.1039799e-04
 -7.5571901e-05
 -4.0349451e-06
 -2.9252132e-02
 -2.1232922e-02
 -1.1888994e-05
  2.2538629e-06
  2.0263660e-05
 -2.6430864e-05
  5.3341391e-05
 -1.1756478e-05
  5.5718979e-06
 -1.1807464e-02
 -1.4360763e+00
 -2.3265533e+00
 -1.6316390e-02
  3.7582499e-01
  1.1762323e+00
 -2.2218227e+00
  3.1038235e-05
 -1.0817429e-05
  9.6840749e-06
  7.2132511e-06
  2.2023264e-01
  2.2708720e-01
  3.2205109e-05
  5.1718686e-02
 -1.0043682e-05
  8.2420593e-06
  8.3946325e-06
 -4.4493997e-03
  6.6751890e-02
  7.6766545e-03
  3.1446356e-02
 -2.3668688e-05
 -2.2800025e-06
  6.5331842e-06
  7.3832233e-04
  8.7441374e-03
  6.1394749e-05
  2.2291447e-01
 -2.3660652e-02
 -9.1919452e-07
  6.7184214e-05
 -1.4218517e-01
  2.0788934e-03
  8.4606625e-02
  6.9247189e-06
  7.0876973e-05
 -2.0575437e-06
 -1.8818109e-05
  3.7323355e-06
  2.8787259e-05
 -3.8926123e-06
 -7.0664514e-06
  1.4818150e-05
 -1.4122248e-04
  3.7158518e-06
 -1.4135041e-04
  1.7226186e-04
 -1.8598536e-06
  5.6445365e-06
  3.7277907e-06
 -1.6954813e-05
 -3.2945434e-06
 -1.1181472e-05
 -1.2635770e-06
  3.1759600e-07
  2.5398122e-05
 -2.8848017e-06
  2.4403746e-06
  2.6955747e-06
 -9.8941009e-06
 -1.1137283e-05
 -1.1243669e-05
  2.0170019e-05
 -2.7938670e-06
 -9.7832326e-06
  2.5405980e-06
  1.1134217e-04
 -6.4410575e-05
  7.0460669e-06
  3.2279236e-06
  9.8763412e-06
 -1.5264284e-05
 -2.6900403e-05
 -1.0995499e-05
 -1.7994878e-05
  1.4699671e-05
 -7.8785206e-06
 -6.6341823e-07
 -2.2696793e-06
  1.7653671e-06
  1.6741165e-05
  5.8036853e-06
  1.1556103e-05
 -1.0465597e+00
 -2.3647550e-01
  6.4690304e-01
 -4.8048049e-01
  2.3905009e-01
 -3.2770044e-01
  2.4659656e-01
 -2.6220594e-06
  3.8673452e-06
  5.0146245e-05
 -2.7095218e-04
  9.7378979e-06
 -3.3697346e-05
 -4.4994758e-05
 -3.9276383e-05
  3.5502119e-06
  1.2203552e-04
  1.9045496e-05
 -8.9798508e-05
 -4.6906895e-03
 -1.2612839e-04
  6.4429907e-05
  4.8257101e-05
  2.7259567e-04
 -4.3356232e-03
  2.3752968e-05
 -3.4842819e-02
 -7.0719075e-01
  6.0650480e-05
  2.0611751e-05
  9.0046333e-06
 -4.6422012e-02
 -2.5208984e-02
 -5.0128542e-02
 -5.3165787e-01
  1.0506482e-04
  3.2812954e-05
  9.8111377e-06
  1.3435498e-05
 -1.1468741e-04
  2.5604304e-06
  2.5414986e-06
  4.0868323e-02
  9.9965575e-05
  5.1250782e-02
  3.4218345e-05
  1.7049670e-02
  6.0062521e-05
  1.0937167e-01
 -3.6553207e-05
  4.2582451e-06
  1.8850755e-05
  1.6729344e-05
  3.7480349e-05
  3.0100209e-05
 -4.0801489e-05
 -2.3711607e-05
 -2.6591663e-06
 -7.2443130e-05
  4.2856195e-06
  7.8364341e-05
  8.9385983e-04
 -1.9252104e-05
 -1.4733316e-04
  6.4445185e-06
 -7.4644225e-07
  3.2614396e-04
 -2.5787410e-06
  9.9822733e-05
  5.6966506e-05
 -1.2554623e-04
  4.0198865e-06
 -9.9733888e-06
  1.0685281e-04
  5.8177502e-05
  2.2582715e-02
  9.8870747e-05
  1.5192008e-05
 -5.3763106e-06
 -3.6362606e-05
  2.8322916e-06
 -7.0297178e-06
  3.5711841e-05
 -3.9400369e-05
 -5.5562014e-05
 -5.6529064e-02
  1.0179471e+00
  4.7629710e-05
  9.0352747e-05
 -1.1647338e-04
 -3.6096290e-01
 -1.3377661e-06
 -1.4919322e-06
 -1.2291574e-05
  6.9282723e-05
  2.0242385e-05
  4.9298343e-09
 -6.8505302e-05
  9.0812846e-06
  1.7471579e-04
 -4.7112255e-07
 -1.5874334e-06
  4.9144583e-06
  1.0723330e-06
  4.5771543e-05
  4.2781903e-05
 -5.4486343e-05
  2.9469774e-07
 -2.3712022e-05
 -5.6575791e-05
 -2.7528599e-06
 -2.6103700e-05
  6.4752153e-06
  2.9730434e-06
  4.8726455e-05
  2.9995610e-06
 -3.2719591e-04
  3.1264387e-06
 -1.3316425e-05
 -6.1444189e-05
 -3.2683336e-05
 -8.8043134e-06
  1.8282348e-05
 -4.7117140e-07
  3.7787270e-06
  2.5754858e-05
  9.3530580e-06
  2.0936117e-05
 -3.4372881e-04
  4.3488104e-05
  1.8831965e-04
  3.0983505e-05
  8.2908555e-05
 -8.7643029e-06
  3.2817354e-06
  1.5021825e-05
  6.4186584e-06
 -3.3082339e-04
  4.9326060e-05
 -2.5081763e-05
 -2.6543601e-05
 -9.0705216e-06
 -5.1384362e-05
  1.9765692e-05
 -1.1862003e-05
  4.9785005e-05
  2.5698168e-05
 -2.0609787e-05
  3.1260664e-05
  1.1752291e-05
  2.6572876e-05
  1.2911897e-04
  2.0490890e-05
 -3.5983659e-05
  3.0053377e-06
 -8.9597752e-06
 -4.5504089e-06
 -1.4357643e-05
 -9.5650548e-06
  4.3647367e-05
  1.5961972e-05
  2.2661899e-05
 -2.2199471e-05
 -8.8930341e-07
 -2.4037232e-05
  3.2258456e-06
 -9.0758404e-06
 -6.5166046e-06
  2.5536753e-02
  4.6866443e-02
  2.1974108e-01
  3.6892879e-03
 -2.4940592e-01
  2.2973614e-04
  1.9686358e-01
 -6.9137037e-05
 -2.4303099e-05
 -1.4242377e-04
  1.5540459e-04
  1.5108993e-05
  1.9299649e-05
 -8.5426924e-05
 -1.3516279e-04
 -3.1755283e-06
 -8.7394868e-04
  4.7910311e-05
 -4.3405885e-06
  1.6692285e-04
  9.3068767e-05
 -6.1233062e-04
 -1.8456771e-05
 -1.9273863e-04
  4.0303189e-03
 -6.2556108e-05
  6.8455696e-04
  1.3397589e-04
 -1.9577393e-02
  2.2992646e-05
 -3.1886392e-03
  2.7638345e-03
  7.5336453e-04
  7.4986619e-04
  2.4622261e-05
  1.6194890e-05
 -2.5696580e-05
  1.1554722e-06
 -8.8660215e-07
 -2.5232084e-06
 -1.8901555e-05
  2.0345786e-05
  1.2605560e-02
  3.9611843e-01
 -6.6638347e-03
  2.5414678e-01
 -1.8401350e-01
  2.1677712e-01
  6.8452191e-01
  4.9980572e-06
  2.6624366e-06
 -3.2257060e-05
  1.4844437e-06
 -1.3999041e-04
 -5.9465774e-06
  8.6141910e-05
 -5.1721506e-04
 -3.9455576e-06
  5.4233060e-05
 -6.1425599e-05
 -1.2642205e-04
  4.2815129e-05
 -1.2628094e-04
 -5.0881990e-05
  4.3914981e-05
 -1.2410499e-04
  4.7945141e-05
 -5.5409732e-06
 -1.4771434e-04
  9.4532916e-05
 -1.1110428e-03
 -8.6694243e-05
 -3.4858056e-04
 -4.9299292e-06
  9.0590402e-06
  3.6205331e-04
  1.9740155e-05
  1.4051290e-06
 -3.3332231e-05
 -1.1260950e-05
  6.2548497e-05
 -2.8514216e-04
  2.5946019e-05
 -1.1264245e-05
 -1.8947528e-06
  1.4261833e-05
 -3.9282769e-01
 -3.1554431e-05
  2.5358933e-05
  2.5704747e-05
  4.7938916e-01
 -2.0738717e-05
  1.7689288e-07
 -1.1737672e-05
  2.6053853e-05
  8.3168497e-06
 -5.7606405e-05
 -1.1082130e-05
  1.1049642e-05
  1.2336098e-04
  6.9449497e-06
 -1.1901892e-06
 -6.2935134e-05
  2.7014134e-05
 -7.7227007e-05
 -1.2900226e-07
  1.3176555e-06
 -1.0996689e-04
  5.1887466e-05
  6.4822183e-07
 -1.7147513e-05
  1.1921141e-04
 -7.4367081e-06
  2.7728709e-05
 -1.2092702e-05
  1.3708644e-05
 -3.5443391e-06
  4.9153279e-04
  5.6889028e-05
  7.1567615e-06
  1.9348583e-05
 -5.8089641e-05
 -5.5676201e-06
  1.2800050e-05
  2.1283049e-05
  5.5759116e-05
 -3.4062099e-01
  3.3684024e-01
  1.3959703e+00
  1.2770669e-01
 -1.6912289e-01
 -6.5466392e-01
 -1.2603420e+00
 -6.9966147e-05
 -1.4179805e-06
  2.6733564e-05
  1.1626225e-04
 -1.3777550e-04
 -5.7210807e-05
 -2.5758220e-06
 -1.8879047e-05
 -1.8613155e-05
  1.6929103e-05
  3.2233584e-05
  3.0636300e-05
 -4.3597817e-03
 -3.6075038e-05
  8.6307900e-06
 -2.8849026e-06
  7.8938567e-05
  4.1435760e-06
 -3.5380592e-05
 -1.3816143e-04
 -6.2292315e-02
  7.6583519e-06
 -1.7577056e-04
  4.2181084e-05
 -1.2497877e-05
 -3.1976673e-05
 -2.0061744e-02
 -4.4417022e-05
 -1.3315434e-05
 -5.3116360e-06
  1.4587069e-06
  6.9935018e-06
  9.1952461e-05
  3.4227546e-06
 -5.4824191e-06
 -6.7705256e-01
 -3.7689057e-01
 -1.7832458e-01
  4.2323354e-06
 -1.8212477e-02
 -5.3658091e-02
 -5.3866498e-02
 -9.8343958e-07
  3.2658845e-05
  3.8955226e-05
  9.7157690e-06
 -7.0464048e-06
  6.3807588e-06
 -9.3774011e-05
  8.9986650e-05
 -7.5524084e-05
  9.5960277e-06
  1.9998211e-05
 -1.9300001e-06
 -5.4654614e-05
  2.1182157e-06
  6.8417306e-05
  2.0954387e-05
 -4.1111421e-06
  3.5571106e-06
  4.9034235e-05
 -4.6476084e-03
 -8.8354260e-02
  2.3785979e-05
 -1.9444752e-04
 -2.5284874e-06
 -4.6126912e-05
  2.7332026e-05
 -2.8405299e-03
 -3.8243957e-02
  1.1350847e-05
 -6.1136043e-06
 -7.0910783e-06
 -6.0554971e-06
  1.2185032e-05
 -3.5111036e-06
  1.0614661e-05
  9.5874369e-01
  3.9188457e-01
 -4.3871221e-01
  6.6270059e-01
 -6.9665790e-01
  5.0752616e-01
  5.7629831e-03
 -1.0405679e-05
 -5.8239122e-05
 -3.0918652e-04
 -2.5916845e-06
  1.5235503e-04
 -7.0319111e-06
 -2.1572268e-05
 -1.2186989e-05
 -2.0028912e-05
 -9.8529425e-05
  4.0426556e-05
 -1.9419879e-02
  2.1116208e-01
  4.9634257e-01
 -8.2640063e-06
 -4.3118151e-05
  9.5807889e-07
  1.8681412e-03
  2.5947800e-06
  3.4332365e-02
  2.7319162e-05
  1.5333910e-05
 -6.6751086e-06
 -1.0857204e-04
  1.3647904e-01
  9.8440945e-03
  5.3934839e-02
  6.0088646e-01
 -4.3798966e-05
 -8.8395436e-06
 -9.4553279e-06
  2.3767225e-05
  1.4504007e-04
  2.8138151e-05
  3.3729426e-05
  4.2558342e-02
 -3.2609391e-06
 -6.2895597e-06
  1.4148728e-05
  8.1415549e-03
  6.1481383e-05
  9.0457164e-02
  3.8388534e-05
  4.1269919e-05
  3.5727194e-06
  5.5741504e-05
  1.2970876e-04
  5.3387066e-05
  1.4740884e-05
 -3.1353764e-05
  3.6063619e-05
 -2.5677742e-05
 -1.5628753e-05
 -1.1827560e-04
  1.7862863e-04
  1.8245797e-04
 -4.0417464e-05
  7.2085051e-05
 -7.8407378e-05
  2.7724725e-05
 -2.3059925e-04
  1.4043328e-03
  4.8620095e-05
 -6.7320466e-06
  3.8927134e-05
 -1.0247767e-03
  6.1882289e-05
  5.0068618e-04
  9.8795760e-03
  9.0733301e-05
  6.7289984e-06
 -4.8453763e-05
  6.8209729e-06
  5.7421159e-05
 -1.2854642e-05
  5.5778440e-07
  3.8738141e-05
  2.4233523e-06
 -7.8297584e-05
  7.8119061e-05
 -1.6157073e-05
  3.1756859e-05
 -3.7701153e-05
  7.7228833e-06
  9.1609800e-05
  4.6420587e-06
  1.5566196e-05
 -1.0075939e-06
  3.9137774e-08
 -2.3751716e-06
  6.7466008e-06
  8.4486510e-06
  1.6398599e-05
  1.2366848e-05
 -2.9290703e-05
 -2.1618745e-05
 -2.8794436e-06
 -1.6563201e-05
  2.1924059e-06
  2.0350895e-05
 -3.0214969e-05
  3.7984810e-06
  4.6282048e-06
  2.3708704e-05
  7.8516523e-06
 -4.9578293e-06
 -8.1248209e-07
  2.5978068e-05
  4.5491703e-05
  4.5550206e-07
  2.1636972e-05
  2.0462054e-05
 -2.1860720e-05
 -3.9330447e-05
 -7.5033298e-05
 -1.9690277e-05
  1.1373975e-06
 -2.5756619e-05
  9.8630571e-06
 -6.0395312e-02
 -7.4135423e-02
  7.2111592e-02
 -1.6403470e-05
 -2.7140440e-02
 -1.8830771e-04
 -2.4980606e-01
  8.7815570e-06
  8.9548303e-07
 -4.0749055e-06
 -1.3237161e-04
 -1.6409910e-04
 -1.5325064e-05
 -6.5267173e-05
  1.1618038e-04
  4.4572342e-05
  1.1892585e-04
 -6.8901809e-06
 -2.6184453e-06
 -1.6680153e-04
  4.1325744e-05
  7.3486811e-04
  7.2440627e-05
  1.5194190e-04
 -3.6158162e-04
 -6.7007372e-06
 -1.5248253e-03
 -4.9357888e-05
  2.7794568e-04
 -3.7475285e-05
  2.5789894e-04
 -2.3822481e-04
 -2.5305379e-04
 -1.0811153e-02
 -1.8739012e-01
 -2.4131527e-06
  2.1272059e-05
  3.7916951e-05
  1.8253285e-06
 -3.8348649e-06
 -1.2947423e-05
  5.6814170e-05
  5.3957289e-01
  4.4619137e-01
  2.1243760e-01
 -6.2430972e-01
  1.1359356e-01
 -4.4114125e-01
 -4.7778586e-01
  8.8614365e-03
 -7.6084184e-06
  8.9581189e-04
  1.7331779e-04
 -1.2426242e-05
  2.9373432e-02
  1.4523766e-04
 -1.4772232e-01
 -6.2811446e-01
  2.7552808e-02
 -6.1917162e-01
  3.0404390e-03
 -2.0721461e-01
 -1.7399883e+00
  7.5187677e-01
  7.2823417e-01
  6.1915070e-02
 -3.2267131e-02
  3.8858161e-03
  1.5165234e-01
  2.6658990e+00
  6.1851036e-02
 -7.2212733e-02
  1.7562808e-02
 -3.3164641e-01
 -9.9047007e-05
 -1.5157692e-02
 -2.2279242e-01
  2.2716897e-05
  2.0555569e-01
  1.4989595e-04
 -8.3252362e-06
  3.4223645e-05
 -2.5772527e-02
 -4.7114953e-01
 -4.4285375e-06
  7.6879160e-06
 -3.0052748e-05
 -2.3154909e-05
 -2.5520575e-07
  1.3925433e-05
  1.0439964e-05
  7.6022161e-06
  2.3797271e-05
 -2.5842091e-06
  2.8353381e-05
  1.7162723e-06
  6.3429427e-05
 -5.6554354e-06
 -2.2843678e-05
  3.4590255e-05
 -1.5561125e-05
 -4.1411786e-05
 -9.1634665e-06
 -7.9000765e-06
 -1.7159549e-05
  3.2085605e-05
  5.1739557e-05
 -3.5170342e-05
  1.3173556e-05
  5.0407834e-06
 -1.0288469e-05
 -5.7016692e-05
 -5.2775518e-05
 -7.8736457e-06
 -3.2773143e-05
 -3.8473896e-05
  1.1152090e-05
  3.7744626e-06
  1.7835100e-05
  4.6150622e-06
  2.9507407e-06
  2.7661681e-06
  3.0380892e-05
  2.4455219e-05
  2.7258097e-06
  3.5076326e-05
 -7.6197051e-02
 -1.9639364e-02
  7.9347050e-01
 -5.4422361e-03
  6.7120492e-01
 -8.4655419e-02
 -6.8744130e-02
  1.4270429e-05
 -4.1688345e-02
  1.6283002e-05
  3.2495253e-05
 -5.7701908e-02
  9.2036244e-05
 -6.8912804e-02
 -3.6694644e-05
  2.0578213e-06
  1.1734821e-05
  3.6631266e-06
  1.7350268e-02
 -6.2129105e-04
 -2.3912344e-02
  2.4519462e-05
 -9.4450235e-02
  1.8681970e-04
 -4.0898122e-02
 -8.4129703e-04
  5.0856508e-02
 -6.3011035e-02
  2.4511022e-02
 -1.9942068e-02
  1.6779907e-02
 -5.4179134e-05
  3.4226745e-05
  2.6031679e-02
 -5.8574665e-02
  2.5169616e-06
  2.3316299e-04
 -4.1939716e-06
  1.9682177e-05
  3.7664020e-05
  3.9526853e-03
 -1.6260696e-05
 -7.6984161e-01
  5.3678507e-01
 -5.0805774e-02
 -2.0029807e+00
  3.5708165e-01
  8.7253952e-01
 -3.3927733e-01
  4.7540034e-05
 -1.2540586e-01
 -2.2905003e-06
 -1.7335837e-05
  1.4927302e-02
  5.0007712e-02
 -4.4071791e-01
  6.4344343e-04
 -2.1065526e-04
  4.0578198e-05
  1.0377465e-06
 -2.2425149e-01
 -1.0290799e-03
 -5.7539630e-01
  2.9285608e-03
 -6.9119865e-01
  3.1907711e-04
 -7.4089262e-06
 -9.5870360e-05
 -4.4008726e-03
 -2.1363672e-02
  1.2467181e-01
 -3.3232504e-01
  3.9840175e-04
 -1.1081286e-04
 -9.7846232e-02
 -2.2780309e-04
 -1.0049281e-01
 -3.2202024e-05
  3.4185869e-04
 -3.8644494e-06
  2.1833315e-05
 -1.4007272e-06
  8.4137406e-05
 -2.1455153e-05
  1.2550136e-05
 -8.6382133e-06
 -7.5463386e-06
 -1.7401891e-05
 -1.8454743e-05
 -1.3819375e-05
 -1.8889500e-06
  1.5684200e-05
 -3.3236967e-05
 -5.8988389e-06
 -8.2255618e-05
  1.7811142e-05
 -4.0055993e-06
  6.1150022e-06
  1.3968416e-05
 -5.0414184e-07
 -5.7314341e-05
  2.2256385e-05
  2.1978851e-06
  4.6093089e-07
 -4.0561936e-06
  2.2009990e-05
 -6.7911651e-06
  2.0796600e-07
  2.1255108e-05
 -3.9682459e-06
 -2.8951808e-06
 -8.1352600e-06
 -5.1056988e-05
 -7.1611607e-06
 -1.1110884e-06
 -3.1528523e-07
 -2.5532308e-06
 -9.4191228e-06
 -3.1370891e-07
  3.3788378e-06
  4.2031133e-06
  2.0522992e-05
 -1.6814427e-05
 -4.2309393e-06
 -3.0464560e-05
  1.9636273e-05
  1.6047081e+00
  1.2418735e+00
 -2.2023742e-01
 -5.0799731e-02
  5.5212247e-01
  4.9582562e-01
  8.0698544e-01
  6.7880224e-05
  1.1241943e+00
 -6.9684563e-07
  8.5105305e-05
 -9.5581869e-03
  6.1583962e-02
  9.6047491e-01
 -7.0325369e-01
  5.4677361e-01
 -3.7703708e-02
  4.7567385e-01
 -5.2040108e-02
 -1.6896731e-03
  1.1172570e+00
 -2.8107357e-01
  1.5461423e+00
 -4.8402574e-02
  9.9934652e-02
 -7.1749506e-03
  2.2030309e-01
  1.7488110e+00
 -1.7302269e+00
  1.0479493e+00
  5.8389978e-05
  6.0091127e-02
  4.4330254e-02
 -1.4390286e-02
  7.2155648e-01
 -9.2737710e-06
 -2.9877049e-01
 -4.6055811e-05
 -2.6029506e-06
 -7.6819673e-02
 -1.5109743e-01
  1.3619186e-01
 -6.1474268e-05
 -2.3021989e-06
  4.2255915e-06
  1.3947519e-04
 -8.5739457e-06
 -5.1160368e-06
 -7.8953228e-05
  3.0811127e-06
 -1.6230601e-05
  6.1456999e-06
 -1.1263896e-05
  7.2793100e-06
 -3.2685111e-05
 -2.1558468e-05
 -4.5250299e-06
  4.6396403e-06
  7.0573924e-06
  8.7155445e-07
 -3.3802223e-06
 -1.9288453e-05
 -1.2469694e-05
 -1.7697355e-06
  3.8450034e-06
  4.1444309e-05
  1.5455153e-05
 -5.2302345e-05
  4.5191318e-06
 -2.9979486e-05
  1.0664472e-05
  8.5640013e-06
  1.5661542e-06
  1.4397879e-05
  6.4538640e-06
 -3.2674088e-05
 -1.1514156e-06
  1.9039253e-05
  8.6670781e-08
  2.1370728e-05
 -1.0195274e-06
 -5.2959422e-06
  5.4375007e-05
 -4.3912092e-05
  1.2205336e+00
  1.3506023e+00
  9.2869633e-01
 -7.2920859e-02
  7.4120200e-01
  4.4774580e-01
 -5.3004777e-01
  2.0362819e-05
 -1.2055445e-05
 -1.7558700e-06
  2.6878024e-05
  3.3850249e-02
 -1.8766246e-04
  2.1551448e-05
  5.5768883e-06
 -5.7654615e-06
  1.4710928e-05
  1.5580870e-04
  4.7323946e-03
  6.1962814e-03
  8.0258153e-02
  1.2422265e-01
 -9.4147310e-07
  5.9428389e-06
  3.8127822e-05
  3.6377290e-03
  2.7504757e-03
  8.1537801e-01
  4.4790952e-04
  5.2194358e-05
 -1.6333081e-05
 -6.7118424e-05
 -1.4578295e-04
 -3.5863422e-02
  1.7106099e-04
 -2.3802620e-06
 -4.0330492e-06
 -9.8708579e-06
 -9.7711214e-05
 -3.0420062e-05
  2.9777219e-05
 -6.0979710e-06
  1.8487686e-05
  2.7224920e-05
  5.8717897e-06
  1.7999973e-05
  2.5079828e-05
 -8.6424021e-05
 -1.2915682e-06
  7.4088202e-06
 -3.3609049e-05
  1.2093887e-04
 -2.1960332e-05
  5.8780326e-05
 -7.5785116e-05
  2.1254535e-05
  1.5789696e-05
 -4.8387701e-05
 -7.1376148e-06
  1.2535605e-07
 -5.9747970e-05
 -9.4268798e-06
  1.9278341e-05
  2.9362795e-05
  3.7536709e-06
 -4.4397875e-06
 -2.2482358e-05
 -2.6778880e-05
  4.2859901e-06
  3.9455651e-07
  5.5992618e-06
 -1.0786584e-06
  7.2652251e-06
 -2.7815122e-05
  6.0284547e-06
 -1.4833179e-05
  6.4085943e-06
 -6.9295481e-07
 -1.5505333e-05
  1.1579115e-05
  8.4862353e-05
 -3.9515235e-06
 -3.4292163e-05
  2.5958443e-06
  1.3086694e-06
 -3.2563023e-02
 -2.2894112e-06
  7.0420021e-01
  3.3017386e-05
 -1.3224113e+00
 -1.6041807e-04
 -3.1557385e-05
 -7.8538495e-01
 -7.2741911e-02
  5.7119207e-05
  5.8581503e-05
 -6.8838881e-07
 -1.0239182e-05
 -1.9437869e-06
  1.9071392e+00
  1.4165443e-04
  1.1348253e+00
  7.5496704e-05
  1.2442310e+00
 -1.9137000e+00
 -1.4424541e-04
 -7.8249782e-01
 -1.0247213e+00
  1.3235615e+00
  3.8899084e-06
 -1.3831028e+00
  3.2499694e-05
  7.7457082e-01
 -1.0645443e-04
 -1.1726188e-01
  1.6350043e-04
  3.6504975e-01
  1.5932841e+00
  2.5468082e-06
 -2.1611203e-01
  1.4127767e-05
 -8.4249049e-01
 -1.4809701e-05
 -1.6585076e-05
 -1.0522901e-05
  1.0171636e+00
  3.5357083e-05
 -7.3254734e-01
 -8.4324604e-01
  8.9518289e-05
  1.0691607e+00
 -3.8892150e-04
  2.4831474e+00
 -1.3862427e-04
 -5.9084750e-06
 -2.0734351e+00
  7.2162412e-02
 -4.9443436e-01
  3.7713598e-06
  6.7378151e-01
  2.6874759e-04
 -9.5668127e-04
 -7.2375077e-01
 -1.7365891e-01
 -2.0553074e-04
  1.1439846e-01
 -1.7004235e-01
 -1.5393040e-01
 -1.2093424e-01
 -1.1724409e+00
  5.0164340e-04
  9.6796191e-01
  1.6310200e-01
 -1.9561495e+00
 -2.0741858e+00
 -2.0928185e-04
  6.7511719e-01
  3.9641163e-01
  8.8362984e-02
 -1.5793602e-01
 -2.6718816e-01
  5.1036752e-03
 -2.2868469e-01
  1.4820600e-01
 -9.1643639e-02
 -2.5980006e-04
  3.0499569e-01
  1.0765560e+00
  7.9358652e-02
 -1.8054217e-01
 -1.3550879e-01
  2.5086108e-01
  1.8758735e-01
  1.7090843e-04
 -2.0894170e-01
 -9.4616270e-01
 -4.4475390e-05
 -8.8993180e-01
 -4.3577716e-01
  3.7441529e-05
  7.0463139e-01
  7.6292767e-05
 -1.0494144e+00
  1.0321875e-04
  2.8619644e-01
 -1.1349630e+00
  7.7422523e-01
  1.0504099e+00
 -5.3199750e-01
  5.7836568e-01
  1.1198261e+00
  2.3296206e-01
 -6.2390846e-01
  4.5156559e-01
  3.2040259e-01
  7.2398818e-01
 -4.0380347e-01
 -1.0607284e+00
  8.2914039e-02
 -4.8560917e-02
  1.3171598e+00
  9.8173684e-01
 -1.6772963e+00
 -6.7806423e-01
  6.9165641e-01
  1.1121053e+00
  4.8214066e-01
 -1.0287615e+00
  7.2916400e-01
  2.3588688e+00
  6.7453241e-01
  3.0821490e-01
  2.3796083e-01
  6.1294800e-01
  4.1527757e-01
 -2.1392307e-01
 -2.2564168e-01
  4.1194484e-01
 -6.6743717e-02
  1.6702452e+00
 -1.0899245e+00
 -9.8635304e-01
  3.5167918e-01
  2.9318962e-01
 -5.5171603e-01
 -8.9344896e-02
  9.6514678e-01
  1.1683826e+00
  5.5724818e-01
  5.7829660e-01
 -4.8175907e-01
  1.1590680e+00
  1.3926303e-01
 -1.3897924e+00
  3.7747398e-01
  3.3745116e-01
 -5.5751997e-01
  1.1014419e-01
  5.6497782e-01
  4.6832323e-01
 -7.8249502e-01
  1.0578482e-01
  8.0581164e-01
 -9.1498846e-01
 -9.3838984e-01
  1.2816459e+00
  6.4422870e-01
  2.3240636e-01
  7.9091293e-01
  3.8958469e-01
  3.9172438e-01
 -1.8422263e-02
  1.9413637e+00
 -2.1880195e+00
 -2.8297007e-01
  1.7515309e+00
  7.9975462e-01
 -5.4126424e-01
 -5.6524187e-01
  2.7555552e-01
  6.4644325e-01
 -4.4235650e-02
  1.4885494e+00
  1.6979747e+00
 -7.5041419e-01
 -9.1161005e-02
  7.8130370e-01
  9.3134630e-01
 -1.3115542e+00
 -1.3488671e+00
 -7.8956658e-01
  2.9726881e-01
  2.9357023e+00
 -2.3194275e+00
 -7.4115682e-01
  1.5661669e+00
  3.0061517e+00
 -1.2419549e-02
 -1.3946558e+00
 -1.4657902e+00
  3.1786448e-01
  9.7671227e-06
 -3.4154058e-01
 -1.5842967e-01
 -1.0184449e+00
 -4.6251497e-01
 -2.8352290e-01
  1.1460499e+00
  5.2089524e-01
 -1.5281494e-01
 -2.0129201e-01
 -1.9837635e+00
  2.9370195e-01
  4.3684664e-01
  1.7145460e+00
 -5.1568341e-02
  2.6252118e-01
  1.1262085e-01
 -2.8525871e-01
  3.3035544e-01
  5.8924842e-01
  6.5962687e-02
  1.7826030e-02
 -6.5588647e-01
  1.1676599e+00
  1.3232727e+00
  4.8960769e-01
 -2.4253111e-01
 -4.1230005e-01
  6.5798694e-01
 -1.9604531e-03
 -4.1870391e-01
  1.1273521e-01
  8.4188575e-01
 -9.6934396e-01
 -1.2802851e-01
 -5.2141112e-01
 -2.7637479e+00
  6.3072479e-01
  7.9780573e-01
 -2.1405556e+00
 -1.8432454e+00
  6.5561831e-01
  1.6758604e+00
  7.8913844e-01
  2.1689633e-02
  2.1689633e-02
  2.1689633e-02
  2.1689633e-02
  2.1689633e-02
  2.1689633e-02
  2.1689633e-02
  1.2153464e-02
  1.2153464e-02
  1.2153464e-02
  1.2153464e-02
  1.2153464e-02
  1.2153464e-02
  1.2153464e-02
  2.1810818e-02
  2.1810818e-02
  2.1810818e-02
  2.1810818e-02
  2.1810818e-02
  2.1810818e-02
  2.1810818e-02
  2.2195937e-02
  2.2195937e-02
  2.2195937e-02
  2.2195937e-02
  2.2195937e-02
  2.2195937e-02
  2.2195937e-02
  1.1919141e-02
  1.1919141e-02
  1.1919141e-02
  1.1919141e-02
  1.1919141e-02
  1.1919141e-02
  1.1919141e-02
  1.1393461e-02
  1.1393461e-02
  1.1393461e-02
  1.1393461e-02
  1.1393461e-02
  1.1393461e-02
  1.1393461e-02
